<?xml version="1.0"?>
<opencv_storage>
<cascade>
  <stageType>BOOST</stageType>
  <featureType>HAAR</featureType>
  <height>36</height>
  <width>24</width>
  <stageParams>
    <boostType>GAB</boostType>
    <minHitRate>9.9500000476837158e-01</minHitRate>
    <maxFalseAlarm>5.0000000000000000e-01</maxFalseAlarm>
    <weightTrimRate>9.4999998807907104e-01</weightTrimRate>
    <maxDepth>1</maxDepth>
    <maxWeakCount>100</maxWeakCount></stageParams>
  <featureParams>
    <maxCatCount>0</maxCatCount>
    <featSize>1</featSize>
    <mode>BASIC</mode></featureParams>
  <stageNum>10</stageNum>
  <stages>
    <!-- stage 0 -->
    <_>
      <maxWeakCount>3</maxWeakCount>
      <stageThreshold>-1.4203048944473267e+00</stageThreshold>
      <weakClassifiers>
        <_>
          <internalNodes>
            0 -1 3 -1.5519654750823975e-01</internalNodes>
          <leafValues>
            5.4166668653488159e-01 -9.5454543828964233e-01</leafValues></_>
        <_>
          <internalNodes>
            0 -1 37 1.7771735787391663e-02</internalNodes>
          <leafValues>
            -9.2469698190689087e-01 4.8459064960479736e-01</leafValues></_>
        <_>
          <internalNodes>
            0 -1 9 -2.9936429113149643e-02</internalNodes>
          <leafValues>
            5.9178465604782104e-01 -9.5035010576248169e-01</leafValues></_></weakClassifiers></_>
    <!-- stage 1 -->
    <_>
      <maxWeakCount>3</maxWeakCount>
      <stageThreshold>-1.6312212944030762e+00</stageThreshold>
      <weakClassifiers>
        <_>
          <internalNodes>
            0 -1 6 -2.9579222202301025e-02</internalNodes>
          <leafValues>
            -2.1904762089252472e-01 -9.6020942926406860e-01</leafValues></_>
        <_>
          <internalNodes>
            0 -1 33 8.5003666579723358e-02</internalNodes>
          <leafValues>
            -8.9280629158020020e-01 2.1882021427154541e-01</leafValues></_>
        <_>
          <internalNodes>
            0 -1 11 1.2351548671722412e-01</internalNodes>
          <leafValues>
            -8.8983201980590820e-01 5.0481081008911133e-01</leafValues></_></weakClassifiers></_>
    <!-- stage 2 -->
    <_>
      <maxWeakCount>3</maxWeakCount>
      <stageThreshold>-1.3818019628524780e+00</stageThreshold>
      <weakClassifiers>
        <_>
          <internalNodes>
            0 -1 30 1.5704262768849730e-03</internalNodes>
          <leafValues>
            -9.3217056989669800e-01 7.8571426868438721e-01</leafValues></_>
        <_>
          <internalNodes>
            0 -1 4 -4.3021962046623230e-02</internalNodes>
          <leafValues>
            5.2466481924057007e-01 -8.7158477306365967e-01</leafValues></_>
        <_>
          <internalNodes>
            0 -1 12 -7.4764606542885303e-03</internalNodes>
          <leafValues>
            4.2195340991020203e-01 -9.4042396545410156e-01</leafValues></_></weakClassifiers></_>
    <!-- stage 3 -->
    <_>
      <maxWeakCount>3</maxWeakCount>
      <stageThreshold>-1.5115284919738770e+00</stageThreshold>
      <weakClassifiers>
        <_>
          <internalNodes>
            0 -1 22 -7.2527360171079636e-03</internalNodes>
          <leafValues>
            6.5217393636703491e-01 -9.2092573642730713e-01</leafValues></_>
        <_>
          <internalNodes>
            0 -1 23 -5.6029193103313446e-02</internalNodes>
          <leafValues>
            2.1007680892944336e-01 -9.5024114847183228e-01</leafValues></_>
        <_>
          <internalNodes>
            0 -1 0 -6.5051484853029251e-03</internalNodes>
          <leafValues>
            3.5963842272758484e-01 -7.8608494997024536e-01</leafValues></_></weakClassifiers></_>
    <!-- stage 4 -->
    <_>
      <maxWeakCount>3</maxWeakCount>
      <stageThreshold>-1.6584069728851318e+00</stageThreshold>
      <weakClassifiers>
        <_>
          <internalNodes>
            0 -1 32 -9.1836717911064625e-04</internalNodes>
          <leafValues>
            2.9729729890823364e-01 -9.2961877584457397e-01</leafValues></_>
        <_>
          <internalNodes>
            0 -1 35 -1.1972154024988413e-03</internalNodes>
          <leafValues>
            5.0316613167524338e-02 -8.7719905376434326e-01</leafValues></_>
        <_>
          <internalNodes>
            0 -1 8 -7.9053286463022232e-03</internalNodes>
          <leafValues>
            4.1100931167602539e-01 -7.7910482883453369e-01</leafValues></_></weakClassifiers></_>
    <!-- stage 5 -->
    <_>
      <maxWeakCount>5</maxWeakCount>
      <stageThreshold>-1.3535863161087036e+00</stageThreshold>
      <weakClassifiers>
        <_>
          <internalNodes>
            0 -1 10 -8.9396871626377106e-03</internalNodes>
          <leafValues>
            6.5217393636703491e-01 -9.2092573642730713e-01</leafValues></_>
        <_>
          <internalNodes>
            0 -1 15 -1.9186830613762140e-03</internalNodes>
          <leafValues>
            6.7455387115478516e-01 -7.3711317777633667e-01</leafValues></_>
        <_>
          <internalNodes>
            0 -1 26 -1.0974018368870020e-03</internalNodes>
          <leafValues>
            5.1738673448562622e-01 -7.0615839958190918e-01</leafValues></_>
        <_>
          <internalNodes>
            0 -1 17 -1.6004595905542374e-02</internalNodes>
          <leafValues>
            3.2286503911018372e-01 -1.</leafValues></_>
        <_>
          <internalNodes>
            0 -1 5 -1.3980054855346680e-01</internalNodes>
          <leafValues>
            6.9011491537094116e-01 -5.3579908609390259e-01</leafValues></_></weakClassifiers></_>
    <!-- stage 6 -->
    <_>
      <maxWeakCount>5</maxWeakCount>
      <stageThreshold>-1.7193759679794312e+00</stageThreshold>
      <weakClassifiers>
        <_>
          <internalNodes>
            0 -1 21 -8.1118140369653702e-03</internalNodes>
          <leafValues>
            2.8000000119209290e-01 -9.1497582197189331e-01</leafValues></_>
        <_>
          <internalNodes>
            0 -1 24 -1.4023977518081665e-01</internalNodes>
          <leafValues>
            1.2559446692466736e-01 -8.3901458978652954e-01</leafValues></_>
        <_>
          <internalNodes>
            0 -1 20 1.5317883342504501e-02</internalNodes>
          <leafValues>
            -6.5466153621673584e-01 4.6740421652793884e-01</leafValues></_>
        <_>
          <internalNodes>
            0 -1 38 -4.2626878712326288e-04</internalNodes>
          <leafValues>
            4.9546697735786438e-01 -5.9497088193893433e-01</leafValues></_>
        <_>
          <internalNodes>
            0 -1 14 -5.4691955447196960e-03</internalNodes>
          <leafValues>
            3.7251704931259155e-01 -8.0242794752120972e-01</leafValues></_></weakClassifiers></_>
    <!-- stage 7 -->
    <_>
      <maxWeakCount>5</maxWeakCount>
      <stageThreshold>-1.8112891912460327e+00</stageThreshold>
      <weakClassifiers>
        <_>
          <internalNodes>
            0 -1 39 8.2604400813579559e-03</internalNodes>
          <leafValues>
            -9.3213570117950439e-01 -1.0344827920198441e-01</leafValues></_>
        <_>
          <internalNodes>
            0 -1 18 1.2629929929971695e-02</internalNodes>
          <leafValues>
            -8.1109511852264404e-01 6.0065742582082748e-02</leafValues></_>
        <_>
          <internalNodes>
            0 -1 28 -3.8540903478860855e-03</internalNodes>
          <leafValues>
            6.8184489011764526e-01 -4.9184432625770569e-01</leafValues></_>
        <_>
          <internalNodes>
            0 -1 13 -1.3228897005319595e-02</internalNodes>
          <leafValues>
            4.0650552511215210e-01 -7.5856214761734009e-01</leafValues></_>
        <_>
          <internalNodes>
            0 -1 25 -1.4985281450208277e-04</internalNodes>
          <leafValues>
            3.1118732690811157e-01 -9.1805130243301392e-01</leafValues></_></weakClassifiers></_>
    <!-- stage 8 -->
    <_>
      <maxWeakCount>5</maxWeakCount>
      <stageThreshold>-1.8966735601425171e+00</stageThreshold>
      <weakClassifiers>
        <_>
          <internalNodes>
            0 -1 27 -7.1531515568494797e-03</internalNodes>
          <leafValues>
            4.2857143282890320e-01 -9.1337823867797852e-01</leafValues></_>
        <_>
          <internalNodes>
            0 -1 36 9.0194284915924072e-02</internalNodes>
          <leafValues>
            -7.8647255897521973e-01 2.0442712306976318e-01</leafValues></_>
        <_>
          <internalNodes>
            0 -1 1 -1.5358484815806150e-03</internalNodes>
          <leafValues>
            2.7758750319480896e-01 -7.0109701156616211e-01</leafValues></_>
        <_>
          <internalNodes>
            0 -1 16 -7.7548106200993061e-03</internalNodes>
          <leafValues>
            3.4919977188110352e-01 -7.4126970767974854e-01</leafValues></_>
        <_>
          <internalNodes>
            0 -1 7 -2.1371219307184219e-02</internalNodes>
          <leafValues>
            3.5851660370826721e-01 -7.2404021024703979e-01</leafValues></_></weakClassifiers></_>
    <!-- stage 9 -->
    <_>
      <maxWeakCount>5</maxWeakCount>
      <stageThreshold>-1.9082105159759521e+00</stageThreshold>
      <weakClassifiers>
        <_>
          <internalNodes>
            0 -1 34 4.7275023534893990e-03</internalNodes>
          <leafValues>
            -9.0996170043945313e-01 6.2500000000000000e-01</leafValues></_>
        <_>
          <internalNodes>
            0 -1 2 -3.9972740411758423e-01</internalNodes>
          <leafValues>
            9.7425848245620728e-02 -7.7594894170761108e-01</leafValues></_>
        <_>
          <internalNodes>
            0 -1 31 -1.4247877988964319e-03</internalNodes>
          <leafValues>
            7.8148901462554932e-01 -4.1856458783149719e-01</leafValues></_>
        <_>
          <internalNodes>
            0 -1 29 2.1049790084362030e-03</internalNodes>
          <leafValues>
            3.0512282252311707e-01 -9.1338628530502319e-01</leafValues></_>
        <_>
          <internalNodes>
            0 -1 19 2.5028955191373825e-02</internalNodes>
          <leafValues>
            -8.9455556869506836e-01 2.3627616465091705e-01</leafValues></_></weakClassifiers></_></stages>
  <features>
    <_>
      <rects>
        <_>
          0 2 6 7 -1.</_>
        <_>
          2 2 2 7 3.</_></rects>
      <tilted>0</tilted></_>
    <_>
      <rects>
        <_>
          0 3 3 6 -1.</_>
        <_>
          0 5 3 2 3.</_></rects>
      <tilted>0</tilted></_>
    <_>
      <rects>
        <_>
          0 6 24 29 -1.</_>
        <_>
          8 6 8 29 3.</_></rects>
      <tilted>0</tilted></_>
    <_>
      <rects>
        <_>
          0 8 10 26 -1.</_>
        <_>
          5 8 5 26 2.</_></rects>
      <tilted>0</tilted></_>
    <_>
      <rects>
        <_>
          0 12 8 8 -1.</_>
        <_>
          4 12 4 8 2.</_></rects>
      <tilted>0</tilted></_>
    <_>
      <rects>
        <_>
          0 15 12 16 -1.</_>
        <_>
          6 15 6 16 2.</_></rects>
      <tilted>0</tilted></_>
    <_>
      <rects>
        <_>
          1 5 8 10 -1.</_>
        <_>
          1 5 4 5 2.</_>
        <_>
          5 10 4 5 2.</_></rects>
      <tilted>0</tilted></_>
    <_>
      <rects>
        <_>
          1 15 12 8 -1.</_>
        <_>
          5 15 4 8 3.</_></rects>
      <tilted>0</tilted></_>
    <_>
      <rects>
        <_>
          2 0 10 4 -1.</_>
        <_>
          2 2 10 2 2.</_></rects>
      <tilted>0</tilted></_>
    <_>
      <rects>
        <_>
          3 0 14 10 -1.</_>
        <_>
          3 0 7 5 2.</_>
        <_>
          10 5 7 5 2.</_></rects>
      <tilted>0</tilted></_>
    <_>
      <rects>
        <_>
          4 7 4 4 -1.</_>
        <_>
          4 7 2 2 2.</_>
        <_>
          6 9 2 2 2.</_></rects>
      <tilted>0</tilted></_>
    <_>
      <rects>
        <_>
          4 9 15 24 -1.</_>
        <_>
          4 17 15 8 3.</_></rects>
      <tilted>0</tilted></_>
    <_>
      <rects>
        <_>
          5 22 4 13 -1.</_>
        <_>
          7 22 2 13 2.</_></rects>
      <tilted>0</tilted></_>
    <_>
      <rects>
        <_>
          6 0 11 6 -1.</_>
        <_>
          6 3 11 3 2.</_></rects>
      <tilted>0</tilted></_>
    <_>
      <rects>
        <_>
          6 5 4 12 -1.</_>
        <_>
          6 9 4 4 3.</_></rects>
      <tilted>0</tilted></_>
    <_>
      <rects>
        <_>
          6 6 2 2 -1.</_>
        <_>
          6 7 2 1 2.</_></rects>
      <tilted>0</tilted></_>
    <_>
      <rects>
        <_>
          6 8 3 12 -1.</_>
        <_>
          6 12 3 4 3.</_></rects>
      <tilted>0</tilted></_>
    <_>
      <rects>
        <_>
          6 8 18 3 -1.</_>
        <_>
          12 8 6 3 3.</_></rects>
      <tilted>0</tilted></_>
    <_>
      <rects>
        <_>
          6 13 8 4 -1.</_>
        <_>
          10 13 4 4 2.</_></rects>
      <tilted>0</tilted></_>
    <_>
      <rects>
        <_>
          6 15 12 15 -1.</_>
        <_>
          6 20 12 5 3.</_></rects>
      <tilted>0</tilted></_>
    <_>
      <rects>
        <_>
          7 32 13 4 -1.</_>
        <_>
          7 34 13 2 2.</_></rects>
      <tilted>0</tilted></_>
    <_>
      <rects>
        <_>
          8 19 2 10 -1.</_>
        <_>
          8 19 1 5 2.</_>
        <_>
          9 24 1 5 2.</_></rects>
      <tilted>0</tilted></_>
    <_>
      <rects>
        <_>
          9 3 5 3 -1.</_>
        <_>
          9 4 5 1 3.</_></rects>
      <tilted>0</tilted></_>
    <_>
      <rects>
        <_>
          10 0 13 10 -1.</_>
        <_>
          10 5 13 5 2.</_></rects>
      <tilted>0</tilted></_>
    <_>
      <rects>
        <_>
          10 1 11 18 -1.</_>
        <_>
          10 7 11 6 3.</_></rects>
      <tilted>0</tilted></_>
    <_>
      <rects>
        <_>
          10 9 6 4 -1.</_>
        <_>
          12 9 2 4 3.</_></rects>
      <tilted>0</tilted></_>
    <_>
      <rects>
        <_>
          10 15 5 3 -1.</_>
        <_>
          10 16 5 1 3.</_></rects>
      <tilted>0</tilted></_>
    <_>
      <rects>
        <_>
          10 16 4 3 -1.</_>
        <_>
          10 17 4 1 3.</_></rects>
      <tilted>0</tilted></_>
    <_>
      <rects>
        <_>
          10 18 7 3 -1.</_>
        <_>
          10 19 7 1 3.</_></rects>
      <tilted>0</tilted></_>
    <_>
      <rects>
        <_>
          12 9 4 6 -1.</_>
        <_>
          14 9 2 6 2.</_></rects>
      <tilted>0</tilted></_>
    <_>
      <rects>
        <_>
          12 13 1 3 -1.</_>
        <_>
          12 14 1 1 3.</_></rects>
      <tilted>0</tilted></_>
    <_>
      <rects>
        <_>
          12 19 1 3 -1.</_>
        <_>
          12 20 1 1 3.</_></rects>
      <tilted>0</tilted></_>
    <_>
      <rects>
        <_>
          13 17 2 2 -1.</_>
        <_>
          13 17 1 1 2.</_>
        <_>
          14 18 1 1 2.</_></rects>
      <tilted>0</tilted></_>
    <_>
      <rects>
        <_>
          16 7 8 24 -1.</_>
        <_>
          20 7 4 24 2.</_></rects>
      <tilted>0</tilted></_>
    <_>
      <rects>
        <_>
          17 15 2 3 -1.</_>
        <_>
          17 16 2 1 3.</_></rects>
      <tilted>0</tilted></_>
    <_>
      <rects>
        <_>
          17 26 1 6 -1.</_>
        <_>
          17 28 1 2 3.</_></rects>
      <tilted>0</tilted></_>
    <_>
      <rects>
        <_>
          18 7 6 27 -1.</_>
        <_>
          21 7 3 27 2.</_></rects>
      <tilted>0</tilted></_>
    <_>
      <rects>
        <_>
          19 3 4 23 -1.</_>
        <_>
          21 3 2 23 2.</_></rects>
      <tilted>0</tilted></_>
    <_>
      <rects>
        <_>
          19 34 4 2 -1.</_>
        <_>
          19 35 4 1 2.</_></rects>
      <tilted>0</tilted></_>
    <_>
      <rects>
        <_>
          21 7 2 7 -1.</_>
        <_>
          22 7 1 7 2.</_></rects>
      <tilted>0</tilted></_></features></cascade>
</opencv_storage>
