<?xml version="1.0"?>
<opencv_storage>
<cascade>
  <stageType>BOOST</stageType>
  <featureType>HAAR</featureType>
  <height>36</height>
  <width>24</width>
  <stageParams>
    <boostType>GAB</boostType>
    <minHitRate>9.9500000476837158e-01</minHitRate>
    <maxFalseAlarm>5.0000000000000000e-01</maxFalseAlarm>
    <weightTrimRate>9.4999998807907104e-01</weightTrimRate>
    <maxDepth>1</maxDepth>
    <maxWeakCount>100</maxWeakCount></stageParams>
  <featureParams>
    <maxCatCount>0</maxCatCount>
    <featSize>1</featSize>
    <mode>BASIC</mode></featureParams>
  <stageNum>12</stageNum>
  <stages>
    <!-- stage 0 -->
    <_>
      <maxWeakCount>3</maxWeakCount>
      <stageThreshold>-1.3202425241470337e+00</stageThreshold>
      <weakClassifiers>
        <_>
          <internalNodes>
            0 -1 47 -5.1353685557842255e-02</internalNodes>
          <leafValues>
            4.0625000000000000e-01 -9.6200001239776611e-01</leafValues></_>
        <_>
          <internalNodes>
            0 -1 8 3.2301858067512512e-02</internalNodes>
          <leafValues>
            -8.8154512643814087e-01 5.4209476709365845e-01</leafValues></_>
        <_>
          <internalNodes>
            0 -1 12 4.6054620295763016e-02</internalNodes>
          <leafValues>
            -8.4494739770889282e-01 6.3366162776947021e-01</leafValues></_></weakClassifiers></_>
    <!-- stage 1 -->
    <_>
      <maxWeakCount>3</maxWeakCount>
      <stageThreshold>-1.3682190179824829e+00</stageThreshold>
      <weakClassifiers>
        <_>
          <internalNodes>
            0 -1 42 -8.1348121166229248e-02</internalNodes>
          <leafValues>
            6.6666670143604279e-02 -9.5146614313125610e-01</leafValues></_>
        <_>
          <internalNodes>
            0 -1 6 -1.3010615482926369e-02</internalNodes>
          <leafValues>
            3.7340670824050903e-01 -8.4867358207702637e-01</leafValues></_>
        <_>
          <internalNodes>
            0 -1 48 -1.7089448869228363e-02</internalNodes>
          <leafValues>
            5.4250484704971313e-01 -7.9015958309173584e-01</leafValues></_></weakClassifiers></_>
    <!-- stage 2 -->
    <_>
      <maxWeakCount>4</maxWeakCount>
      <stageThreshold>-1.6917065382003784e+00</stageThreshold>
      <weakClassifiers>
        <_>
          <internalNodes>
            0 -1 38 1.1742953211069107e-02</internalNodes>
          <leafValues>
            -9.2405062913894653e-01 3.5135135054588318e-01</leafValues></_>
        <_>
          <internalNodes>
            0 -1 17 5.9908330440521240e-03</internalNodes>
          <leafValues>
            -7.9058790206909180e-01 4.1725501418113708e-01</leafValues></_>
        <_>
          <internalNodes>
            0 -1 37 3.0129503458738327e-02</internalNodes>
          <leafValues>
            -7.0157527923583984e-01 5.0538438558578491e-01</leafValues></_>
        <_>
          <internalNodes>
            0 -1 34 6.3738068565726280e-03</internalNodes>
          <leafValues>
            -4.8245236277580261e-01 7.7453291416168213e-01</leafValues></_></weakClassifiers></_>
    <!-- stage 3 -->
    <_>
      <maxWeakCount>3</maxWeakCount>
      <stageThreshold>-1.5952779054641724e+00</stageThreshold>
      <weakClassifiers>
        <_>
          <internalNodes>
            0 -1 49 -1.4013009145855904e-02</internalNodes>
          <leafValues>
            6.8421053886413574e-01 -9.0813398361206055e-01</leafValues></_>
        <_>
          <internalNodes>
            0 -1 36 -5.5181896314024925e-03</internalNodes>
          <leafValues>
            1.4177155494689941e-01 -8.5080027580261230e-01</leafValues></_>
        <_>
          <internalNodes>
            0 -1 0 -3.3837571740150452e-02</internalNodes>
          <leafValues>
            3.3773702383041382e-01 -8.2891553640365601e-01</leafValues></_></weakClassifiers></_>
    <!-- stage 4 -->
    <_>
      <maxWeakCount>6</maxWeakCount>
      <stageThreshold>-1.7834287881851196e+00</stageThreshold>
      <weakClassifiers>
        <_>
          <internalNodes>
            0 -1 44 5.7378159835934639e-03</internalNodes>
          <leafValues>
            -9.1354465484619141e-01 6.5217393636703491e-01</leafValues></_>
        <_>
          <internalNodes>
            0 -1 29 -4.3876385316252708e-03</internalNodes>
          <leafValues>
            6.0511094331741333e-01 -7.5093221664428711e-01</leafValues></_>
        <_>
          <internalNodes>
            0 -1 7 -5.2708555012941360e-03</internalNodes>
          <leafValues>
            6.9045144319534302e-01 -5.7099336385726929e-01</leafValues></_>
        <_>
          <internalNodes>
            0 -1 32 -1.7073070630431175e-03</internalNodes>
          <leafValues>
            -1. 3.3199995756149292e-01</leafValues></_>
        <_>
          <internalNodes>
            0 -1 41 4.4933487661182880e-03</internalNodes>
          <leafValues>
            -4.2104247212409973e-01 8.5489022731781006e-01</leafValues></_>
        <_>
          <internalNodes>
            0 -1 4 2.0348895341157913e-03</internalNodes>
          <leafValues>
            -6.9954824447631836e-01 5.4108405113220215e-01</leafValues></_></weakClassifiers></_>
    <!-- stage 5 -->
    <_>
      <maxWeakCount>4</maxWeakCount>
      <stageThreshold>-1.7008062601089478e+00</stageThreshold>
      <weakClassifiers>
        <_>
          <internalNodes>
            0 -1 25 3.6385431885719299e-02</internalNodes>
          <leafValues>
            -9.2541706562042236e-01 1.5555556118488312e-01</leafValues></_>
        <_>
          <internalNodes>
            0 -1 43 1.6712320968508720e-02</internalNodes>
          <leafValues>
            -8.8858926296234131e-01 -4.9589749425649643e-02</leafValues></_>
        <_>
          <internalNodes>
            0 -1 2 -5.8318622177466750e-04</internalNodes>
          <leafValues>
            1.4666736125946045e-01 -9.1691505908966064e-01</leafValues></_>
        <_>
          <internalNodes>
            0 -1 16 1.1071115732192993e-02</internalNodes>
          <leafValues>
            -1. 1.9111563265323639e-01</leafValues></_></weakClassifiers></_>
    <!-- stage 6 -->
    <_>
      <maxWeakCount>5</maxWeakCount>
      <stageThreshold>-1.2655183076858521e+00</stageThreshold>
      <weakClassifiers>
        <_>
          <internalNodes>
            0 -1 33 -3.1060460954904556e-02</internalNodes>
          <leafValues>
            1. -9.0114068984985352e-01</leafValues></_>
        <_>
          <internalNodes>
            0 -1 5 8.3507830277085304e-03</internalNodes>
          <leafValues>
            -6.7971950769424438e-01 4.8716869950294495e-01</leafValues></_>
        <_>
          <internalNodes>
            0 -1 46 -2.2984826937317848e-02</internalNodes>
          <leafValues>
            2.7495631575584412e-01 -9.0278601646423340e-01</leafValues></_>
        <_>
          <internalNodes>
            0 -1 1 1.3252491131424904e-02</internalNodes>
          <leafValues>
            -3.8495379686355591e-01 7.3330938816070557e-01</leafValues></_>
        <_>
          <internalNodes>
            0 -1 45 -2.7014154475182295e-03</internalNodes>
          <leafValues>
            4.8481854796409607e-01 -6.0248315334320068e-01</leafValues></_></weakClassifiers></_>
    <!-- stage 7 -->
    <_>
      <maxWeakCount>5</maxWeakCount>
      <stageThreshold>-1.7930544614791870e+00</stageThreshold>
      <weakClassifiers>
        <_>
          <internalNodes>
            0 -1 13 3.1758540868759155e-01</internalNodes>
          <leafValues>
            -9.3413174152374268e-01 0.</leafValues></_>
        <_>
          <internalNodes>
            0 -1 3 6.3898237422108650e-03</internalNodes>
          <leafValues>
            -7.4130457639694214e-01 9.9750429391860962e-02</leafValues></_>
        <_>
          <internalNodes>
            0 -1 50 -4.0484685450792313e-03</internalNodes>
          <leafValues>
            5.4979020357131958e-01 -4.8695388436317444e-01</leafValues></_>
        <_>
          <internalNodes>
            0 -1 11 -1.3134420150890946e-03</internalNodes>
          <leafValues>
            -8.1696617603302002e-01 2.8297618031501770e-01</leafValues></_>
        <_>
          <internalNodes>
            0 -1 27 -5.3982725366950035e-03</internalNodes>
          <leafValues>
            3.4524691104888916e-01 -6.9386363029479980e-01</leafValues></_></weakClassifiers></_>
    <!-- stage 8 -->
    <_>
      <maxWeakCount>5</maxWeakCount>
      <stageThreshold>-1.8924767971038818e+00</stageThreshold>
      <weakClassifiers>
        <_>
          <internalNodes>
            0 -1 30 1.7388023436069489e-01</internalNodes>
          <leafValues>
            -9.3621397018432617e-01 -2.8260868787765503e-01</leafValues></_>
        <_>
          <internalNodes>
            0 -1 26 2.1830236539244652e-02</internalNodes>
          <leafValues>
            -7.4383223056793213e-01 1.4321865141391754e-01</leafValues></_>
        <_>
          <internalNodes>
            0 -1 31 2.2679688408970833e-03</internalNodes>
          <leafValues>
            1.4266335964202881e-01 -8.6954170465469360e-01</leafValues></_>
        <_>
          <internalNodes>
            0 -1 24 -8.6370948702096939e-03</internalNodes>
          <leafValues>
            -7.5222319364547729e-01 2.9277545213699341e-01</leafValues></_>
        <_>
          <internalNodes>
            0 -1 23 1.0415595024824142e-03</internalNodes>
          <leafValues>
            -6.4771956205368042e-01 3.9712932705879211e-01</leafValues></_></weakClassifiers></_>
    <!-- stage 9 -->
    <_>
      <maxWeakCount>4</maxWeakCount>
      <stageThreshold>-1.6367710828781128e+00</stageThreshold>
      <weakClassifiers>
        <_>
          <internalNodes>
            0 -1 18 7.4275717139244080e-02</internalNodes>
          <leafValues>
            -9.1253644227981567e-01 8.5714288055896759e-02</leafValues></_>
        <_>
          <internalNodes>
            0 -1 14 1.8814608454704285e-01</internalNodes>
          <leafValues>
            -7.4729937314987183e-01 1.8322317302227020e-01</leafValues></_>
        <_>
          <internalNodes>
            0 -1 15 -3.3184457570314407e-03</internalNodes>
          <leafValues>
            4.1551139950752258e-01 -5.1817643642425537e-01</leafValues></_>
        <_>
          <internalNodes>
            0 -1 40 1.8988758092746139e-03</internalNodes>
          <leafValues>
            -3.8928136229515076e-01 6.0014086961746216e-01</leafValues></_></weakClassifiers></_>
    <!-- stage 10 -->
    <_>
      <maxWeakCount>5</maxWeakCount>
      <stageThreshold>-1.8375344276428223e+00</stageThreshold>
      <weakClassifiers>
        <_>
          <internalNodes>
            0 -1 21 3.7697151303291321e-02</internalNodes>
          <leafValues>
            -9.1236609220504761e-01 2.7027027681469917e-02</leafValues></_>
        <_>
          <internalNodes>
            0 -1 28 -3.8872684817761183e-03</internalNodes>
          <leafValues>
            1.4139389991760254e-01 -7.2281682491302490e-01</leafValues></_>
        <_>
          <internalNodes>
            0 -1 22 -9.2830241192132235e-04</internalNodes>
          <leafValues>
            -9.6031880378723145e-01 1.6021199524402618e-01</leafValues></_>
        <_>
          <internalNodes>
            0 -1 39 5.0359023734927177e-03</internalNodes>
          <leafValues>
            -4.8713004589080811e-01 4.8252552747726440e-01</leafValues></_>
        <_>
          <internalNodes>
            0 -1 19 2.0742165361298248e-05</internalNodes>
          <leafValues>
            -7.3964416980743408e-01 3.4944963455200195e-01</leafValues></_></weakClassifiers></_>
    <!-- stage 11 -->
    <_>
      <maxWeakCount>4</maxWeakCount>
      <stageThreshold>-1.5489820241928101e+00</stageThreshold>
      <weakClassifiers>
        <_>
          <internalNodes>
            0 -1 20 9.8042517900466919e-02</internalNodes>
          <leafValues>
            -8.9895141124725342e-01 4.6666666865348816e-01</leafValues></_>
        <_>
          <internalNodes>
            0 -1 10 1.1945392936468124e-01</internalNodes>
          <leafValues>
            -7.2968727350234985e-01 3.5480058193206787e-01</leafValues></_>
        <_>
          <internalNodes>
            0 -1 9 -9.3456488102674484e-03</internalNodes>
          <leafValues>
            4.3252265453338623e-01 -4.8490291833877563e-01</leafValues></_>
        <_>
          <internalNodes>
            0 -1 35 1.5160580165684223e-02</internalNodes>
          <leafValues>
            -3.5286605358123779e-01 6.0958445072174072e-01</leafValues></_></weakClassifiers></_></stages>
  <features>
    <_>
      <rects>
        <_>
          0 3 15 12 -1.</_>
        <_>
          5 3 5 12 3.</_></rects>
      <tilted>0</tilted></_>
    <_>
      <rects>
        <_>
          1 5 5 6 -1.</_>
        <_>
          1 7 5 2 3.</_></rects>
      <tilted>0</tilted></_>
    <_>
      <rects>
        <_>
          1 22 14 14 -1.</_>
        <_>
          1 29 14 7 2.</_></rects>
      <tilted>0</tilted></_>
    <_>
      <rects>
        <_>
          1 25 22 2 -1.</_>
        <_>
          1 25 11 1 2.</_>
        <_>
          12 26 11 1 2.</_></rects>
      <tilted>0</tilted></_>
    <_>
      <rects>
        <_>
          2 2 10 4 -1.</_>
        <_>
          2 2 5 2 2.</_>
        <_>
          7 4 5 2 2.</_></rects>
      <tilted>0</tilted></_>
    <_>
      <rects>
        <_>
          2 19 3 9 -1.</_>
        <_>
          3 19 1 9 3.</_></rects>
      <tilted>0</tilted></_>
    <_>
      <rects>
        <_>
          3 0 8 4 -1.</_>
        <_>
          3 2 8 2 2.</_></rects>
      <tilted>0</tilted></_>
    <_>
      <rects>
        <_>
          3 5 2 26 -1.</_>
        <_>
          3 5 1 13 2.</_>
        <_>
          4 18 1 13 2.</_></rects>
      <tilted>0</tilted></_>
    <_>
      <rects>
        <_>
          3 8 6 22 -1.</_>
        <_>
          3 8 3 11 2.</_>
        <_>
          6 19 3 11 2.</_></rects>
      <tilted>0</tilted></_>
    <_>
      <rects>
        <_>
          4 12 1 20 -1.</_>
        <_>
          4 22 1 10 2.</_></rects>
      <tilted>0</tilted></_>
    <_>
      <rects>
        <_>
          4 24 20 11 -1.</_>
        <_>
          14 24 10 11 2.</_></rects>
      <tilted>0</tilted></_>
    <_>
      <rects>
        <_>
          5 5 9 8 -1.</_>
        <_>
          5 9 9 4 2.</_></rects>
      <tilted>0</tilted></_>
    <_>
      <rects>
        <_>
          5 19 14 16 -1.</_>
        <_>
          5 19 7 8 2.</_>
        <_>
          12 27 7 8 2.</_></rects>
      <tilted>0</tilted></_>
    <_>
      <rects>
        <_>
          6 1 18 35 -1.</_>
        <_>
          15 1 9 35 2.</_></rects>
      <tilted>0</tilted></_>
    <_>
      <rects>
        <_>
          6 2 18 16 -1.</_>
        <_>
          15 2 9 16 2.</_></rects>
      <tilted>0</tilted></_>
    <_>
      <rects>
        <_>
          6 22 12 4 -1.</_>
        <_>
          6 22 6 2 2.</_>
        <_>
          12 24 6 2 2.</_></rects>
      <tilted>0</tilted></_>
    <_>
      <rects>
        <_>
          7 6 5 20 -1.</_>
        <_>
          7 16 5 10 2.</_></rects>
      <tilted>0</tilted></_>
    <_>
      <rects>
        <_>
          7 12 3 16 -1.</_>
        <_>
          8 12 1 16 3.</_></rects>
      <tilted>0</tilted></_>
    <_>
      <rects>
        <_>
          7 12 3 18 -1.</_>
        <_>
          7 18 3 6 3.</_></rects>
      <tilted>0</tilted></_>
    <_>
      <rects>
        <_>
          7 15 3 4 -1.</_>
        <_>
          8 15 1 4 3.</_></rects>
      <tilted>0</tilted></_>
    <_>
      <rects>
        <_>
          7 15 3 21 -1.</_>
        <_>
          7 22 3 7 3.</_></rects>
      <tilted>0</tilted></_>
    <_>
      <rects>
        <_>
          7 22 10 6 -1.</_>
        <_>
          7 22 5 3 2.</_>
        <_>
          12 25 5 3 2.</_></rects>
      <tilted>0</tilted></_>
    <_>
      <rects>
        <_>
          8 6 6 6 -1.</_>
        <_>
          10 6 2 6 3.</_></rects>
      <tilted>0</tilted></_>
    <_>
      <rects>
        <_>
          8 7 3 17 -1.</_>
        <_>
          9 7 1 17 3.</_></rects>
      <tilted>0</tilted></_>
    <_>
      <rects>
        <_>
          8 7 8 14 -1.</_>
        <_>
          8 7 4 7 2.</_>
        <_>
          12 14 4 7 2.</_></rects>
      <tilted>0</tilted></_>
    <_>
      <rects>
        <_>
          8 14 2 15 -1.</_>
        <_>
          8 19 2 5 3.</_></rects>
      <tilted>0</tilted></_>
    <_>
      <rects>
        <_>
          8 16 6 9 -1.</_>
        <_>
          8 19 6 3 3.</_></rects>
      <tilted>0</tilted></_>
    <_>
      <rects>
        <_>
          8 30 12 6 -1.</_>
        <_>
          8 33 12 3 2.</_></rects>
      <tilted>0</tilted></_>
    <_>
      <rects>
        <_>
          9 0 6 2 -1.</_>
        <_>
          9 1 6 1 2.</_></rects>
      <tilted>0</tilted></_>
    <_>
      <rects>
        <_>
          9 26 6 1 -1.</_>
        <_>
          11 26 2 1 3.</_></rects>
      <tilted>0</tilted></_>
    <_>
      <rects>
        <_>
          10 3 14 26 -1.</_>
        <_>
          17 3 7 26 2.</_></rects>
      <tilted>0</tilted></_>
    <_>
      <rects>
        <_>
          10 4 1 12 -1.</_>
        <_>
          10 8 1 4 3.</_></rects>
      <tilted>0</tilted></_>
    <_>
      <rects>
        <_>
          10 5 3 9 -1.</_>
        <_>
          10 8 3 3 3.</_></rects>
      <tilted>0</tilted></_>
    <_>
      <rects>
        <_>
          10 14 3 14 -1.</_>
        <_>
          11 14 1 14 3.</_></rects>
      <tilted>0</tilted></_>
    <_>
      <rects>
        <_>
          10 18 3 17 -1.</_>
        <_>
          11 18 1 17 3.</_></rects>
      <tilted>0</tilted></_>
    <_>
      <rects>
        <_>
          10 26 6 10 -1.</_>
        <_>
          10 26 3 5 2.</_>
        <_>
          13 31 3 5 2.</_></rects>
      <tilted>0</tilted></_>
    <_>
      <rects>
        <_>
          10 32 6 4 -1.</_>
        <_>
          12 32 2 4 3.</_></rects>
      <tilted>0</tilted></_>
    <_>
      <rects>
        <_>
          11 6 12 6 -1.</_>
        <_>
          17 6 6 6 2.</_></rects>
      <tilted>0</tilted></_>
    <_>
      <rects>
        <_>
          11 14 2 17 -1.</_>
        <_>
          12 14 1 17 2.</_></rects>
      <tilted>0</tilted></_>
    <_>
      <rects>
        <_>
          12 16 3 18 -1.</_>
        <_>
          13 16 1 18 3.</_></rects>
      <tilted>0</tilted></_>
    <_>
      <rects>
        <_>
          13 18 5 3 -1.</_>
        <_>
          13 19 5 1 3.</_></rects>
      <tilted>0</tilted></_>
    <_>
      <rects>
        <_>
          13 22 8 3 -1.</_>
        <_>
          13 23 8 1 3.</_></rects>
      <tilted>0</tilted></_>
    <_>
      <rects>
        <_>
          14 5 8 26 -1.</_>
        <_>
          14 5 4 13 2.</_>
        <_>
          18 18 4 13 2.</_></rects>
      <tilted>0</tilted></_>
    <_>
      <rects>
        <_>
          14 11 4 16 -1.</_>
        <_>
          14 19 4 8 2.</_></rects>
      <tilted>0</tilted></_>
    <_>
      <rects>
        <_>
          15 20 4 3 -1.</_>
        <_>
          15 21 4 1 3.</_></rects>
      <tilted>0</tilted></_>
    <_>
      <rects>
        <_>
          15 23 4 3 -1.</_>
        <_>
          17 23 2 3 2.</_></rects>
      <tilted>0</tilted></_>
    <_>
      <rects>
        <_>
          16 1 3 33 -1.</_>
        <_>
          16 12 3 11 3.</_></rects>
      <tilted>0</tilted></_>
    <_>
      <rects>
        <_>
          17 14 6 22 -1.</_>
        <_>
          17 14 3 11 2.</_>
        <_>
          20 25 3 11 2.</_></rects>
      <tilted>0</tilted></_>
    <_>
      <rects>
        <_>
          18 21 6 15 -1.</_>
        <_>
          20 21 2 15 3.</_></rects>
      <tilted>0</tilted></_>
    <_>
      <rects>
        <_>
          19 23 2 10 -1.</_>
        <_>
          19 23 1 5 2.</_>
        <_>
          20 28 1 5 2.</_></rects>
      <tilted>0</tilted></_>
    <_>
      <rects>
        <_>
          20 26 2 8 -1.</_>
        <_>
          20 26 1 4 2.</_>
        <_>
          21 30 1 4 2.</_></rects>
      <tilted>0</tilted></_></features></cascade>
</opencv_storage>
