<?xml version="1.0"?>
<opencv_storage>
<cascade>
  <stageType>BOOST</stageType>
  <featureType>HAAR</featureType>
  <height>36</height>
  <width>24</width>
  <stageParams>
    <boostType>GAB</boostType>
    <minHitRate>9.9500000476837158e-01</minHitRate>
    <maxFalseAlarm>5.0000000000000000e-01</maxFalseAlarm>
    <weightTrimRate>9.4999998807907104e-01</weightTrimRate>
    <maxDepth>1</maxDepth>
    <maxWeakCount>100</maxWeakCount></stageParams>
  <featureParams>
    <maxCatCount>0</maxCatCount>
    <featSize>1</featSize>
    <mode>BASIC</mode></featureParams>
  <stageNum>20</stageNum>
  <stages>
    <!-- stage 0 -->
    <_>
      <maxWeakCount>5</maxWeakCount>
      <stageThreshold>-1.7256184816360474e+00</stageThreshold>
      <weakClassifiers>
        <_>
          <internalNodes>
            0 -1 13 -5.3848884999752045e-02</internalNodes>
          <leafValues>
            7.7922075986862183e-02 -8.5985988378524780e-01</leafValues></_>
        <_>
          <internalNodes>
            0 -1 77 -1.0940314270555973e-02</internalNodes>
          <leafValues>
            2.3651418089866638e-01 -7.2437894344329834e-01</leafValues></_>
        <_>
          <internalNodes>
            0 -1 85 -2.2402438335120678e-03</internalNodes>
          <leafValues>
            5.7479375600814819e-01 -4.3626856803894043e-01</leafValues></_>
        <_>
          <internalNodes>
            0 -1 105 3.5418139304965734e-04</internalNodes>
          <leafValues>
            -3.0087313055992126e-01 7.1054154634475708e-01</leafValues></_>
        <_>
          <internalNodes>
            0 -1 179 3.0550166964530945e-02</internalNodes>
          <leafValues>
            -3.3397066593170166e-01 5.9576195478439331e-01</leafValues></_></weakClassifiers></_>
    <!-- stage 1 -->
    <_>
      <maxWeakCount>5</maxWeakCount>
      <stageThreshold>-1.7015428543090820e+00</stageThreshold>
      <weakClassifiers>
        <_>
          <internalNodes>
            0 -1 157 -6.4378767274320126e-04</internalNodes>
          <leafValues>
            8.1818181276321411e-01 -8.2888686656951904e-01</leafValues></_>
        <_>
          <internalNodes>
            0 -1 170 -1.3318236451596022e-03</internalNodes>
          <leafValues>
            7.6275217533111572e-01 -6.1203354597091675e-01</leafValues></_>
        <_>
          <internalNodes>
            0 -1 162 -4.1379276080988348e-04</internalNodes>
          <leafValues>
            8.6442446708679199e-01 -4.1867646574974060e-01</leafValues></_>
        <_>
          <internalNodes>
            0 -1 45 -1.5899132937192917e-02</internalNodes>
          <leafValues>
            5.5324429273605347e-01 -5.4380536079406738e-01</leafValues></_>
        <_>
          <internalNodes>
            0 -1 73 -9.8410416394472122e-03</internalNodes>
          <leafValues>
            7.3848909139633179e-01 -3.9519023895263672e-01</leafValues></_></weakClassifiers></_>
    <!-- stage 2 -->
    <_>
      <maxWeakCount>7</maxWeakCount>
      <stageThreshold>-1.8071587085723877e+00</stageThreshold>
      <weakClassifiers>
        <_>
          <internalNodes>
            0 -1 5 -5.3434532880783081e-01</internalNodes>
          <leafValues>
            8.8571429252624512e-01 -7.8533095121383667e-01</leafValues></_>
        <_>
          <internalNodes>
            0 -1 55 8.3185024559497833e-02</internalNodes>
          <leafValues>
            -5.1269543170928955e-01 6.0252553224563599e-01</leafValues></_>
        <_>
          <internalNodes>
            0 -1 42 -4.9969814717769623e-03</internalNodes>
          <leafValues>
            -9.1100829839706421e-01 2.0515251159667969e-01</leafValues></_>
        <_>
          <internalNodes>
            0 -1 92 2.3045968555379659e-04</internalNodes>
          <leafValues>
            -4.2070069909095764e-01 4.4610074162483215e-01</leafValues></_>
        <_>
          <internalNodes>
            0 -1 0 -5.2001057192683220e-03</internalNodes>
          <leafValues>
            4.5275363326072693e-01 -4.7062116861343384e-01</leafValues></_>
        <_>
          <internalNodes>
            0 -1 109 -1.5565672656521201e-03</internalNodes>
          <leafValues>
            5.2394253015518188e-01 -3.8623112440109253e-01</leafValues></_>
        <_>
          <internalNodes>
            0 -1 126 -2.8553861193358898e-03</internalNodes>
          <leafValues>
            6.1397916078567505e-01 -3.4690546989440918e-01</leafValues></_></weakClassifiers></_>
    <!-- stage 3 -->
    <_>
      <maxWeakCount>5</maxWeakCount>
      <stageThreshold>-1.2838039398193359e+00</stageThreshold>
      <weakClassifiers>
        <_>
          <internalNodes>
            0 -1 174 -1.9726150203496218e-03</internalNodes>
          <leafValues>
            6.5384614467620850e-01 -8.0018162727355957e-01</leafValues></_>
        <_>
          <internalNodes>
            0 -1 160 -3.2236287370324135e-04</internalNodes>
          <leafValues>
            5.1411992311477661e-01 -5.2186429500579834e-01</leafValues></_>
        <_>
          <internalNodes>
            0 -1 154 -3.7271063774824142e-04</internalNodes>
          <leafValues>
            6.0908430814743042e-01 -3.5928347706794739e-01</leafValues></_>
        <_>
          <internalNodes>
            0 -1 174 4.7621864359825850e-04</internalNodes>
          <leafValues>
            -2.9482305049896240e-01 7.1239453554153442e-01</leafValues></_>
        <_>
          <internalNodes>
            0 -1 155 -1.5772337792441249e-03</internalNodes>
          <leafValues>
            7.1241414546966553e-01 -2.7601924538612366e-01</leafValues></_></weakClassifiers></_>
    <!-- stage 4 -->
    <_>
      <maxWeakCount>6</maxWeakCount>
      <stageThreshold>-1.5545344352722168e+00</stageThreshold>
      <weakClassifiers>
        <_>
          <internalNodes>
            0 -1 6 -4.7965395450592041e-01</internalNodes>
          <leafValues>
            7.5000000000000000e-01 -7.9909503459930420e-01</leafValues></_>
        <_>
          <internalNodes>
            0 -1 151 5.6005686521530151e-02</internalNodes>
          <leafValues>
            -5.9383171796798706e-01 4.2203840613365173e-01</leafValues></_>
        <_>
          <internalNodes>
            0 -1 36 -2.7880892157554626e-02</internalNodes>
          <leafValues>
            6.6290038824081421e-01 -2.7357167005538940e-01</leafValues></_>
        <_>
          <internalNodes>
            0 -1 180 2.0951084792613983e-02</internalNodes>
          <leafValues>
            -2.7287957072257996e-01 4.7955906391143799e-01</leafValues></_>
        <_>
          <internalNodes>
            0 -1 48 2.2141504287719727e-01</internalNodes>
          <leafValues>
            -1.4423340559005737e-01 8.0877006053924561e-01</leafValues></_>
        <_>
          <internalNodes>
            0 -1 25 -1.5349097549915314e-01</internalNodes>
          <leafValues>
            7.0578485727310181e-01 -2.2336165606975555e-01</leafValues></_></weakClassifiers></_>
    <!-- stage 5 -->
    <_>
      <maxWeakCount>10</maxWeakCount>
      <stageThreshold>-1.5954493284225464e+00</stageThreshold>
      <weakClassifiers>
        <_>
          <internalNodes>
            0 -1 5 -4.9716362357139587e-01</internalNodes>
          <leafValues>
            8.4615385532379150e-01 -7.8994613885879517e-01</leafValues></_>
        <_>
          <internalNodes>
            0 -1 138 8.7491050362586975e-02</internalNodes>
          <leafValues>
            -4.9312901496887207e-01 7.1209269762039185e-01</leafValues></_>
        <_>
          <internalNodes>
            0 -1 101 -5.6507467525079846e-04</internalNodes>
          <leafValues>
            5.0909179449081421e-01 -2.3883061110973358e-01</leafValues></_>
        <_>
          <internalNodes>
            0 -1 90 -4.3034404516220093e-03</internalNodes>
          <leafValues>
            7.3435854911804199e-01 -1.6911561787128448e-01</leafValues></_>
        <_>
          <internalNodes>
            0 -1 15 -6.3791379332542419e-02</internalNodes>
          <leafValues>
            5.4931718111038208e-01 -2.2857154905796051e-01</leafValues></_>
        <_>
          <internalNodes>
            0 -1 99 -7.1522323414683342e-03</internalNodes>
          <leafValues>
            7.6975762844085693e-01 -1.6300460696220398e-01</leafValues></_>
        <_>
          <internalNodes>
            0 -1 98 -1.8079295987263322e-03</internalNodes>
          <leafValues>
            3.4558245539665222e-01 -3.9071941375732422e-01</leafValues></_>
        <_>
          <internalNodes>
            0 -1 29 2.1903058513998985e-02</internalNodes>
          <leafValues>
            1.3392356038093567e-01 -9.5374506711959839e-01</leafValues></_>
        <_>
          <internalNodes>
            0 -1 132 6.2659196555614471e-03</internalNodes>
          <leafValues>
            -1.9299875199794769e-01 7.5646305084228516e-01</leafValues></_>
        <_>
          <internalNodes>
            0 -1 139 1.6257088631391525e-02</internalNodes>
          <leafValues>
            2.0064090192317963e-01 -8.3386033773422241e-01</leafValues></_></weakClassifiers></_>
    <!-- stage 6 -->
    <_>
      <maxWeakCount>7</maxWeakCount>
      <stageThreshold>-1.6651911735534668e+00</stageThreshold>
      <weakClassifiers>
        <_>
          <internalNodes>
            0 -1 172 2.7820244431495667e-03</internalNodes>
          <leafValues>
            -8.0961185693740845e-01 4.0845069289207458e-01</leafValues></_>
        <_>
          <internalNodes>
            0 -1 172 -2.5860364548861980e-03</internalNodes>
          <leafValues>
            7.1770930290222168e-01 -4.7760167717933655e-01</leafValues></_>
        <_>
          <internalNodes>
            0 -1 176 -6.0110822319984436e-02</internalNodes>
          <leafValues>
            -9.5865851640701294e-01 1.8392746150493622e-01</leafValues></_>
        <_>
          <internalNodes>
            0 -1 112 -9.8244403488934040e-04</internalNodes>
          <leafValues>
            6.6921639442443848e-01 -2.9349225759506226e-01</leafValues></_>
        <_>
          <internalNodes>
            0 -1 75 -4.0475139394402504e-03</internalNodes>
          <leafValues>
            7.9933589696884155e-01 -2.1959725022315979e-01</leafValues></_>
        <_>
          <internalNodes>
            0 -1 136 1.8108531832695007e-02</internalNodes>
          <leafValues>
            2.6800039410591125e-01 -7.7483344078063965e-01</leafValues></_>
        <_>
          <internalNodes>
            0 -1 145 -1.0925226379185915e-03</internalNodes>
          <leafValues>
            6.5234971046447754e-01 -2.9291531443595886e-01</leafValues></_></weakClassifiers></_>
    <!-- stage 7 -->
    <_>
      <maxWeakCount>9</maxWeakCount>
      <stageThreshold>-1.3921242952346802e+00</stageThreshold>
      <weakClassifiers>
        <_>
          <internalNodes>
            0 -1 35 4.2057082056999207e-02</internalNodes>
          <leafValues>
            -7.9449540376663208e-01 3.0158731341362000e-01</leafValues></_>
        <_>
          <internalNodes>
            0 -1 44 2.6237979531288147e-02</internalNodes>
          <leafValues>
            -3.7317213416099548e-01 7.2453469038009644e-01</leafValues></_>
        <_>
          <internalNodes>
            0 -1 76 4.1257231496274471e-03</internalNodes>
          <leafValues>
            -2.4158363044261932e-01 5.5487966537475586e-01</leafValues></_>
        <_>
          <internalNodes>
            0 -1 182 -1.5610973350703716e-03</internalNodes>
          <leafValues>
            -8.6745667457580566e-01 1.5427827835083008e-01</leafValues></_>
        <_>
          <internalNodes>
            0 -1 23 -6.0554429888725281e-02</internalNodes>
          <leafValues>
            -8.2489204406738281e-01 1.4737792313098907e-01</leafValues></_>
        <_>
          <internalNodes>
            0 -1 66 -3.4785430878400803e-02</internalNodes>
          <leafValues>
            3.8923817873001099e-01 -3.1715896725654602e-01</leafValues></_>
        <_>
          <internalNodes>
            0 -1 46 -3.1934734433889389e-03</internalNodes>
          <leafValues>
            3.7509214878082275e-01 -3.4524571895599365e-01</leafValues></_>
        <_>
          <internalNodes>
            0 -1 107 -7.1859154850244522e-03</internalNodes>
          <leafValues>
            7.8082937002182007e-01 -1.6268296539783478e-01</leafValues></_>
        <_>
          <internalNodes>
            0 -1 142 -4.4447444379329681e-03</internalNodes>
          <leafValues>
            7.5729799270629883e-01 -1.6583877801895142e-01</leafValues></_></weakClassifiers></_>
    <!-- stage 8 -->
    <_>
      <maxWeakCount>10</maxWeakCount>
      <stageThreshold>-1.6105540990829468e+00</stageThreshold>
      <weakClassifiers>
        <_>
          <internalNodes>
            0 -1 39 1.2193001806735992e-02</internalNodes>
          <leafValues>
            -7.7598565816879272e-01 5.1351350545883179e-01</leafValues></_>
        <_>
          <internalNodes>
            0 -1 93 1.4587197219952941e-03</internalNodes>
          <leafValues>
            -4.3221163749694824e-01 4.0399566292762756e-01</leafValues></_>
        <_>
          <internalNodes>
            0 -1 104 1.8176341056823730e-01</internalNodes>
          <leafValues>
            -1.9907997548580170e-01 8.0589437484741211e-01</leafValues></_>
        <_>
          <internalNodes>
            0 -1 186 -6.4514321275055408e-03</internalNodes>
          <leafValues>
            6.7532038688659668e-01 -1.5930685400962830e-01</leafValues></_>
        <_>
          <internalNodes>
            0 -1 149 -2.8985380195081234e-03</internalNodes>
          <leafValues>
            6.2646871805191040e-01 -1.7232024669647217e-01</leafValues></_>
        <_>
          <internalNodes>
            0 -1 94 -3.1575493048876524e-03</internalNodes>
          <leafValues>
            7.1797001361846924e-01 -1.6160960495471954e-01</leafValues></_>
        <_>
          <internalNodes>
            0 -1 102 4.8050907207652926e-04</internalNodes>
          <leafValues>
            -2.5262716412544250e-01 4.8254704475402832e-01</leafValues></_>
        <_>
          <internalNodes>
            0 -1 125 -3.4504808718338609e-04</internalNodes>
          <leafValues>
            3.8196542859077454e-01 -3.2091531157493591e-01</leafValues></_>
        <_>
          <internalNodes>
            0 -1 158 -1.4309669495560229e-04</internalNodes>
          <leafValues>
            3.3315423130989075e-01 -3.5398653149604797e-01</leafValues></_>
        <_>
          <internalNodes>
            0 -1 171 6.8581162486225367e-04</internalNodes>
          <leafValues>
            -2.0482616126537323e-01 5.2276140451431274e-01</leafValues></_></weakClassifiers></_>
    <!-- stage 9 -->
    <_>
      <maxWeakCount>8</maxWeakCount>
      <stageThreshold>-1.7398531436920166e+00</stageThreshold>
      <weakClassifiers>
        <_>
          <internalNodes>
            0 -1 9 -2.3105633258819580e-01</internalNodes>
          <leafValues>
            3.1034481525421143e-01 -7.8995436429977417e-01</leafValues></_>
        <_>
          <internalNodes>
            0 -1 116 -4.2201774194836617e-03</internalNodes>
          <leafValues>
            1.6920551657676697e-01 -5.9247732162475586e-01</leafValues></_>
        <_>
          <internalNodes>
            0 -1 10 1.3191057951189578e-04</internalNodes>
          <leafValues>
            1.8163116276264191e-01 -6.0977423191070557e-01</leafValues></_>
        <_>
          <internalNodes>
            0 -1 187 4.4491793960332870e-03</internalNodes>
          <leafValues>
            1.2487444281578064e-01 -8.3142930269241333e-01</leafValues></_>
        <_>
          <internalNodes>
            0 -1 28 3.3899012487381697e-04</internalNodes>
          <leafValues>
            2.2479136288166046e-01 -5.4906880855560303e-01</leafValues></_>
        <_>
          <internalNodes>
            0 -1 60 -2.4902567267417908e-02</internalNodes>
          <leafValues>
            -6.7709743976593018e-01 1.6478845477104187e-01</leafValues></_>
        <_>
          <internalNodes>
            0 -1 53 -3.2927619758993387e-04</internalNodes>
          <leafValues>
            -5.6568920612335205e-01 1.8522644042968750e-01</leafValues></_>
        <_>
          <internalNodes>
            0 -1 100 -1.0430631227791309e-03</internalNodes>
          <leafValues>
            3.2591807842254639e-01 -3.9684736728668213e-01</leafValues></_></weakClassifiers></_>
    <!-- stage 10 -->
    <_>
      <maxWeakCount>13</maxWeakCount>
      <stageThreshold>-1.7137436866760254e+00</stageThreshold>
      <weakClassifiers>
        <_>
          <internalNodes>
            0 -1 12 1.1513981036841869e-02</internalNodes>
          <leafValues>
            -7.6711112260818481e-01 5.7142859697341919e-01</leafValues></_>
        <_>
          <internalNodes>
            0 -1 19 -2.9350960254669189e-01</internalNodes>
          <leafValues>
            4.8980164527893066e-01 -4.0348446369171143e-01</leafValues></_>
        <_>
          <internalNodes>
            0 -1 146 -3.4587730187922716e-03</internalNodes>
          <leafValues>
            5.2383571863174438e-01 -2.1177092194557190e-01</leafValues></_>
        <_>
          <internalNodes>
            0 -1 86 4.1702147573232651e-03</internalNodes>
          <leafValues>
            -2.4166603386402130e-01 5.2417135238647461e-01</leafValues></_>
        <_>
          <internalNodes>
            0 -1 159 1.3709315098822117e-03</internalNodes>
          <leafValues>
            -1.6221925616264343e-01 5.7558906078338623e-01</leafValues></_>
        <_>
          <internalNodes>
            0 -1 141 -1.9427191466093063e-02</internalNodes>
          <leafValues>
            -9.1773289442062378e-01 1.2302868068218231e-01</leafValues></_>
        <_>
          <internalNodes>
            0 -1 148 -1.3092128210701048e-04</internalNodes>
          <leafValues>
            4.0944865345954895e-01 -2.6033192873001099e-01</leafValues></_>
        <_>
          <internalNodes>
            0 -1 21 1.0389203205704689e-02</internalNodes>
          <leafValues>
            1.2835618853569031e-01 -7.4939745664596558e-01</leafValues></_>
        <_>
          <internalNodes>
            0 -1 183 5.9363599866628647e-03</internalNodes>
          <leafValues>
            1.6594323515892029e-01 -5.6864416599273682e-01</leafValues></_>
        <_>
          <internalNodes>
            0 -1 52 -2.5583596434444189e-03</internalNodes>
          <leafValues>
            4.7369143366813660e-01 -2.5057122111320496e-01</leafValues></_>
        <_>
          <internalNodes>
            0 -1 118 -8.6389009084086865e-05</internalNodes>
          <leafValues>
            2.7407673001289368e-01 -3.7698116898536682e-01</leafValues></_>
        <_>
          <internalNodes>
            0 -1 17 9.0738888829946518e-03</internalNodes>
          <leafValues>
            1.2753748893737793e-01 -8.0356276035308838e-01</leafValues></_>
        <_>
          <internalNodes>
            0 -1 134 -4.3947817757725716e-03</internalNodes>
          <leafValues>
            7.2740566730499268e-01 -1.6658879816532135e-01</leafValues></_></weakClassifiers></_>
    <!-- stage 11 -->
    <_>
      <maxWeakCount>10</maxWeakCount>
      <stageThreshold>-1.5409762859344482e+00</stageThreshold>
      <weakClassifiers>
        <_>
          <internalNodes>
            0 -1 14 5.0179708003997803e-01</internalNodes>
          <leafValues>
            -7.6806420087814331e-01 4.3750000000000000e-01</leafValues></_>
        <_>
          <internalNodes>
            0 -1 47 1.6535051167011261e-02</internalNodes>
          <leafValues>
            -4.8456445336341858e-01 1.7934666574001312e-01</leafValues></_>
        <_>
          <internalNodes>
            0 -1 181 4.1741004679352045e-04</internalNodes>
          <leafValues>
            1.8049213290214539e-01 -4.9547746777534485e-01</leafValues></_>
        <_>
          <internalNodes>
            0 -1 177 -6.9142552092671394e-04</internalNodes>
          <leafValues>
            4.8545968532562256e-01 -2.2674585878849030e-01</leafValues></_>
        <_>
          <internalNodes>
            0 -1 26 -1.7705684527754784e-02</internalNodes>
          <leafValues>
            -5.0976151227951050e-01 1.9879317283630371e-01</leafValues></_>
        <_>
          <internalNodes>
            0 -1 74 -9.4062928110361099e-03</internalNodes>
          <leafValues>
            3.4822243452072144e-01 -2.7400365471839905e-01</leafValues></_>
        <_>
          <internalNodes>
            0 -1 41 -2.1691903471946716e-02</internalNodes>
          <leafValues>
            2.7536055445671082e-01 -3.7627553939819336e-01</leafValues></_>
        <_>
          <internalNodes>
            0 -1 57 -9.9980900995433331e-04</internalNodes>
          <leafValues>
            4.3382221460342407e-01 -2.2125405073165894e-01</leafValues></_>
        <_>
          <internalNodes>
            0 -1 33 1.2994854478165507e-03</internalNodes>
          <leafValues>
            1.9092647731304169e-01 -5.1800906658172607e-01</leafValues></_>
        <_>
          <internalNodes>
            0 -1 131 -1.8031946092378348e-04</internalNodes>
          <leafValues>
            3.8334777951240540e-01 -2.5641050934791565e-01</leafValues></_></weakClassifiers></_>
    <!-- stage 12 -->
    <_>
      <maxWeakCount>11</maxWeakCount>
      <stageThreshold>-1.4985660314559937e+00</stageThreshold>
      <weakClassifiers>
        <_>
          <internalNodes>
            0 -1 11 4.5358508825302124e-02</internalNodes>
          <leafValues>
            -7.6574975252151489e-01 6.1538463830947876e-01</leafValues></_>
        <_>
          <internalNodes>
            0 -1 37 -1.1737356334924698e-01</internalNodes>
          <leafValues>
            5.3876060247421265e-01 -3.7715652585029602e-01</leafValues></_>
        <_>
          <internalNodes>
            0 -1 68 -5.5850438773632050e-02</internalNodes>
          <leafValues>
            5.5691152811050415e-01 -1.7484551668167114e-01</leafValues></_>
        <_>
          <internalNodes>
            0 -1 190 -3.2715350971557200e-04</internalNodes>
          <leafValues>
            -5.4007220268249512e-01 1.7042775452136993e-01</leafValues></_>
        <_>
          <internalNodes>
            0 -1 20 1.2620398774743080e-02</internalNodes>
          <leafValues>
            7.8304946422576904e-02 -9.5419222116470337e-01</leafValues></_>
        <_>
          <internalNodes>
            0 -1 115 5.5025808978825808e-04</internalNodes>
          <leafValues>
            -1.9441552460193634e-01 4.0981915593147278e-01</leafValues></_>
        <_>
          <internalNodes>
            0 -1 189 -1.7092714551836252e-04</internalNodes>
          <leafValues>
            -6.0479295253753662e-01 1.4083047211170197e-01</leafValues></_>
        <_>
          <internalNodes>
            0 -1 16 7.0773926563560963e-04</internalNodes>
          <leafValues>
            -2.7809712290763855e-01 3.0326104164123535e-01</leafValues></_>
        <_>
          <internalNodes>
            0 -1 106 -2.3932834155857563e-03</internalNodes>
          <leafValues>
            5.2664953470230103e-01 -1.7913633584976196e-01</leafValues></_>
        <_>
          <internalNodes>
            0 -1 120 -8.8789453729987144e-03</internalNodes>
          <leafValues>
            -8.9356911182403564e-01 1.1042349785566330e-01</leafValues></_>
        <_>
          <internalNodes>
            0 -1 119 -2.2008779924362898e-03</internalNodes>
          <leafValues>
            2.4779778718948364e-01 -3.5434669256210327e-01</leafValues></_></weakClassifiers></_>
    <!-- stage 13 -->
    <_>
      <maxWeakCount>11</maxWeakCount>
      <stageThreshold>-1.8125991821289063e+00</stageThreshold>
      <weakClassifiers>
        <_>
          <internalNodes>
            0 -1 56 4.8036500811576843e-02</internalNodes>
          <leafValues>
            -7.6785713434219360e-01 3.9393940567970276e-01</leafValues></_>
        <_>
          <internalNodes>
            0 -1 130 1.1695626378059387e-01</internalNodes>
          <leafValues>
            -3.8036549091339111e-01 5.0904101133346558e-01</leafValues></_>
        <_>
          <internalNodes>
            0 -1 127 -6.6198416054248810e-02</internalNodes>
          <leafValues>
            5.6850099563598633e-01 -1.7720048129558563e-01</leafValues></_>
        <_>
          <internalNodes>
            0 -1 144 2.3973595350980759e-02</internalNodes>
          <leafValues>
            1.0995049774646759e-01 -8.6855536699295044e-01</leafValues></_>
        <_>
          <internalNodes>
            0 -1 163 8.9049478992819786e-04</internalNodes>
          <leafValues>
            -1.8906055390834808e-01 4.7500699758529663e-01</leafValues></_>
        <_>
          <internalNodes>
            0 -1 91 3.9522655308246613e-02</internalNodes>
          <leafValues>
            -1.5140284597873688e-01 6.0057252645492554e-01</leafValues></_>
        <_>
          <internalNodes>
            0 -1 153 3.4666694700717926e-02</internalNodes>
          <leafValues>
            -1.3191498816013336e-01 6.7657428979873657e-01</leafValues></_>
        <_>
          <internalNodes>
            0 -1 82 -4.6010676305741072e-04</internalNodes>
          <leafValues>
            3.7906691431999207e-01 -2.3402886092662811e-01</leafValues></_>
        <_>
          <internalNodes>
            0 -1 30 -2.9603600502014160e-02</internalNodes>
          <leafValues>
            -7.7021282911300659e-01 1.0414572060108185e-01</leafValues></_>
        <_>
          <internalNodes>
            0 -1 108 -1.2382611166685820e-03</internalNodes>
          <leafValues>
            3.2672566175460815e-01 -2.8208124637603760e-01</leafValues></_>
        <_>
          <internalNodes>
            0 -1 166 2.6483682449907064e-04</internalNodes>
          <leafValues>
            2.0805115997791290e-01 -4.6475920081138611e-01</leafValues></_></weakClassifiers></_>
    <!-- stage 14 -->
    <_>
      <maxWeakCount>12</maxWeakCount>
      <stageThreshold>-1.4808058738708496e+00</stageThreshold>
      <weakClassifiers>
        <_>
          <internalNodes>
            0 -1 62 5.6477721780538559e-02</internalNodes>
          <leafValues>
            -7.8001832962036133e-01 6.4516127109527588e-02</leafValues></_>
        <_>
          <internalNodes>
            0 -1 50 -1.5498515218496323e-02</internalNodes>
          <leafValues>
            4.5719459652900696e-01 -3.8232797384262085e-01</leafValues></_>
        <_>
          <internalNodes>
            0 -1 123 2.7559043839573860e-02</internalNodes>
          <leafValues>
            7.1696765720844269e-02 -9.5158153772354126e-01</leafValues></_>
        <_>
          <internalNodes>
            0 -1 58 -2.7933889068663120e-03</internalNodes>
          <leafValues>
            -6.6860169172286987e-01 1.2096355855464935e-01</leafValues></_>
        <_>
          <internalNodes>
            0 -1 1 -1.0038097389042377e-04</internalNodes>
          <leafValues>
            2.1321831643581390e-01 -3.6616906523704529e-01</leafValues></_>
        <_>
          <internalNodes>
            0 -1 167 6.9531090557575226e-02</internalNodes>
          <leafValues>
            -2.0217962563037872e-01 4.1809934377670288e-01</leafValues></_>
        <_>
          <internalNodes>
            0 -1 43 -7.6562371104955673e-03</internalNodes>
          <leafValues>
            3.9284715056419373e-01 -2.4303081631660461e-01</leafValues></_>
        <_>
          <internalNodes>
            0 -1 113 -1.4247152954339981e-02</internalNodes>
          <leafValues>
            -7.7435618638992310e-01 1.1805496364831924e-01</leafValues></_>
        <_>
          <internalNodes>
            0 -1 184 -6.5679501858539879e-05</internalNodes>
          <leafValues>
            -5.2119815349578857e-01 1.3968937098979950e-01</leafValues></_>
        <_>
          <internalNodes>
            0 -1 173 -3.6331086885184050e-03</internalNodes>
          <leafValues>
            3.0586984753608704e-01 -2.9669561982154846e-01</leafValues></_>
        <_>
          <internalNodes>
            0 -1 31 -5.4768659174442291e-02</internalNodes>
          <leafValues>
            3.5398015379905701e-01 -2.6003739237785339e-01</leafValues></_>
        <_>
          <internalNodes>
            0 -1 27 2.7708956971764565e-02</internalNodes>
          <leafValues>
            1.5451700985431671e-01 -5.4459047317504883e-01</leafValues></_></weakClassifiers></_>
    <!-- stage 15 -->
    <_>
      <maxWeakCount>15</maxWeakCount>
      <stageThreshold>-1.8272083997726440e+00</stageThreshold>
      <weakClassifiers>
        <_>
          <internalNodes>
            0 -1 72 -1.8055513501167297e-02</internalNodes>
          <leafValues>
            1. -7.5746923685073853e-01</leafValues></_>
        <_>
          <internalNodes>
            0 -1 122 -9.9289109930396080e-03</internalNodes>
          <leafValues>
            1.3118861615657806e-01 -4.7885429859161377e-01</leafValues></_>
        <_>
          <internalNodes>
            0 -1 64 -1.9994731992483139e-03</internalNodes>
          <leafValues>
            2.6603850722312927e-01 -3.1432518362998962e-01</leafValues></_>
        <_>
          <internalNodes>
            0 -1 156 1.0635072831064463e-03</internalNodes>
          <leafValues>
            -2.0093542337417603e-01 4.3841123580932617e-01</leafValues></_>
        <_>
          <internalNodes>
            0 -1 178 -1.3098579365760088e-03</internalNodes>
          <leafValues>
            3.0595001578330994e-01 -2.7836546301841736e-01</leafValues></_>
        <_>
          <internalNodes>
            0 -1 152 1.6005485085770488e-03</internalNodes>
          <leafValues>
            1.9461734592914581e-01 -6.3412851095199585e-01</leafValues></_>
        <_>
          <internalNodes>
            0 -1 96 -2.2944016382098198e-03</internalNodes>
          <leafValues>
            3.0731284618377686e-01 -2.6688492298126221e-01</leafValues></_>
        <_>
          <internalNodes>
            0 -1 96 4.3793199583888054e-03</internalNodes>
          <leafValues>
            -1.8785941600799561e-01 4.5104667544364929e-01</leafValues></_>
        <_>
          <internalNodes>
            0 -1 71 3.6001585423946381e-02</internalNodes>
          <leafValues>
            -3.2709851861000061e-01 2.5008651614189148e-01</leafValues></_>
        <_>
          <internalNodes>
            0 -1 2 -9.4990998506546021e-02</internalNodes>
          <leafValues>
            4.9169534444808960e-01 -2.1557633578777313e-01</leafValues></_>
        <_>
          <internalNodes>
            0 -1 110 -8.3182146772742271e-04</internalNodes>
          <leafValues>
            3.0618742108345032e-01 -2.8011688590049744e-01</leafValues></_>
        <_>
          <internalNodes>
            0 -1 140 -2.1063437452539802e-04</internalNodes>
          <leafValues>
            2.6276883482933044e-01 -3.2532167434692383e-01</leafValues></_>
        <_>
          <internalNodes>
            0 -1 89 -2.6615643873810768e-02</internalNodes>
          <leafValues>
            -7.6775395870208740e-01 1.0574731975793839e-01</leafValues></_>
        <_>
          <internalNodes>
            0 -1 95 -3.2752975821495056e-02</internalNodes>
          <leafValues>
            -7.9945987462997437e-01 8.5344128310680389e-02</leafValues></_>
        <_>
          <internalNodes>
            0 -1 137 -9.6596335060894489e-04</internalNodes>
          <leafValues>
            -3.1958320736885071e-01 2.8382766246795654e-01</leafValues></_></weakClassifiers></_>
    <!-- stage 16 -->
    <_>
      <maxWeakCount>13</maxWeakCount>
      <stageThreshold>-1.5667436122894287e+00</stageThreshold>
      <weakClassifiers>
        <_>
          <internalNodes>
            0 -1 38 4.4317670166492462e-02</internalNodes>
          <leafValues>
            -7.5859028100967407e-01 7.7777779102325439e-01</leafValues></_>
        <_>
          <internalNodes>
            0 -1 83 1.0549750924110413e-01</internalNodes>
          <leafValues>
            -3.4635609388351440e-01 5.8978140354156494e-01</leafValues></_>
        <_>
          <internalNodes>
            0 -1 168 6.8649713648483157e-04</internalNodes>
          <leafValues>
            2.1223632991313934e-01 -4.4173738360404968e-01</leafValues></_>
        <_>
          <internalNodes>
            0 -1 7 -3.0102380551397800e-03</internalNodes>
          <leafValues>
            -5.6262844800949097e-01 1.3565842807292938e-01</leafValues></_>
        <_>
          <internalNodes>
            0 -1 164 -5.8136280858889222e-04</internalNodes>
          <leafValues>
            4.1250225901603699e-01 -2.0213283598423004e-01</leafValues></_>
        <_>
          <internalNodes>
            0 -1 81 -1.7625484615564346e-03</internalNodes>
          <leafValues>
            3.1021797657012939e-01 -2.7133873105049133e-01</leafValues></_>
        <_>
          <internalNodes>
            0 -1 88 1.1444729752838612e-02</internalNodes>
          <leafValues>
            1.5952493250370026e-01 -5.6621068716049194e-01</leafValues></_>
        <_>
          <internalNodes>
            0 -1 124 -1.5266902046278119e-03</internalNodes>
          <leafValues>
            5.4300087690353394e-01 -1.5835930407047272e-01</leafValues></_>
        <_>
          <internalNodes>
            0 -1 18 -1.1136669665575027e-02</internalNodes>
          <leafValues>
            -6.2715387344360352e-01 1.4945711195468903e-01</leafValues></_>
        <_>
          <internalNodes>
            0 -1 150 2.8317316900938749e-03</internalNodes>
          <leafValues>
            1.5737165510654449e-01 -5.0970250368118286e-01</leafValues></_>
        <_>
          <internalNodes>
            0 -1 34 4.0661895764060318e-04</internalNodes>
          <leafValues>
            2.5424158573150635e-01 -3.2423767447471619e-01</leafValues></_>
        <_>
          <internalNodes>
            0 -1 69 7.4465954676270485e-03</internalNodes>
          <leafValues>
            8.6110047996044159e-02 -9.4715142250061035e-01</leafValues></_>
        <_>
          <internalNodes>
            0 -1 87 -8.1772997509688139e-04</internalNodes>
          <leafValues>
            3.7052384018898010e-01 -2.3002737760543823e-01</leafValues></_></weakClassifiers></_>
    <!-- stage 17 -->
    <_>
      <maxWeakCount>12</maxWeakCount>
      <stageThreshold>-1.5874567031860352e+00</stageThreshold>
      <weakClassifiers>
        <_>
          <internalNodes>
            0 -1 8 1.3037475943565369e-01</internalNodes>
          <leafValues>
            -7.6533335447311401e-01 5.0000000000000000e-01</leafValues></_>
        <_>
          <internalNodes>
            0 -1 22 2.4014918133616447e-02</internalNodes>
          <leafValues>
            -4.6697789430618286e-01 1.4324976503849030e-01</leafValues></_>
        <_>
          <internalNodes>
            0 -1 40 -5.0855115056037903e-02</internalNodes>
          <leafValues>
            -8.1554508209228516e-01 7.8890331089496613e-02</leafValues></_>
        <_>
          <internalNodes>
            0 -1 147 -4.5150034129619598e-03</internalNodes>
          <leafValues>
            -1. 1.0146334022283554e-01</leafValues></_>
        <_>
          <internalNodes>
            0 -1 111 -2.6717861182987690e-03</internalNodes>
          <leafValues>
            4.8758471012115479e-01 -1.9029094278812408e-01</leafValues></_>
        <_>
          <internalNodes>
            0 -1 3 -2.3820384740247391e-05</internalNodes>
          <leafValues>
            2.4155011773109436e-01 -3.6897951364517212e-01</leafValues></_>
        <_>
          <internalNodes>
            0 -1 169 -1.1876991484314203e-03</internalNodes>
          <leafValues>
            3.7934491038322449e-01 -2.2765740752220154e-01</leafValues></_>
        <_>
          <internalNodes>
            0 -1 54 -1.4252322725951672e-02</internalNodes>
          <leafValues>
            2.6249074935913086e-01 -3.0703675746917725e-01</leafValues></_>
        <_>
          <internalNodes>
            0 -1 121 -2.5326933246105909e-04</internalNodes>
          <leafValues>
            2.7528163790702820e-01 -3.3608958125114441e-01</leafValues></_>
        <_>
          <internalNodes>
            0 -1 161 -1.1604777537286282e-03</internalNodes>
          <leafValues>
            4.0611663460731506e-01 -2.3110790550708771e-01</leafValues></_>
        <_>
          <internalNodes>
            0 -1 188 -6.6011706367135048e-03</internalNodes>
          <leafValues>
            -6.0425794124603271e-01 1.3943581283092499e-01</leafValues></_>
        <_>
          <internalNodes>
            0 -1 143 4.1736019775271416e-03</internalNodes>
          <leafValues>
            9.0377733111381531e-02 -7.7796131372451782e-01</leafValues></_></weakClassifiers></_>
    <!-- stage 18 -->
    <_>
      <maxWeakCount>14</maxWeakCount>
      <stageThreshold>-1.5139731168746948e+00</stageThreshold>
      <weakClassifiers>
        <_>
          <internalNodes>
            0 -1 65 6.4182527363300323e-02</internalNodes>
          <leafValues>
            -7.5284838676452637e-01 1.</leafValues></_>
        <_>
          <internalNodes>
            0 -1 4 7.3379866778850555e-02</internalNodes>
          <leafValues>
            -3.5882034897804260e-01 4.1923153400421143e-01</leafValues></_>
        <_>
          <internalNodes>
            0 -1 24 -1.1877883225679398e-02</internalNodes>
          <leafValues>
            2.9900857806205750e-01 -2.5537076592445374e-01</leafValues></_>
        <_>
          <internalNodes>
            0 -1 135 6.5154964104294777e-03</internalNodes>
          <leafValues>
            1.0658405721187592e-01 -6.7183023691177368e-01</leafValues></_>
        <_>
          <internalNodes>
            0 -1 128 1.5404772013425827e-02</internalNodes>
          <leafValues>
            1.2230696529150009e-01 -7.6608270406723022e-01</leafValues></_>
        <_>
          <internalNodes>
            0 -1 117 -2.2276751697063446e-03</internalNodes>
          <leafValues>
            2.8261974453926086e-01 -2.5682082772254944e-01</leafValues></_>
        <_>
          <internalNodes>
            0 -1 51 -2.1041255444288254e-02</internalNodes>
          <leafValues>
            -5.4759740829467773e-01 1.4197951555252075e-01</leafValues></_>
        <_>
          <internalNodes>
            0 -1 84 -7.1224458515644073e-03</internalNodes>
          <leafValues>
            5.1734626293182373e-01 -1.5176734328269958e-01</leafValues></_>
        <_>
          <internalNodes>
            0 -1 49 -7.1258094976656139e-05</internalNodes>
          <leafValues>
            -4.3497103452682495e-01 1.9058516621589661e-01</leafValues></_>
        <_>
          <internalNodes>
            0 -1 165 -2.3735556751489639e-03</internalNodes>
          <leafValues>
            4.2254042625427246e-01 -1.9419363141059875e-01</leafValues></_>
        <_>
          <internalNodes>
            0 -1 63 1.2345063500106335e-02</internalNodes>
          <leafValues>
            1.1470446735620499e-01 -7.3914384841918945e-01</leafValues></_>
        <_>
          <internalNodes>
            0 -1 67 -1.0374053381383419e-03</internalNodes>
          <leafValues>
            3.6776497960090637e-01 -2.1311248838901520e-01</leafValues></_>
        <_>
          <internalNodes>
            0 -1 70 3.2146978192031384e-03</internalNodes>
          <leafValues>
            -1.8584704399108887e-01 4.1647717356681824e-01</leafValues></_>
        <_>
          <internalNodes>
            0 -1 78 -5.9548625722527504e-04</internalNodes>
          <leafValues>
            4.2457273602485657e-01 -1.7819499969482422e-01</leafValues></_></weakClassifiers></_>
    <!-- stage 19 -->
    <_>
      <maxWeakCount>12</maxWeakCount>
      <stageThreshold>-1.5440196990966797e+00</stageThreshold>
      <weakClassifiers>
        <_>
          <internalNodes>
            0 -1 80 3.8744783401489258e-01</internalNodes>
          <leafValues>
            -7.8145086765289307e-01 6.2500000000000000e-02</leafValues></_>
        <_>
          <internalNodes>
            0 -1 61 1.1449279636144638e-01</internalNodes>
          <leafValues>
            -4.2646628618240356e-01 2.9290714859962463e-01</leafValues></_>
        <_>
          <internalNodes>
            0 -1 79 6.5537123009562492e-03</internalNodes>
          <leafValues>
            8.7649650871753693e-02 -7.1684348583221436e-01</leafValues></_>
        <_>
          <internalNodes>
            0 -1 129 -1.7783217481337488e-04</internalNodes>
          <leafValues>
            2.9418903589248657e-01 -2.5676980614662170e-01</leafValues></_>
        <_>
          <internalNodes>
            0 -1 103 -6.7924566566944122e-02</internalNodes>
          <leafValues>
            4.9008932709693909e-01 -1.8705174326896667e-01</leafValues></_>
        <_>
          <internalNodes>
            0 -1 59 1.1473666131496429e-01</internalNodes>
          <leafValues>
            -1.7594078183174133e-01 5.1852595806121826e-01</leafValues></_>
        <_>
          <internalNodes>
            0 -1 114 -6.6215437836945057e-03</internalNodes>
          <leafValues>
            4.1508203744888306e-01 -2.0614218711853027e-01</leafValues></_>
        <_>
          <internalNodes>
            0 -1 175 -6.2812063843011856e-03</internalNodes>
          <leafValues>
            3.7232160568237305e-01 -2.4710357189178467e-01</leafValues></_>
        <_>
          <internalNodes>
            0 -1 133 2.3951956245582551e-04</internalNodes>
          <leafValues>
            -1.9473707675933838e-01 4.0302607417106628e-01</leafValues></_>
        <_>
          <internalNodes>
            0 -1 32 6.2896724557504058e-05</internalNodes>
          <leafValues>
            2.1156623959541321e-01 -4.2513826489448547e-01</leafValues></_>
        <_>
          <internalNodes>
            0 -1 185 -8.6823645979166031e-03</internalNodes>
          <leafValues>
            5.4911243915557861e-01 -1.6979148983955383e-01</leafValues></_>
        <_>
          <internalNodes>
            0 -1 97 -4.5982478186488152e-03</internalNodes>
          <leafValues>
            2.9020079970359802e-01 -2.7716252207756042e-01</leafValues></_></weakClassifiers></_></stages>
  <features>
    <_>
      <rects>
        <_>
          0 0 4 22 -1.</_>
        <_>
          2 0 2 22 2.</_></rects>
      <tilted>0</tilted></_>
    <_>
      <rects>
        <_>
          0 0 8 6 -1.</_>
        <_>
          0 2 8 2 3.</_></rects>
      <tilted>0</tilted></_>
    <_>
      <rects>
        <_>
          0 0 21 28 -1.</_>
        <_>
          0 14 21 14 2.</_></rects>
      <tilted>0</tilted></_>
    <_>
      <rects>
        <_>
          0 2 4 1 -1.</_>
        <_>
          2 2 2 1 2.</_></rects>
      <tilted>0</tilted></_>
    <_>
      <rects>
        <_>
          0 2 15 12 -1.</_>
        <_>
          5 2 5 12 3.</_></rects>
      <tilted>0</tilted></_>
    <_>
      <rects>
        <_>
          0 2 21 26 -1.</_>
        <_>
          7 2 7 26 3.</_></rects>
      <tilted>0</tilted></_>
    <_>
      <rects>
        <_>
          0 2 24 32 -1.</_>
        <_>
          8 2 8 32 3.</_></rects>
      <tilted>0</tilted></_>
    <_>
      <rects>
        <_>
          0 3 2 10 -1.</_>
        <_>
          0 8 2 5 2.</_></rects>
      <tilted>0</tilted></_>
    <_>
      <rects>
        <_>
          0 3 10 25 -1.</_>
        <_>
          5 3 5 25 2.</_></rects>
      <tilted>0</tilted></_>
    <_>
      <rects>
        <_>
          0 3 18 16 -1.</_>
        <_>
          6 3 6 16 3.</_></rects>
      <tilted>0</tilted></_>
    <_>
      <rects>
        <_>
          0 4 2 10 -1.</_>
        <_>
          1 4 1 10 2.</_></rects>
      <tilted>0</tilted></_>
    <_>
      <rects>
        <_>
          0 4 15 2 -1.</_>
        <_>
          5 4 5 2 3.</_></rects>
      <tilted>0</tilted></_>
    <_>
      <rects>
        <_>
          0 5 8 1 -1.</_>
        <_>
          4 5 4 1 2.</_></rects>
      <tilted>0</tilted></_>
    <_>
      <rects>
        <_>
          0 9 8 22 -1.</_>
        <_>
          4 9 4 22 2.</_></rects>
      <tilted>0</tilted></_>
    <_>
      <rects>
        <_>
          0 10 24 25 -1.</_>
        <_>
          8 10 8 25 3.</_></rects>
      <tilted>0</tilted></_>
    <_>
      <rects>
        <_>
          0 11 8 25 -1.</_>
        <_>
          4 11 4 25 2.</_></rects>
      <tilted>0</tilted></_>
    <_>
      <rects>
        <_>
          0 11 12 2 -1.</_>
        <_>
          0 11 6 1 2.</_>
        <_>
          6 12 6 1 2.</_></rects>
      <tilted>0</tilted></_>
    <_>
      <rects>
        <_>
          0 12 12 3 -1.</_>
        <_>
          4 12 4 3 3.</_></rects>
      <tilted>0</tilted></_>
    <_>
      <rects>
        <_>
          0 12 14 6 -1.</_>
        <_>
          0 14 14 2 3.</_></rects>
      <tilted>0</tilted></_>
    <_>
      <rects>
        <_>
          0 13 24 22 -1.</_>
        <_>
          8 13 8 22 3.</_></rects>
      <tilted>0</tilted></_>
    <_>
      <rects>
        <_>
          0 13 9 4 -1.</_>
        <_>
          0 15 9 2 2.</_></rects>
      <tilted>0</tilted></_>
    <_>
      <rects>
        <_>
          0 14 4 8 -1.</_>
        <_>
          0 18 4 4 2.</_></rects>
      <tilted>0</tilted></_>
    <_>
      <rects>
        <_>
          0 14 8 14 -1.</_>
        <_>
          0 21 8 7 2.</_></rects>
      <tilted>0</tilted></_>
    <_>
      <rects>
        <_>
          0 15 24 13 -1.</_>
        <_>
          12 15 12 13 2.</_></rects>
      <tilted>0</tilted></_>
    <_>
      <rects>
        <_>
          0 17 8 5 -1.</_>
        <_>
          4 17 4 5 2.</_></rects>
      <tilted>0</tilted></_>
    <_>
      <rects>
        <_>
          0 18 24 16 -1.</_>
        <_>
          8 18 8 16 3.</_></rects>
      <tilted>0</tilted></_>
    <_>
      <rects>
        <_>
          0 18 18 12 -1.</_>
        <_>
          0 18 9 6 2.</_>
        <_>
          9 24 9 6 2.</_></rects>
      <tilted>0</tilted></_>
    <_>
      <rects>
        <_>
          0 20 24 12 -1.</_>
        <_>
          0 20 12 6 2.</_>
        <_>
          12 26 12 6 2.</_></rects>
      <tilted>0</tilted></_>
    <_>
      <rects>
        <_>
          0 22 1 6 -1.</_>
        <_>
          0 25 1 3 2.</_></rects>
      <tilted>0</tilted></_>
    <_>
      <rects>
        <_>
          0 22 10 9 -1.</_>
        <_>
          0 25 10 3 3.</_></rects>
      <tilted>0</tilted></_>
    <_>
      <rects>
        <_>
          0 23 24 6 -1.</_>
        <_>
          0 26 24 3 2.</_></rects>
      <tilted>0</tilted></_>
    <_>
      <rects>
        <_>
          0 24 21 9 -1.</_>
        <_>
          7 24 7 9 3.</_></rects>
      <tilted>0</tilted></_>
    <_>
      <rects>
        <_>
          0 26 2 2 -1.</_>
        <_>
          0 27 2 1 2.</_></rects>
      <tilted>0</tilted></_>
    <_>
      <rects>
        <_>
          0 27 1 9 -1.</_>
        <_>
          0 30 1 3 3.</_></rects>
      <tilted>0</tilted></_>
    <_>
      <rects>
        <_>
          0 28 6 8 -1.</_>
        <_>
          2 28 2 8 3.</_></rects>
      <tilted>0</tilted></_>
    <_>
      <rects>
        <_>
          0 32 22 4 -1.</_>
        <_>
          0 34 22 2 2.</_></rects>
      <tilted>0</tilted></_>
    <_>
      <rects>
        <_>
          1 0 14 6 -1.</_>
        <_>
          1 2 14 2 3.</_></rects>
      <tilted>0</tilted></_>
    <_>
      <rects>
        <_>
          1 1 18 8 -1.</_>
        <_>
          7 1 6 8 3.</_></rects>
      <tilted>0</tilted></_>
    <_>
      <rects>
        <_>
          1 4 15 2 -1.</_>
        <_>
          6 4 5 2 3.</_></rects>
      <tilted>0</tilted></_>
    <_>
      <rects>
        <_>
          1 6 9 1 -1.</_>
        <_>
          4 6 3 1 3.</_></rects>
      <tilted>0</tilted></_>
    <_>
      <rects>
        <_>
          1 11 14 18 -1.</_>
        <_>
          1 11 7 9 2.</_>
        <_>
          8 20 7 9 2.</_></rects>
      <tilted>0</tilted></_>
    <_>
      <rects>
        <_>
          1 18 12 18 -1.</_>
        <_>
          5 18 4 18 3.</_></rects>
      <tilted>0</tilted></_>
    <_>
      <rects>
        <_>
          2 0 20 1 -1.</_>
        <_>
          12 0 10 1 2.</_></rects>
      <tilted>0</tilted></_>
    <_>
      <rects>
        <_>
          2 1 7 6 -1.</_>
        <_>
          2 4 7 3 2.</_></rects>
      <tilted>0</tilted></_>
    <_>
      <rects>
        <_>
          2 6 9 3 -1.</_>
        <_>
          5 6 3 3 3.</_></rects>
      <tilted>0</tilted></_>
    <_>
      <rects>
        <_>
          2 8 9 23 -1.</_>
        <_>
          5 8 3 23 3.</_></rects>
      <tilted>0</tilted></_>
    <_>
      <rects>
        <_>
          2 10 13 6 -1.</_>
        <_>
          2 12 13 2 3.</_></rects>
      <tilted>0</tilted></_>
    <_>
      <rects>
        <_>
          2 13 4 14 -1.</_>
        <_>
          2 20 4 7 2.</_></rects>
      <tilted>0</tilted></_>
    <_>
      <rects>
        <_>
          2 15 21 16 -1.</_>
        <_>
          9 15 7 16 3.</_></rects>
      <tilted>0</tilted></_>
    <_>
      <rects>
        <_>
          2 23 2 1 -1.</_>
        <_>
          3 23 1 1 2.</_></rects>
      <tilted>0</tilted></_>
    <_>
      <rects>
        <_>
          2 23 10 2 -1.</_>
        <_>
          7 23 5 2 2.</_></rects>
      <tilted>0</tilted></_>
    <_>
      <rects>
        <_>
          2 29 22 7 -1.</_>
        <_>
          13 29 11 7 2.</_></rects>
      <tilted>0</tilted></_>
    <_>
      <rects>
        <_>
          2 31 10 3 -1.</_>
        <_>
          2 32 10 1 3.</_></rects>
      <tilted>0</tilted></_>
    <_>
      <rects>
        <_>
          3 0 14 1 -1.</_>
        <_>
          10 0 7 1 2.</_></rects>
      <tilted>0</tilted></_>
    <_>
      <rects>
        <_>
          3 0 8 14 -1.</_>
        <_>
          3 7 8 7 2.</_></rects>
      <tilted>0</tilted></_>
    <_>
      <rects>
        <_>
          3 3 12 20 -1.</_>
        <_>
          3 3 6 10 2.</_>
        <_>
          9 13 6 10 2.</_></rects>
      <tilted>0</tilted></_>
    <_>
      <rects>
        <_>
          3 22 8 10 -1.</_>
        <_>
          3 22 4 5 2.</_>
        <_>
          7 27 4 5 2.</_></rects>
      <tilted>0</tilted></_>
    <_>
      <rects>
        <_>
          4 0 3 3 -1.</_>
        <_>
          4 1 3 1 3.</_></rects>
      <tilted>0</tilted></_>
    <_>
      <rects>
        <_>
          4 0 20 1 -1.</_>
        <_>
          14 0 10 1 2.</_></rects>
      <tilted>0</tilted></_>
    <_>
      <rects>
        <_>
          4 1 20 30 -1.</_>
        <_>
          4 11 20 10 3.</_></rects>
      <tilted>0</tilted></_>
    <_>
      <rects>
        <_>
          4 3 8 28 -1.</_>
        <_>
          4 17 8 14 2.</_></rects>
      <tilted>0</tilted></_>
    <_>
      <rects>
        <_>
          4 13 18 21 -1.</_>
        <_>
          10 13 6 21 3.</_></rects>
      <tilted>0</tilted></_>
    <_>
      <rects>
        <_>
          4 14 6 13 -1.</_>
        <_>
          7 14 3 13 2.</_></rects>
      <tilted>0</tilted></_>
    <_>
      <rects>
        <_>
          4 14 18 4 -1.</_>
        <_>
          4 14 9 2 2.</_>
        <_>
          13 16 9 2 2.</_></rects>
      <tilted>0</tilted></_>
    <_>
      <rects>
        <_>
          4 19 4 8 -1.</_>
        <_>
          4 19 2 4 2.</_>
        <_>
          6 23 2 4 2.</_></rects>
      <tilted>0</tilted></_>
    <_>
      <rects>
        <_>
          4 22 8 10 -1.</_>
        <_>
          4 22 4 5 2.</_>
        <_>
          8 27 4 5 2.</_></rects>
      <tilted>0</tilted></_>
    <_>
      <rects>
        <_>
          5 0 15 10 -1.</_>
        <_>
          5 5 15 5 2.</_></rects>
      <tilted>0</tilted></_>
    <_>
      <rects>
        <_>
          5 2 2 3 -1.</_>
        <_>
          5 3 2 1 3.</_></rects>
      <tilted>0</tilted></_>
    <_>
      <rects>
        <_>
          5 2 14 13 -1.</_>
        <_>
          12 2 7 13 2.</_></rects>
      <tilted>0</tilted></_>
    <_>
      <rects>
        <_>
          5 3 2 19 -1.</_>
        <_>
          6 3 1 19 2.</_></rects>
      <tilted>0</tilted></_>
    <_>
      <rects>
        <_>
          5 3 4 4 -1.</_>
        <_>
          5 3 2 2 2.</_>
        <_>
          7 5 2 2 2.</_></rects>
      <tilted>0</tilted></_>
    <_>
      <rects>
        <_>
          5 3 9 32 -1.</_>
        <_>
          5 19 9 16 2.</_></rects>
      <tilted>0</tilted></_>
    <_>
      <rects>
        <_>
          5 4 6 4 -1.</_>
        <_>
          5 4 3 2 2.</_>
        <_>
          8 6 3 2 2.</_></rects>
      <tilted>0</tilted></_>
    <_>
      <rects>
        <_>
          6 0 8 6 -1.</_>
        <_>
          6 2 8 2 3.</_></rects>
      <tilted>0</tilted></_>
    <_>
      <rects>
        <_>
          6 0 11 4 -1.</_>
        <_>
          6 2 11 2 2.</_></rects>
      <tilted>0</tilted></_>
    <_>
      <rects>
        <_>
          6 1 5 3 -1.</_>
        <_>
          6 2 5 1 3.</_></rects>
      <tilted>0</tilted></_>
    <_>
      <rects>
        <_>
          6 3 6 4 -1.</_>
        <_>
          6 3 3 2 2.</_>
        <_>
          9 5 3 2 2.</_></rects>
      <tilted>0</tilted></_>
    <_>
      <rects>
        <_>
          6 3 12 8 -1.</_>
        <_>
          10 3 4 8 3.</_></rects>
      <tilted>0</tilted></_>
    <_>
      <rects>
        <_>
          6 4 2 2 -1.</_>
        <_>
          6 4 1 1 2.</_>
        <_>
          7 5 1 1 2.</_></rects>
      <tilted>0</tilted></_>
    <_>
      <rects>
        <_>
          6 5 9 3 -1.</_>
        <_>
          9 5 3 3 3.</_></rects>
      <tilted>0</tilted></_>
    <_>
      <rects>
        <_>
          6 5 18 23 -1.</_>
        <_>
          15 5 9 23 2.</_></rects>
      <tilted>0</tilted></_>
    <_>
      <rects>
        <_>
          6 6 3 6 -1.</_>
        <_>
          6 8 3 2 3.</_></rects>
      <tilted>0</tilted></_>
    <_>
      <rects>
        <_>
          6 9 2 3 -1.</_>
        <_>
          6 10 2 1 3.</_></rects>
      <tilted>0</tilted></_>
    <_>
      <rects>
        <_>
          6 13 18 5 -1.</_>
        <_>
          15 13 9 5 2.</_></rects>
      <tilted>0</tilted></_>
    <_>
      <rects>
        <_>
          6 13 14 3 -1.</_>
        <_>
          6 14 14 1 3.</_></rects>
      <tilted>0</tilted></_>
    <_>
      <rects>
        <_>
          6 19 2 14 -1.</_>
        <_>
          6 19 1 7 2.</_>
        <_>
          7 26 1 7 2.</_></rects>
      <tilted>0</tilted></_>
    <_>
      <rects>
        <_>
          6 31 13 3 -1.</_>
        <_>
          6 32 13 1 3.</_></rects>
      <tilted>0</tilted></_>
    <_>
      <rects>
        <_>
          6 32 4 2 -1.</_>
        <_>
          6 32 2 1 2.</_>
        <_>
          8 33 2 1 2.</_></rects>
      <tilted>0</tilted></_>
    <_>
      <rects>
        <_>
          7 0 1 34 -1.</_>
        <_>
          7 17 1 17 2.</_></rects>
      <tilted>0</tilted></_>
    <_>
      <rects>
        <_>
          7 0 3 36 -1.</_>
        <_>
          7 18 3 18 2.</_></rects>
      <tilted>0</tilted></_>
    <_>
      <rects>
        <_>
          7 1 3 3 -1.</_>
        <_>
          7 2 3 1 3.</_></rects>
      <tilted>0</tilted></_>
    <_>
      <rects>
        <_>
          7 4 13 10 -1.</_>
        <_>
          7 9 13 5 2.</_></rects>
      <tilted>0</tilted></_>
    <_>
      <rects>
        <_>
          7 5 1 3 -1.</_>
        <_>
          7 6 1 1 3.</_></rects>
      <tilted>0</tilted></_>
    <_>
      <rects>
        <_>
          7 8 2 4 -1.</_>
        <_>
          7 8 1 2 2.</_>
        <_>
          8 10 1 2 2.</_></rects>
      <tilted>0</tilted></_>
    <_>
      <rects>
        <_>
          7 12 3 3 -1.</_>
        <_>
          7 13 3 1 3.</_></rects>
      <tilted>0</tilted></_>
    <_>
      <rects>
        <_>
          7 12 7 12 -1.</_>
        <_>
          7 16 7 4 3.</_></rects>
      <tilted>0</tilted></_>
    <_>
      <rects>
        <_>
          7 12 12 3 -1.</_>
        <_>
          7 13 12 1 3.</_></rects>
      <tilted>0</tilted></_>
    <_>
      <rects>
        <_>
          7 28 9 6 -1.</_>
        <_>
          7 30 9 2 3.</_></rects>
      <tilted>0</tilted></_>
    <_>
      <rects>
        <_>
          7 28 10 6 -1.</_>
        <_>
          7 30 10 2 3.</_></rects>
      <tilted>0</tilted></_>
    <_>
      <rects>
        <_>
          7 32 11 3 -1.</_>
        <_>
          7 33 11 1 3.</_></rects>
      <tilted>0</tilted></_>
    <_>
      <rects>
        <_>
          8 1 2 7 -1.</_>
        <_>
          9 1 1 7 2.</_></rects>
      <tilted>0</tilted></_>
    <_>
      <rects>
        <_>
          8 3 1 3 -1.</_>
        <_>
          8 4 1 1 3.</_></rects>
      <tilted>0</tilted></_>
    <_>
      <rects>
        <_>
          8 4 1 3 -1.</_>
        <_>
          8 5 1 1 3.</_></rects>
      <tilted>0</tilted></_>
    <_>
      <rects>
        <_>
          8 5 16 30 -1.</_>
        <_>
          8 15 16 10 3.</_></rects>
      <tilted>0</tilted></_>
    <_>
      <rects>
        <_>
          8 9 16 12 -1.</_>
        <_>
          16 9 8 12 2.</_></rects>
      <tilted>0</tilted></_>
    <_>
      <rects>
        <_>
          8 11 2 2 -1.</_>
        <_>
          8 11 1 1 2.</_>
        <_>
          9 12 1 1 2.</_></rects>
      <tilted>0</tilted></_>
    <_>
      <rects>
        <_>
          8 11 4 2 -1.</_>
        <_>
          8 12 4 1 2.</_></rects>
      <tilted>0</tilted></_>
    <_>
      <rects>
        <_>
          8 13 8 3 -1.</_>
        <_>
          8 14 8 1 3.</_></rects>
      <tilted>0</tilted></_>
    <_>
      <rects>
        <_>
          8 22 2 8 -1.</_>
        <_>
          8 26 2 4 2.</_></rects>
      <tilted>0</tilted></_>
    <_>
      <rects>
        <_>
          9 0 1 8 -1.</_>
        <_>
          9 4 1 4 2.</_></rects>
      <tilted>0</tilted></_>
    <_>
      <rects>
        <_>
          9 0 2 8 -1.</_>
        <_>
          10 0 1 8 2.</_></rects>
      <tilted>0</tilted></_>
    <_>
      <rects>
        <_>
          9 0 3 3 -1.</_>
        <_>
          9 1 3 1 3.</_></rects>
      <tilted>0</tilted></_>
    <_>
      <rects>
        <_>
          9 2 1 3 -1.</_>
        <_>
          9 3 1 1 3.</_></rects>
      <tilted>0</tilted></_>
    <_>
      <rects>
        <_>
          9 3 6 7 -1.</_>
        <_>
          11 3 2 7 3.</_></rects>
      <tilted>0</tilted></_>
    <_>
      <rects>
        <_>
          9 4 5 8 -1.</_>
        <_>
          9 8 5 4 2.</_></rects>
      <tilted>0</tilted></_>
    <_>
      <rects>
        <_>
          9 6 2 2 -1.</_>
        <_>
          9 6 1 1 2.</_>
        <_>
          10 7 1 1 2.</_></rects>
      <tilted>0</tilted></_>
    <_>
      <rects>
        <_>
          9 6 8 8 -1.</_>
        <_>
          13 6 4 8 2.</_></rects>
      <tilted>0</tilted></_>
    <_>
      <rects>
        <_>
          9 8 2 20 -1.</_>
        <_>
          10 8 1 20 2.</_></rects>
      <tilted>0</tilted></_>
    <_>
      <rects>
        <_>
          9 9 2 4 -1.</_>
        <_>
          10 9 1 4 2.</_></rects>
      <tilted>0</tilted></_>
    <_>
      <rects>
        <_>
          9 9 8 6 -1.</_>
        <_>
          13 9 4 6 2.</_></rects>
      <tilted>0</tilted></_>
    <_>
      <rects>
        <_>
          9 10 8 2 -1.</_>
        <_>
          13 10 4 2 2.</_></rects>
      <tilted>0</tilted></_>
    <_>
      <rects>
        <_>
          9 11 4 4 -1.</_>
        <_>
          11 11 2 4 2.</_></rects>
      <tilted>0</tilted></_>
    <_>
      <rects>
        <_>
          9 11 6 15 -1.</_>
        <_>
          11 11 2 15 3.</_></rects>
      <tilted>0</tilted></_>
    <_>
      <rects>
        <_>
          9 11 6 16 -1.</_>
        <_>
          9 11 3 8 2.</_>
        <_>
          12 19 3 8 2.</_></rects>
      <tilted>0</tilted></_>
    <_>
      <rects>
        <_>
          9 20 1 3 -1.</_>
        <_>
          9 21 1 1 3.</_></rects>
      <tilted>0</tilted></_>
    <_>
      <rects>
        <_>
          9 27 6 2 -1.</_>
        <_>
          9 27 3 1 2.</_>
        <_>
          12 28 3 1 2.</_></rects>
      <tilted>0</tilted></_>
    <_>
      <rects>
        <_>
          9 30 13 3 -1.</_>
        <_>
          9 31 13 1 3.</_></rects>
      <tilted>0</tilted></_>
    <_>
      <rects>
        <_>
          10 0 9 26 -1.</_>
        <_>
          10 13 9 13 2.</_></rects>
      <tilted>0</tilted></_>
    <_>
      <rects>
        <_>
          10 1 8 10 -1.</_>
        <_>
          10 1 4 5 2.</_>
        <_>
          14 6 4 5 2.</_></rects>
      <tilted>0</tilted></_>
    <_>
      <rects>
        <_>
          10 4 2 3 -1.</_>
        <_>
          11 4 1 3 2.</_></rects>
      <tilted>0</tilted></_>
    <_>
      <rects>
        <_>
          10 4 6 24 -1.</_>
        <_>
          10 16 6 12 2.</_></rects>
      <tilted>0</tilted></_>
    <_>
      <rects>
        <_>
          10 17 2 2 -1.</_>
        <_>
          10 17 1 1 2.</_>
        <_>
          11 18 1 1 2.</_></rects>
      <tilted>0</tilted></_>
    <_>
      <rects>
        <_>
          10 18 6 3 -1.</_>
        <_>
          10 19 6 1 3.</_></rects>
      <tilted>0</tilted></_>
    <_>
      <rects>
        <_>
          10 19 2 2 -1.</_>
        <_>
          10 19 1 1 2.</_>
        <_>
          11 20 1 1 2.</_></rects>
      <tilted>0</tilted></_>
    <_>
      <rects>
        <_>
          10 21 3 3 -1.</_>
        <_>
          10 22 3 1 3.</_></rects>
      <tilted>0</tilted></_>
    <_>
      <rects>
        <_>
          11 0 12 1 -1.</_>
        <_>
          17 0 6 1 2.</_></rects>
      <tilted>0</tilted></_>
    <_>
      <rects>
        <_>
          11 2 12 12 -1.</_>
        <_>
          11 2 6 6 2.</_>
        <_>
          17 8 6 6 2.</_></rects>
      <tilted>0</tilted></_>
    <_>
      <rects>
        <_>
          11 2 10 21 -1.</_>
        <_>
          11 9 10 7 3.</_></rects>
      <tilted>0</tilted></_>
    <_>
      <rects>
        <_>
          11 5 7 18 -1.</_>
        <_>
          11 14 7 9 2.</_></rects>
      <tilted>0</tilted></_>
    <_>
      <rects>
        <_>
          11 7 8 16 -1.</_>
        <_>
          11 7 4 8 2.</_>
        <_>
          15 15 4 8 2.</_></rects>
      <tilted>0</tilted></_>
    <_>
      <rects>
        <_>
          11 10 4 5 -1.</_>
        <_>
          13 10 2 5 2.</_></rects>
      <tilted>0</tilted></_>
    <_>
      <rects>
        <_>
          11 10 8 10 -1.</_>
        <_>
          11 10 4 5 2.</_>
        <_>
          15 15 4 5 2.</_></rects>
      <tilted>0</tilted></_>
    <_>
      <rects>
        <_>
          11 14 5 3 -1.</_>
        <_>
          11 15 5 1 3.</_></rects>
      <tilted>0</tilted></_>
    <_>
      <rects>
        <_>
          11 19 1 8 -1.</_>
        <_>
          11 23 1 4 2.</_></rects>
      <tilted>0</tilted></_>
    <_>
      <rects>
        <_>
          11 20 9 8 -1.</_>
        <_>
          11 24 9 4 2.</_></rects>
      <tilted>0</tilted></_>
    <_>
      <rects>
        <_>
          11 25 4 2 -1.</_>
        <_>
          11 25 2 1 2.</_>
        <_>
          13 26 2 1 2.</_></rects>
      <tilted>0</tilted></_>
    <_>
      <rects>
        <_>
          11 31 7 3 -1.</_>
        <_>
          11 32 7 1 3.</_></rects>
      <tilted>0</tilted></_>
    <_>
      <rects>
        <_>
          12 2 2 9 -1.</_>
        <_>
          13 2 1 9 2.</_></rects>
      <tilted>0</tilted></_>
    <_>
      <rects>
        <_>
          12 8 1 2 -1.</_>
        <_>
          12 9 1 1 2.</_></rects>
      <tilted>0</tilted></_>
    <_>
      <rects>
        <_>
          12 33 4 3 -1.</_>
        <_>
          12 34 4 1 3.</_></rects>
      <tilted>0</tilted></_>
    <_>
      <rects>
        <_>
          12 34 9 2 -1.</_>
        <_>
          15 34 3 2 3.</_></rects>
      <tilted>0</tilted></_>
    <_>
      <rects>
        <_>
          13 5 6 24 -1.</_>
        <_>
          13 17 6 12 2.</_></rects>
      <tilted>0</tilted></_>
    <_>
      <rects>
        <_>
          13 6 10 2 -1.</_>
        <_>
          13 6 5 1 2.</_>
        <_>
          18 7 5 1 2.</_></rects>
      <tilted>0</tilted></_>
    <_>
      <rects>
        <_>
          13 12 6 15 -1.</_>
        <_>
          15 12 2 15 3.</_></rects>
      <tilted>0</tilted></_>
    <_>
      <rects>
        <_>
          13 16 1 3 -1.</_>
        <_>
          13 17 1 1 3.</_></rects>
      <tilted>0</tilted></_>
    <_>
      <rects>
        <_>
          13 19 2 3 -1.</_>
        <_>
          13 20 2 1 3.</_></rects>
      <tilted>0</tilted></_>
    <_>
      <rects>
        <_>
          13 20 1 3 -1.</_>
        <_>
          13 21 1 1 3.</_></rects>
      <tilted>0</tilted></_>
    <_>
      <rects>
        <_>
          13 20 2 2 -1.</_>
        <_>
          13 20 1 1 2.</_>
        <_>
          14 21 1 1 2.</_></rects>
      <tilted>0</tilted></_>
    <_>
      <rects>
        <_>
          13 25 9 1 -1.</_>
        <_>
          16 25 3 1 3.</_></rects>
      <tilted>0</tilted></_>
    <_>
      <rects>
        <_>
          14 15 1 3 -1.</_>
        <_>
          14 16 1 1 3.</_></rects>
      <tilted>0</tilted></_>
    <_>
      <rects>
        <_>
          14 19 2 2 -1.</_>
        <_>
          14 19 1 1 2.</_>
        <_>
          15 20 1 1 2.</_></rects>
      <tilted>0</tilted></_>
    <_>
      <rects>
        <_>
          14 19 6 2 -1.</_>
        <_>
          14 19 3 1 2.</_>
        <_>
          17 20 3 1 2.</_></rects>
      <tilted>0</tilted></_>
    <_>
      <rects>
        <_>
          14 20 2 2 -1.</_>
        <_>
          14 20 1 1 2.</_>
        <_>
          15 21 1 1 2.</_></rects>
      <tilted>0</tilted></_>
    <_>
      <rects>
        <_>
          14 22 2 2 -1.</_>
        <_>
          14 23 2 1 2.</_></rects>
      <tilted>0</tilted></_>
    <_>
      <rects>
        <_>
          14 25 2 2 -1.</_>
        <_>
          14 26 2 1 2.</_></rects>
      <tilted>0</tilted></_>
    <_>
      <rects>
        <_>
          14 27 6 1 -1.</_>
        <_>
          17 27 3 1 2.</_></rects>
      <tilted>0</tilted></_>
    <_>
      <rects>
        <_>
          15 0 6 2 -1.</_>
        <_>
          17 0 2 2 3.</_></rects>
      <tilted>0</tilted></_>
    <_>
      <rects>
        <_>
          15 0 7 36 -1.</_>
        <_>
          15 18 7 18 2.</_></rects>
      <tilted>0</tilted></_>
    <_>
      <rects>
        <_>
          15 9 6 5 -1.</_>
        <_>
          17 9 2 5 3.</_></rects>
      <tilted>0</tilted></_>
    <_>
      <rects>
        <_>
          15 19 2 3 -1.</_>
        <_>
          15 20 2 1 3.</_></rects>
      <tilted>0</tilted></_>
    <_>
      <rects>
        <_>
          15 19 3 3 -1.</_>
        <_>
          15 20 3 1 3.</_></rects>
      <tilted>0</tilted></_>
    <_>
      <rects>
        <_>
          15 21 1 2 -1.</_>
        <_>
          15 22 1 1 2.</_></rects>
      <tilted>0</tilted></_>
    <_>
      <rects>
        <_>
          15 21 3 2 -1.</_>
        <_>
          16 21 1 2 3.</_></rects>
      <tilted>0</tilted></_>
    <_>
      <rects>
        <_>
          15 21 9 2 -1.</_>
        <_>
          18 21 3 2 3.</_></rects>
      <tilted>0</tilted></_>
    <_>
      <rects>
        <_>
          15 25 3 1 -1.</_>
        <_>
          16 25 1 1 3.</_></rects>
      <tilted>0</tilted></_>
    <_>
      <rects>
        <_>
          15 30 9 6 -1.</_>
        <_>
          15 32 9 2 3.</_></rects>
      <tilted>0</tilted></_>
    <_>
      <rects>
        <_>
          16 4 8 20 -1.</_>
        <_>
          16 14 8 10 2.</_></rects>
      <tilted>0</tilted></_>
    <_>
      <rects>
        <_>
          16 17 1 3 -1.</_>
        <_>
          16 18 1 1 3.</_></rects>
      <tilted>0</tilted></_>
    <_>
      <rects>
        <_>
          17 29 3 6 -1.</_>
        <_>
          17 31 3 2 3.</_></rects>
      <tilted>0</tilted></_>
    <_>
      <rects>
        <_>
          18 6 6 29 -1.</_>
        <_>
          21 6 3 29 2.</_></rects>
      <tilted>0</tilted></_>
    <_>
      <rects>
        <_>
          18 9 6 17 -1.</_>
        <_>
          21 9 3 17 2.</_></rects>
      <tilted>0</tilted></_>
    <_>
      <rects>
        <_>
          19 8 4 6 -1.</_>
        <_>
          19 10 4 2 3.</_></rects>
      <tilted>0</tilted></_>
    <_>
      <rects>
        <_>
          19 10 2 7 -1.</_>
        <_>
          20 10 1 7 2.</_></rects>
      <tilted>0</tilted></_>
    <_>
      <rects>
        <_>
          19 22 5 9 -1.</_>
        <_>
          19 25 5 3 3.</_></rects>
      <tilted>0</tilted></_>
    <_>
      <rects>
        <_>
          20 3 2 2 -1.</_>
        <_>
          20 3 1 1 2.</_>
        <_>
          21 4 1 1 2.</_></rects>
      <tilted>0</tilted></_>
    <_>
      <rects>
        <_>
          21 3 3 14 -1.</_>
        <_>
          22 3 1 14 3.</_></rects>
      <tilted>0</tilted></_>
    <_>
      <rects>
        <_>
          21 9 3 18 -1.</_>
        <_>
          22 9 1 18 3.</_></rects>
      <tilted>0</tilted></_>
    <_>
      <rects>
        <_>
          21 12 3 6 -1.</_>
        <_>
          21 14 3 2 3.</_></rects>
      <tilted>0</tilted></_>
    <_>
      <rects>
        <_>
          21 13 2 18 -1.</_>
        <_>
          21 19 2 6 3.</_></rects>
      <tilted>0</tilted></_>
    <_>
      <rects>
        <_>
          22 7 2 1 -1.</_>
        <_>
          23 7 1 1 2.</_></rects>
      <tilted>0</tilted></_>
    <_>
      <rects>
        <_>
          22 18 2 5 -1.</_>
        <_>
          23 18 1 5 2.</_></rects>
      <tilted>0</tilted></_></features></cascade>
</opencv_storage>
