<?xml version="1.0"?>
<opencv_storage>
<cascade>
  <stageType>BOOST</stageType>
  <featureType>HAAR</featureType>
  <height>24</height>
  <width>24</width>
  <stageParams>
    <boostType>GAB</boostType>
    <minHitRate>9.9500000476837158e-01</minHitRate>
    <maxFalseAlarm>5.0000000000000000e-01</maxFalseAlarm>
    <weightTrimRate>9.4999998807907104e-01</weightTrimRate>
    <maxDepth>1</maxDepth>
    <maxWeakCount>100</maxWeakCount></stageParams>
  <featureParams>
    <maxCatCount>0</maxCatCount>
    <featSize>1</featSize>
    <mode>BASIC</mode></featureParams>
  <stageNum>15</stageNum>
  <stages>
    <!-- stage 0 -->
    <_>
      <maxWeakCount>5</maxWeakCount>
      <stageThreshold>-1.5470129251480103e+00</stageThreshold>
      <weakClassifiers>
        <_>
          <internalNodes>
            0 -1 22 -1.0963013395667076e-02</internalNodes>
          <leafValues>
            2.4489796161651611e-01 -8.7719297409057617e-01</leafValues></_>
        <_>
          <internalNodes>
            0 -1 65 -1.9896496087312698e-03</internalNodes>
          <leafValues>
            4.9097999930381775e-01 -6.5025573968887329e-01</leafValues></_>
        <_>
          <internalNodes>
            0 -1 41 9.0880952775478363e-03</internalNodes>
          <leafValues>
            -4.3645173311233521e-01 6.8908852338790894e-01</leafValues></_>
        <_>
          <internalNodes>
            0 -1 87 -3.3613455016165972e-03</internalNodes>
          <leafValues>
            7.7601885795593262e-01 -3.0663600564002991e-01</leafValues></_>
        <_>
          <internalNodes>
            0 -1 59 -2.2233515046536922e-03</internalNodes>
          <leafValues>
            7.2352361679077148e-01 -3.3896261453628540e-01</leafValues></_></weakClassifiers></_>
    <!-- stage 1 -->
    <_>
      <maxWeakCount>5</maxWeakCount>
      <stageThreshold>-1.6341702938079834e+00</stageThreshold>
      <weakClassifiers>
        <_>
          <internalNodes>
            0 -1 104 2.2226260043680668e-03</internalNodes>
          <leafValues>
            -8.4615385532379150e-01 4.4827586412429810e-01</leafValues></_>
        <_>
          <internalNodes>
            0 -1 62 -3.5627835895866156e-03</internalNodes>
          <leafValues>
            4.1511300206184387e-01 -6.3060194253921509e-01</leafValues></_>
        <_>
          <internalNodes>
            0 -1 24 -1.9951630383729935e-02</internalNodes>
          <leafValues>
            4.6232539415359497e-01 -5.4259359836578369e-01</leafValues></_>
        <_>
          <internalNodes>
            0 -1 34 -1.2472186237573624e-02</internalNodes>
          <leafValues>
            7.3386681079864502e-01 -3.4404340386390686e-01</leafValues></_>
        <_>
          <internalNodes>
            0 -1 89 -1.3821137836202979e-03</internalNodes>
          <leafValues>
            7.9835593700408936e-01 -2.7569642663002014e-01</leafValues></_></weakClassifiers></_>
    <!-- stage 2 -->
    <_>
      <maxWeakCount>6</maxWeakCount>
      <stageThreshold>-1.4204744100570679e+00</stageThreshold>
      <weakClassifiers>
        <_>
          <internalNodes>
            0 -1 49 3.7729245424270630e-01</internalNodes>
          <leafValues>
            -8.3564174175262451e-01 7.0731705427169800e-01</leafValues></_>
        <_>
          <internalNodes>
            0 -1 101 2.1929228678345680e-03</internalNodes>
          <leafValues>
            -5.2460980415344238e-01 6.1550307273864746e-01</leafValues></_>
        <_>
          <internalNodes>
            0 -1 101 -8.3817489212378860e-04</internalNodes>
          <leafValues>
            6.5278983116149902e-01 -3.5338148474693298e-01</leafValues></_>
        <_>
          <internalNodes>
            0 -1 53 2.5232145562767982e-03</internalNodes>
          <leafValues>
            -2.8254917263984680e-01 7.0838117599487305e-01</leafValues></_>
        <_>
          <internalNodes>
            0 -1 21 -7.1150348521769047e-03</internalNodes>
          <leafValues>
            -8.6375117301940918e-01 2.5247415900230408e-01</leafValues></_>
        <_>
          <internalNodes>
            0 -1 74 -5.9316377155482769e-04</internalNodes>
          <leafValues>
            4.4852867722511292e-01 -4.0473964810371399e-01</leafValues></_></weakClassifiers></_>
    <!-- stage 3 -->
    <_>
      <maxWeakCount>7</maxWeakCount>
      <stageThreshold>-1.5395729541778564e+00</stageThreshold>
      <weakClassifiers>
        <_>
          <internalNodes>
            0 -1 1 -5.4921984672546387e-01</internalNodes>
          <leafValues>
            5.8139532804489136e-01 -8.3348751068115234e-01</leafValues></_>
        <_>
          <internalNodes>
            0 -1 105 8.7856762111186981e-03</internalNodes>
          <leafValues>
            -4.9626812338829041e-01 5.1258903741836548e-01</leafValues></_>
        <_>
          <internalNodes>
            0 -1 118 -6.3245454803109169e-03</internalNodes>
          <leafValues>
            6.3010728359222412e-01 -2.8754341602325439e-01</leafValues></_>
        <_>
          <internalNodes>
            0 -1 50 -1.0810526087880135e-02</internalNodes>
          <leafValues>
            -6.6520041227340698e-01 2.6627433300018311e-01</leafValues></_>
        <_>
          <internalNodes>
            0 -1 88 9.3044620007276535e-04</internalNodes>
          <leafValues>
            -4.6711429953575134e-01 3.0003049969673157e-01</leafValues></_>
        <_>
          <internalNodes>
            0 -1 42 -8.4628164768218994e-03</internalNodes>
          <leafValues>
            6.9094097614288330e-01 -2.1469557285308838e-01</leafValues></_>
        <_>
          <internalNodes>
            0 -1 42 6.7949341610074043e-03</internalNodes>
          <leafValues>
            -2.6005911827087402e-01 8.2860136032104492e-01</leafValues></_></weakClassifiers></_>
    <!-- stage 4 -->
    <_>
      <maxWeakCount>8</maxWeakCount>
      <stageThreshold>-1.7151542901992798e+00</stageThreshold>
      <weakClassifiers>
        <_>
          <internalNodes>
            0 -1 51 2.9740375280380249e-01</internalNodes>
          <leafValues>
            -8.3163738250732422e-01 5.3488373756408691e-01</leafValues></_>
        <_>
          <internalNodes>
            0 -1 4 1.6450861096382141e-01</internalNodes>
          <leafValues>
            -4.7220283746719360e-01 6.4051491022109985e-01</leafValues></_>
        <_>
          <internalNodes>
            0 -1 117 2.6264082407578826e-04</internalNodes>
          <leafValues>
            -4.0215349197387695e-01 3.3490577340126038e-01</leafValues></_>
        <_>
          <internalNodes>
            0 -1 67 -2.7705146931111813e-04</internalNodes>
          <leafValues>
            4.1014900803565979e-01 -3.4378865361213684e-01</leafValues></_>
        <_>
          <internalNodes>
            0 -1 26 -2.8593018651008606e-02</internalNodes>
          <leafValues>
            -8.6217439174652100e-01 1.6159875690937042e-01</leafValues></_>
        <_>
          <internalNodes>
            0 -1 8 -3.4981461794814095e-05</internalNodes>
          <leafValues>
            3.2563596963882446e-01 -4.1878032684326172e-01</leafValues></_>
        <_>
          <internalNodes>
            0 -1 115 -1.8828582018613815e-02</internalNodes>
          <leafValues>
            4.8270946741104126e-01 -2.9890388250350952e-01</leafValues></_>
        <_>
          <internalNodes>
            0 -1 84 3.5102739930152893e-02</internalNodes>
          <leafValues>
            1.5365421772003174e-01 -9.6919393539428711e-01</leafValues></_></weakClassifiers></_>
    <!-- stage 5 -->
    <_>
      <maxWeakCount>9</maxWeakCount>
      <stageThreshold>-1.5477823019027710e+00</stageThreshold>
      <weakClassifiers>
        <_>
          <internalNodes>
            0 -1 9 -3.2145917415618896e-01</internalNodes>
          <leafValues>
            4.2105263471603394e-01 -8.2136279344558716e-01</leafValues></_>
        <_>
          <internalNodes>
            0 -1 72 -1.1844351887702942e-02</internalNodes>
          <leafValues>
            4.5343753695487976e-01 -4.8440366983413696e-01</leafValues></_>
        <_>
          <internalNodes>
            0 -1 45 -7.5130711775273085e-04</internalNodes>
          <leafValues>
            4.8922792077064514e-01 -3.2608881592750549e-01</leafValues></_>
        <_>
          <internalNodes>
            0 -1 113 -2.4513814132660627e-03</internalNodes>
          <leafValues>
            5.1252382993698120e-01 -2.6174053549766541e-01</leafValues></_>
        <_>
          <internalNodes>
            0 -1 107 1.1620338773354888e-03</internalNodes>
          <leafValues>
            2.4709275364875793e-01 -5.6119829416275024e-01</leafValues></_>
        <_>
          <internalNodes>
            0 -1 55 4.2345672845840454e-03</internalNodes>
          <leafValues>
            -2.0833550393581390e-01 6.4614409208297729e-01</leafValues></_>
        <_>
          <internalNodes>
            0 -1 102 -1.1361721903085709e-02</internalNodes>
          <leafValues>
            -7.7806067466735840e-01 2.2233130037784576e-01</leafValues></_>
        <_>
          <internalNodes>
            0 -1 112 2.8364518657326698e-03</internalNodes>
          <leafValues>
            -3.3576175570487976e-01 4.3931409716606140e-01</leafValues></_>
        <_>
          <internalNodes>
            0 -1 82 8.3937440649606287e-05</internalNodes>
          <leafValues>
            -2.9855361580848694e-01 4.2048671841621399e-01</leafValues></_></weakClassifiers></_>
    <!-- stage 6 -->
    <_>
      <maxWeakCount>7</maxWeakCount>
      <stageThreshold>-2.0630238056182861e+00</stageThreshold>
      <weakClassifiers>
        <_>
          <internalNodes>
            0 -1 7 -4.0832230448722839e-01</internalNodes>
          <leafValues>
            9.3333333730697632e-01 -8.2632541656494141e-01</leafValues></_>
        <_>
          <internalNodes>
            0 -1 85 1.6786307096481323e-01</internalNodes>
          <leafValues>
            -5.0942254066467285e-01 6.3348358869552612e-01</leafValues></_>
        <_>
          <internalNodes>
            0 -1 2 -1.2864687480032444e-02</internalNodes>
          <leafValues>
            5.5542403459548950e-01 -2.4662335216999054e-01</leafValues></_>
        <_>
          <internalNodes>
            0 -1 57 -4.4103205204010010e-02</internalNodes>
          <leafValues>
            5.3771555423736572e-01 -2.3984284698963165e-01</leafValues></_>
        <_>
          <internalNodes>
            0 -1 11 -2.1410140395164490e-01</internalNodes>
          <leafValues>
            6.5123075246810913e-01 -2.2638781368732452e-01</leafValues></_>
        <_>
          <internalNodes>
            0 -1 93 1.3142963871359825e-04</internalNodes>
          <leafValues>
            4.4171366095542908e-01 -3.3126142621040344e-01</leafValues></_>
        <_>
          <internalNodes>
            0 -1 39 -6.2736310064792633e-04</internalNodes>
          <leafValues>
            -4.6071889996528625e-01 2.7775445580482483e-01</leafValues></_></weakClassifiers></_>
    <!-- stage 7 -->
    <_>
      <maxWeakCount>9</maxWeakCount>
      <stageThreshold>-1.7570260763168335e+00</stageThreshold>
      <weakClassifiers>
        <_>
          <internalNodes>
            0 -1 69 1.2915655970573425e-01</internalNodes>
          <leafValues>
            -8.3677297830581665e-01 2.7586206793785095e-01</leafValues></_>
        <_>
          <internalNodes>
            0 -1 28 1.9672131538391113e-01</internalNodes>
          <leafValues>
            -4.7613874077796936e-01 6.6763317584991455e-01</leafValues></_>
        <_>
          <internalNodes>
            0 -1 114 6.2708891928195953e-02</internalNodes>
          <leafValues>
            -2.6175382733345032e-01 5.1215791702270508e-01</leafValues></_>
        <_>
          <internalNodes>
            0 -1 98 1.4649066142737865e-03</internalNodes>
          <leafValues>
            -2.6662784814834595e-01 4.7786447405815125e-01</leafValues></_>
        <_>
          <internalNodes>
            0 -1 122 -4.1643631993792951e-04</internalNodes>
          <leafValues>
            4.3846559524536133e-01 -2.7730423212051392e-01</leafValues></_>
        <_>
          <internalNodes>
            0 -1 81 -8.6180516518652439e-04</internalNodes>
          <leafValues>
            3.8022941350936890e-01 -2.9769042134284973e-01</leafValues></_>
        <_>
          <internalNodes>
            0 -1 29 -2.1837135776877403e-02</internalNodes>
          <leafValues>
            7.2353339195251465e-01 -1.7793484032154083e-01</leafValues></_>
        <_>
          <internalNodes>
            0 -1 27 6.6722957417368889e-03</internalNodes>
          <leafValues>
            1.7404283583164215e-01 -7.3172569274902344e-01</leafValues></_>
        <_>
          <internalNodes>
            0 -1 120 -2.9892642050981522e-03</internalNodes>
          <leafValues>
            -9.1424453258514404e-01 1.1709096282720566e-01</leafValues></_></weakClassifiers></_>
    <!-- stage 8 -->
    <_>
      <maxWeakCount>9</maxWeakCount>
      <stageThreshold>-1.6411448717117310e+00</stageThreshold>
      <weakClassifiers>
        <_>
          <internalNodes>
            0 -1 54 1.3223147392272949e-01</internalNodes>
          <leafValues>
            -8.2958799600601196e-01 1.7857143282890320e-01</leafValues></_>
        <_>
          <internalNodes>
            0 -1 35 1.0140801221132278e-01</internalNodes>
          <leafValues>
            -4.5772346854209900e-01 4.6805313229560852e-01</leafValues></_>
        <_>
          <internalNodes>
            0 -1 0 -7.1435654535889626e-03</internalNodes>
          <leafValues>
            2.8082108497619629e-01 -3.5947075486183167e-01</leafValues></_>
        <_>
          <internalNodes>
            0 -1 123 2.9992531053721905e-03</internalNodes>
          <leafValues>
            -2.1197946369647980e-01 5.2891498804092407e-01</leafValues></_>
        <_>
          <internalNodes>
            0 -1 68 -5.5386510211974382e-04</internalNodes>
          <leafValues>
            4.3367552757263184e-01 -2.3803240060806274e-01</leafValues></_>
        <_>
          <internalNodes>
            0 -1 13 1.9750840147025883e-04</internalNodes>
          <leafValues>
            2.6420563459396362e-01 -4.1105806827545166e-01</leafValues></_>
        <_>
          <internalNodes>
            0 -1 15 -5.3790723904967308e-04</internalNodes>
          <leafValues>
            -5.0650531053543091e-01 2.4215582013130188e-01</leafValues></_>
        <_>
          <internalNodes>
            0 -1 80 -2.8079189360141754e-03</internalNodes>
          <leafValues>
            4.3169340491294861e-01 -2.6510429382324219e-01</leafValues></_>
        <_>
          <internalNodes>
            0 -1 47 -5.5680313380435109e-04</internalNodes>
          <leafValues>
            3.3988460898399353e-01 -3.4894657135009766e-01</leafValues></_></weakClassifiers></_>
    <!-- stage 9 -->
    <_>
      <maxWeakCount>10</maxWeakCount>
      <stageThreshold>-1.7969752550125122e+00</stageThreshold>
      <weakClassifiers>
        <_>
          <internalNodes>
            0 -1 61 3.9092218875885010e-01</internalNodes>
          <leafValues>
            -8.3206105232238770e-01 -5.2631579339504242e-02</leafValues></_>
        <_>
          <internalNodes>
            0 -1 43 5.9473719447851181e-03</internalNodes>
          <leafValues>
            -4.3187204003334045e-01 4.5873728394508362e-01</leafValues></_>
        <_>
          <internalNodes>
            0 -1 63 -5.0220079720020294e-03</internalNodes>
          <leafValues>
            5.4247313737869263e-01 -2.1761201322078705e-01</leafValues></_>
        <_>
          <internalNodes>
            0 -1 119 -2.0465669222176075e-03</internalNodes>
          <leafValues>
            -6.9280880689620972e-01 1.6631224751472473e-01</leafValues></_>
        <_>
          <internalNodes>
            0 -1 60 3.5571509506553411e-03</internalNodes>
          <leafValues>
            -1.7340108752250671e-01 5.8634889125823975e-01</leafValues></_>
        <_>
          <internalNodes>
            0 -1 5 1.3632726040668786e-04</internalNodes>
          <leafValues>
            2.0453652739524841e-01 -5.6016188859939575e-01</leafValues></_>
        <_>
          <internalNodes>
            0 -1 83 -1.0308972559869289e-02</internalNodes>
          <leafValues>
            6.1342477798461914e-01 -1.7276263236999512e-01</leafValues></_>
        <_>
          <internalNodes>
            0 -1 38 2.6729192584753036e-02</internalNodes>
          <leafValues>
            1.3997243344783783e-01 -7.4764376878738403e-01</leafValues></_>
        <_>
          <internalNodes>
            0 -1 78 -2.6761606335639954e-02</internalNodes>
          <leafValues>
            5.1559555530548096e-01 -2.3161953687667847e-01</leafValues></_>
        <_>
          <internalNodes>
            0 -1 106 7.1386612951755524e-02</internalNodes>
          <leafValues>
            -2.4351966381072998e-01 5.3729671239852905e-01</leafValues></_></weakClassifiers></_>
    <!-- stage 10 -->
    <_>
      <maxWeakCount>10</maxWeakCount>
      <stageThreshold>-1.4744911193847656e+00</stageThreshold>
      <weakClassifiers>
        <_>
          <internalNodes>
            0 -1 14 -2.2835019230842590e-01</internalNodes>
          <leafValues>
            2.6923078298568726e-01 -8.3022385835647583e-01</leafValues></_>
        <_>
          <internalNodes>
            0 -1 16 5.5733434855937958e-02</internalNodes>
          <leafValues>
            -4.5578387379646301e-01 4.4312483072280884e-01</leafValues></_>
        <_>
          <internalNodes>
            0 -1 100 1.7143893241882324e-01</internalNodes>
          <leafValues>
            -1.7944861948490143e-01 5.6705224514007568e-01</leafValues></_>
        <_>
          <internalNodes>
            0 -1 90 5.5852676741778851e-03</internalNodes>
          <leafValues>
            -2.1204639971256256e-01 4.0936830639839172e-01</leafValues></_>
        <_>
          <internalNodes>
            0 -1 40 9.2925587669014931e-03</internalNodes>
          <leafValues>
            -2.2117601335048676e-01 4.7433277964591980e-01</leafValues></_>
        <_>
          <internalNodes>
            0 -1 58 1.3891104608774185e-02</internalNodes>
          <leafValues>
            1.1142683774232864e-01 -9.2993772029876709e-01</leafValues></_>
        <_>
          <internalNodes>
            0 -1 56 1.5338745899498463e-02</internalNodes>
          <leafValues>
            -1.2374756485223770e-01 7.3840576410293579e-01</leafValues></_>
        <_>
          <internalNodes>
            0 -1 6 -6.1174936592578888e-02</internalNodes>
          <leafValues>
            4.7480484843254089e-01 -1.8692170083522797e-01</leafValues></_>
        <_>
          <internalNodes>
            0 -1 30 6.2342141754925251e-03</internalNodes>
          <leafValues>
            -2.4772225320339203e-01 4.7201752662658691e-01</leafValues></_>
        <_>
          <internalNodes>
            0 -1 121 1.3656379887834191e-03</internalNodes>
          <leafValues>
            -3.8064306974411011e-01 2.4973767995834351e-01</leafValues></_></weakClassifiers></_>
    <!-- stage 11 -->
    <_>
      <maxWeakCount>9</maxWeakCount>
      <stageThreshold>-1.4057575464248657e+00</stageThreshold>
      <weakClassifiers>
        <_>
          <internalNodes>
            0 -1 64 -3.0607444047927856e-01</internalNodes>
          <leafValues>
            1. -8.0505412817001343e-01</leafValues></_>
        <_>
          <internalNodes>
            0 -1 33 -1.5155589580535889e-01</internalNodes>
          <leafValues>
            6.3656306266784668e-01 -4.5427948236465454e-01</leafValues></_>
        <_>
          <internalNodes>
            0 -1 99 1.3514181971549988e-01</internalNodes>
          <leafValues>
            -1.8263521790504456e-01 5.2346056699752808e-01</leafValues></_>
        <_>
          <internalNodes>
            0 -1 86 -5.5933982366696000e-04</internalNodes>
          <leafValues>
            4.4560480117797852e-01 -2.4541068077087402e-01</leafValues></_>
        <_>
          <internalNodes>
            0 -1 73 -6.9496452808380127e-02</internalNodes>
          <leafValues>
            5.6316524744033813e-01 -1.5149211883544922e-01</leafValues></_>
        <_>
          <internalNodes>
            0 -1 92 -3.9420034736394882e-03</internalNodes>
          <leafValues>
            3.1514450907707214e-01 -3.2094335556030273e-01</leafValues></_>
        <_>
          <internalNodes>
            0 -1 94 -4.4010006822645664e-03</internalNodes>
          <leafValues>
            -8.6031240224838257e-01 1.0114791244268417e-01</leafValues></_>
        <_>
          <internalNodes>
            0 -1 109 -8.7805371731519699e-03</internalNodes>
          <leafValues>
            5.3290110826492310e-01 -1.6187384724617004e-01</leafValues></_>
        <_>
          <internalNodes>
            0 -1 111 1.1376815382391214e-03</internalNodes>
          <leafValues>
            1.8874822556972504e-01 -5.1231992244720459e-01</leafValues></_></weakClassifiers></_>
    <!-- stage 12 -->
    <_>
      <maxWeakCount>11</maxWeakCount>
      <stageThreshold>-1.7569209337234497e+00</stageThreshold>
      <weakClassifiers>
        <_>
          <internalNodes>
            0 -1 12 3.8428795337677002e-01</internalNodes>
          <leafValues>
            -8.0470162630081177e-01 7.7777779102325439e-01</leafValues></_>
        <_>
          <internalNodes>
            0 -1 23 -7.5910970568656921e-02</internalNodes>
          <leafValues>
            2.3052878677845001e-01 -5.3173965215682983e-01</leafValues></_>
        <_>
          <internalNodes>
            0 -1 32 6.0672461986541748e-03</internalNodes>
          <leafValues>
            -2.7181047201156616e-01 3.6998468637466431e-01</leafValues></_>
        <_>
          <internalNodes>
            0 -1 79 -3.4960418939590454e-02</internalNodes>
          <leafValues>
            -1. 8.7692990899085999e-02</leafValues></_>
        <_>
          <internalNodes>
            0 -1 75 1.5998657327145338e-03</internalNodes>
          <leafValues>
            -2.2057475149631500e-01 3.9213445782661438e-01</leafValues></_>
        <_>
          <internalNodes>
            0 -1 108 -1.9225268624722958e-03</internalNodes>
          <leafValues>
            4.8849955201148987e-01 -1.9296669960021973e-01</leafValues></_>
        <_>
          <internalNodes>
            0 -1 31 1.1454591527581215e-02</internalNodes>
          <leafValues>
            1.6440856456756592e-01 -6.0024797916412354e-01</leafValues></_>
        <_>
          <internalNodes>
            0 -1 66 -1.3047732645645738e-03</internalNodes>
          <leafValues>
            3.1600520014762878e-01 -3.4745007753372192e-01</leafValues></_>
        <_>
          <internalNodes>
            0 -1 103 -2.8325542807579041e-02</internalNodes>
          <leafValues>
            5.9435409307479858e-01 -1.5740650892257690e-01</leafValues></_>
        <_>
          <internalNodes>
            0 -1 44 6.5654162317514420e-03</internalNodes>
          <leafValues>
            -2.6232370734214783e-01 3.9807191491127014e-01</leafValues></_>
        <_>
          <internalNodes>
            0 -1 19 -7.6519735157489777e-03</internalNodes>
          <leafValues>
            -8.5068851709365845e-01 1.3815583288669586e-01</leafValues></_></weakClassifiers></_>
    <!-- stage 13 -->
    <_>
      <maxWeakCount>11</maxWeakCount>
      <stageThreshold>-1.5608232021331787e+00</stageThreshold>
      <weakClassifiers>
        <_>
          <internalNodes>
            0 -1 3 1.4241302013397217e-01</internalNodes>
          <leafValues>
            -8.0580765008926392e-01 5.4545456171035767e-01</leafValues></_>
        <_>
          <internalNodes>
            0 -1 46 -1.3102892041206360e-01</internalNodes>
          <leafValues>
            5.0765788555145264e-01 -4.1934707760810852e-01</leafValues></_>
        <_>
          <internalNodes>
            0 -1 116 -4.0776774287223816e-02</internalNodes>
          <leafValues>
            -1. 6.7139223217964172e-02</leafValues></_>
        <_>
          <internalNodes>
            0 -1 10 2.1790089085698128e-02</internalNodes>
          <leafValues>
            -2.5169995427131653e-01 3.3020699024200439e-01</leafValues></_>
        <_>
          <internalNodes>
            0 -1 52 1.8280154326930642e-03</internalNodes>
          <leafValues>
            -2.8209778666496277e-01 3.1598341464996338e-01</leafValues></_>
        <_>
          <internalNodes>
            0 -1 25 -3.1837890855967999e-04</internalNodes>
          <leafValues>
            2.9481175541877747e-01 -3.4450030326843262e-01</leafValues></_>
        <_>
          <internalNodes>
            0 -1 20 -7.0417240262031555e-02</internalNodes>
          <leafValues>
            -1. 7.0716306567192078e-02</leafValues></_>
        <_>
          <internalNodes>
            0 -1 97 -3.3967383205890656e-04</internalNodes>
          <leafValues>
            2.4623747169971466e-01 -3.4083396196365356e-01</leafValues></_>
        <_>
          <internalNodes>
            0 -1 70 -2.6213063392788172e-04</internalNodes>
          <leafValues>
            2.6602298021316528e-01 -3.2107037305831909e-01</leafValues></_>
        <_>
          <internalNodes>
            0 -1 110 2.1786354482173920e-03</internalNodes>
          <leafValues>
            1.3572940230369568e-01 -6.0803347826004028e-01</leafValues></_>
        <_>
          <internalNodes>
            0 -1 95 -2.5128510314971209e-03</internalNodes>
          <leafValues>
            4.8953732848167419e-01 -1.9558845460414886e-01</leafValues></_></weakClassifiers></_>
    <!-- stage 14 -->
    <_>
      <maxWeakCount>12</maxWeakCount>
      <stageThreshold>-1.7048009634017944e+00</stageThreshold>
      <weakClassifiers>
        <_>
          <internalNodes>
            0 -1 36 -7.8289180994033813e-02</internalNodes>
          <leafValues>
            5.0000000000000000e-01 -8.0727273225784302e-01</leafValues></_>
        <_>
          <internalNodes>
            0 -1 17 -1.2506040930747986e-01</internalNodes>
          <leafValues>
            3.9588391780853271e-01 -4.4580531120300293e-01</leafValues></_>
        <_>
          <internalNodes>
            0 -1 76 -7.5645716860890388e-03</internalNodes>
          <leafValues>
            -8.2464289665222168e-01 8.3885237574577332e-02</leafValues></_>
        <_>
          <internalNodes>
            0 -1 77 1.2732596695423126e-01</internalNodes>
          <leafValues>
            -8.9334815740585327e-02 7.2135007381439209e-01</leafValues></_>
        <_>
          <internalNodes>
            0 -1 37 -1.0914433747529984e-02</internalNodes>
          <leafValues>
            -6.0109645128250122e-01 1.6000169515609741e-01</leafValues></_>
        <_>
          <internalNodes>
            0 -1 91 -2.3293963749893010e-04</internalNodes>
          <leafValues>
            2.6254606246948242e-01 -3.2321059703826904e-01</leafValues></_>
        <_>
          <internalNodes>
            0 -1 125 8.5661697085015476e-05</internalNodes>
          <leafValues>
            2.2254295647144318e-01 -4.0181046724319458e-01</leafValues></_>
        <_>
          <internalNodes>
            0 -1 96 -1.3034887379035354e-03</internalNodes>
          <leafValues>
            5.3796041011810303e-01 -1.6039606928825378e-01</leafValues></_>
        <_>
          <internalNodes>
            0 -1 18 -1.1608850210905075e-02</internalNodes>
          <leafValues>
            4.5773410797119141e-01 -1.7993833124637604e-01</leafValues></_>
        <_>
          <internalNodes>
            0 -1 48 -9.5967911183834076e-03</internalNodes>
          <leafValues>
            4.7174596786499023e-01 -1.9361475110054016e-01</leafValues></_>
        <_>
          <internalNodes>
            0 -1 71 -1.6676353290677071e-02</internalNodes>
          <leafValues>
            -8.4789764881134033e-01 1.0410563647747040e-01</leafValues></_>
        <_>
          <internalNodes>
            0 -1 124 4.5334845781326294e-03</internalNodes>
          <leafValues>
            9.9577628076076508e-02 -8.0419832468032837e-01</leafValues></_></weakClassifiers></_></stages>
  <features>
    <_>
      <rects>
        <_>
          0 0 4 15 -1.</_>
        <_>
          2 0 2 15 2.</_></rects>
      <tilted>0</tilted></_>
    <_>
      <rects>
        <_>
          0 0 21 17 -1.</_>
        <_>
          7 0 7 17 3.</_></rects>
      <tilted>0</tilted></_>
    <_>
      <rects>
        <_>
          0 0 15 2 -1.</_>
        <_>
          0 1 15 1 2.</_></rects>
      <tilted>0</tilted></_>
    <_>
      <rects>
        <_>
          0 1 10 18 -1.</_>
        <_>
          5 1 5 18 2.</_></rects>
      <tilted>0</tilted></_>
    <_>
      <rects>
        <_>
          0 2 16 16 -1.</_>
        <_>
          0 2 8 8 2.</_>
        <_>
          8 10 8 8 2.</_></rects>
      <tilted>0</tilted></_>
    <_>
      <rects>
        <_>
          0 3 2 6 -1.</_>
        <_>
          1 3 1 6 2.</_></rects>
      <tilted>0</tilted></_>
    <_>
      <rects>
        <_>
          0 7 8 12 -1.</_>
        <_>
          4 7 4 12 2.</_></rects>
      <tilted>0</tilted></_>
    <_>
      <rects>
        <_>
          0 7 21 11 -1.</_>
        <_>
          7 7 7 11 3.</_></rects>
      <tilted>0</tilted></_>
    <_>
      <rects>
        <_>
          0 8 4 1 -1.</_>
        <_>
          2 8 2 1 2.</_></rects>
      <tilted>0</tilted></_>
    <_>
      <rects>
        <_>
          0 10 24 8 -1.</_>
        <_>
          8 10 8 8 3.</_></rects>
      <tilted>0</tilted></_>
    <_>
      <rects>
        <_>
          0 11 14 8 -1.</_>
        <_>
          0 15 14 4 2.</_></rects>
      <tilted>0</tilted></_>
    <_>
      <rects>
        <_>
          0 12 24 12 -1.</_>
        <_>
          8 12 8 12 3.</_></rects>
      <tilted>0</tilted></_>
    <_>
      <rects>
        <_>
          0 13 24 9 -1.</_>
        <_>
          8 13 8 9 3.</_></rects>
      <tilted>0</tilted></_>
    <_>
      <rects>
        <_>
          0 18 3 6 -1.</_>
        <_>
          0 20 3 2 3.</_></rects>
      <tilted>0</tilted></_>
    <_>
      <rects>
        <_>
          1 0 18 9 -1.</_>
        <_>
          7 0 6 9 3.</_></rects>
      <tilted>0</tilted></_>
    <_>
      <rects>
        <_>
          1 0 18 1 -1.</_>
        <_>
          10 0 9 1 2.</_></rects>
      <tilted>0</tilted></_>
    <_>
      <rects>
        <_>
          1 1 12 5 -1.</_>
        <_>
          5 1 4 5 3.</_></rects>
      <tilted>0</tilted></_>
    <_>
      <rects>
        <_>
          1 1 18 5 -1.</_>
        <_>
          7 1 6 5 3.</_></rects>
      <tilted>0</tilted></_>
    <_>
      <rects>
        <_>
          1 1 13 2 -1.</_>
        <_>
          1 2 13 1 2.</_></rects>
      <tilted>0</tilted></_>
    <_>
      <rects>
        <_>
          1 23 8 1 -1.</_>
        <_>
          5 23 4 1 2.</_></rects>
      <tilted>0</tilted></_>
    <_>
      <rects>
        <_>
          2 0 8 10 -1.</_>
        <_>
          2 5 8 5 2.</_></rects>
      <tilted>0</tilted></_>
    <_>
      <rects>
        <_>
          2 0 20 1 -1.</_>
        <_>
          12 0 10 1 2.</_></rects>
      <tilted>0</tilted></_>
    <_>
      <rects>
        <_>
          2 0 13 2 -1.</_>
        <_>
          2 1 13 1 2.</_></rects>
      <tilted>0</tilted></_>
    <_>
      <rects>
        <_>
          2 1 10 21 -1.</_>
        <_>
          2 8 10 7 3.</_></rects>
      <tilted>0</tilted></_>
    <_>
      <rects>
        <_>
          2 7 9 17 -1.</_>
        <_>
          5 7 3 17 3.</_></rects>
      <tilted>0</tilted></_>
    <_>
      <rects>
        <_>
          2 7 4 2 -1.</_>
        <_>
          2 8 4 1 2.</_></rects>
      <tilted>0</tilted></_>
    <_>
      <rects>
        <_>
          2 7 22 6 -1.</_>
        <_>
          2 7 11 3 2.</_>
        <_>
          13 10 11 3 2.</_></rects>
      <tilted>0</tilted></_>
    <_>
      <rects>
        <_>
          2 8 9 2 -1.</_>
        <_>
          5 8 3 2 3.</_></rects>
      <tilted>0</tilted></_>
    <_>
      <rects>
        <_>
          2 11 21 9 -1.</_>
        <_>
          9 11 7 9 3.</_></rects>
      <tilted>0</tilted></_>
    <_>
      <rects>
        <_>
          2 20 18 3 -1.</_>
        <_>
          2 21 18 1 3.</_></rects>
      <tilted>0</tilted></_>
    <_>
      <rects>
        <_>
          3 4 16 2 -1.</_>
        <_>
          3 4 8 1 2.</_>
        <_>
          11 5 8 1 2.</_></rects>
      <tilted>0</tilted></_>
    <_>
      <rects>
        <_>
          3 5 9 15 -1.</_>
        <_>
          6 5 3 15 3.</_></rects>
      <tilted>0</tilted></_>
    <_>
      <rects>
        <_>
          3 6 11 3 -1.</_>
        <_>
          3 7 11 1 3.</_></rects>
      <tilted>0</tilted></_>
    <_>
      <rects>
        <_>
          3 8 15 9 -1.</_>
        <_>
          8 8 5 9 3.</_></rects>
      <tilted>0</tilted></_>
    <_>
      <rects>
        <_>
          4 0 11 2 -1.</_>
        <_>
          4 1 11 1 2.</_></rects>
      <tilted>0</tilted></_>
    <_>
      <rects>
        <_>
          4 1 10 16 -1.</_>
        <_>
          4 1 5 8 2.</_>
        <_>
          9 9 5 8 2.</_></rects>
      <tilted>0</tilted></_>
    <_>
      <rects>
        <_>
          4 2 18 4 -1.</_>
        <_>
          13 2 9 4 2.</_></rects>
      <tilted>0</tilted></_>
    <_>
      <rects>
        <_>
          4 8 6 3 -1.</_>
        <_>
          6 8 2 3 3.</_></rects>
      <tilted>0</tilted></_>
    <_>
      <rects>
        <_>
          4 14 15 6 -1.</_>
        <_>
          4 17 15 3 2.</_></rects>
      <tilted>0</tilted></_>
    <_>
      <rects>
        <_>
          4 17 16 3 -1.</_>
        <_>
          12 17 8 3 2.</_></rects>
      <tilted>0</tilted></_>
    <_>
      <rects>
        <_>
          4 18 14 3 -1.</_>
        <_>
          4 19 14 1 3.</_></rects>
      <tilted>0</tilted></_>
    <_>
      <rects>
        <_>
          4 22 20 2 -1.</_>
        <_>
          4 23 20 1 2.</_></rects>
      <tilted>0</tilted></_>
    <_>
      <rects>
        <_>
          5 1 5 3 -1.</_>
        <_>
          5 2 5 1 3.</_></rects>
      <tilted>0</tilted></_>
    <_>
      <rects>
        <_>
          5 2 2 3 -1.</_>
        <_>
          5 3 2 1 3.</_></rects>
      <tilted>0</tilted></_>
    <_>
      <rects>
        <_>
          5 2 8 4 -1.</_>
        <_>
          5 2 4 2 2.</_>
        <_>
          9 4 4 2 2.</_></rects>
      <tilted>0</tilted></_>
    <_>
      <rects>
        <_>
          5 6 1 3 -1.</_>
        <_>
          5 7 1 1 3.</_></rects>
      <tilted>0</tilted></_>
    <_>
      <rects>
        <_>
          5 6 12 11 -1.</_>
        <_>
          9 6 4 11 3.</_></rects>
      <tilted>0</tilted></_>
    <_>
      <rects>
        <_>
          5 17 6 1 -1.</_>
        <_>
          7 17 2 1 3.</_></rects>
      <tilted>0</tilted></_>
    <_>
      <rects>
        <_>
          6 0 9 3 -1.</_>
        <_>
          6 1 9 1 3.</_></rects>
      <tilted>0</tilted></_>
    <_>
      <rects>
        <_>
          6 1 18 14 -1.</_>
        <_>
          15 1 9 14 2.</_></rects>
      <tilted>0</tilted></_>
    <_>
      <rects>
        <_>
          6 2 5 20 -1.</_>
        <_>
          6 12 5 10 2.</_></rects>
      <tilted>0</tilted></_>
    <_>
      <rects>
        <_>
          6 2 18 10 -1.</_>
        <_>
          15 2 9 10 2.</_></rects>
      <tilted>0</tilted></_>
    <_>
      <rects>
        <_>
          6 3 3 15 -1.</_>
        <_>
          6 8 3 5 3.</_></rects>
      <tilted>0</tilted></_>
    <_>
      <rects>
        <_>
          6 5 4 2 -1.</_>
        <_>
          6 5 2 1 2.</_>
        <_>
          8 6 2 1 2.</_></rects>
      <tilted>0</tilted></_>
    <_>
      <rects>
        <_>
          6 8 18 4 -1.</_>
        <_>
          15 8 9 4 2.</_></rects>
      <tilted>0</tilted></_>
    <_>
      <rects>
        <_>
          6 11 3 3 -1.</_>
        <_>
          6 12 3 1 3.</_></rects>
      <tilted>0</tilted></_>
    <_>
      <rects>
        <_>
          6 22 8 2 -1.</_>
        <_>
          6 23 8 1 2.</_></rects>
      <tilted>0</tilted></_>
    <_>
      <rects>
        <_>
          7 0 14 6 -1.</_>
        <_>
          7 3 14 3 2.</_></rects>
      <tilted>0</tilted></_>
    <_>
      <rects>
        <_>
          7 1 6 6 -1.</_>
        <_>
          9 1 2 6 3.</_></rects>
      <tilted>0</tilted></_>
    <_>
      <rects>
        <_>
          7 1 3 3 -1.</_>
        <_>
          7 2 3 1 3.</_></rects>
      <tilted>0</tilted></_>
    <_>
      <rects>
        <_>
          7 2 6 2 -1.</_>
        <_>
          7 2 3 1 2.</_>
        <_>
          10 3 3 1 2.</_></rects>
      <tilted>0</tilted></_>
    <_>
      <rects>
        <_>
          7 2 16 18 -1.</_>
        <_>
          15 2 8 18 2.</_></rects>
      <tilted>0</tilted></_>
    <_>
      <rects>
        <_>
          7 16 8 3 -1.</_>
        <_>
          7 17 8 1 3.</_></rects>
      <tilted>0</tilted></_>
    <_>
      <rects>
        <_>
          8 1 2 3 -1.</_>
        <_>
          8 2 2 1 3.</_></rects>
      <tilted>0</tilted></_>
    <_>
      <rects>
        <_>
          8 2 16 21 -1.</_>
        <_>
          16 2 8 21 2.</_></rects>
      <tilted>0</tilted></_>
    <_>
      <rects>
        <_>
          8 4 2 3 -1.</_>
        <_>
          8 5 2 1 3.</_></rects>
      <tilted>0</tilted></_>
    <_>
      <rects>
        <_>
          8 5 9 3 -1.</_>
        <_>
          11 5 3 3 3.</_></rects>
      <tilted>0</tilted></_>
    <_>
      <rects>
        <_>
          8 7 1 2 -1.</_>
        <_>
          8 8 1 1 2.</_></rects>
      <tilted>0</tilted></_>
    <_>
      <rects>
        <_>
          8 8 1 3 -1.</_>
        <_>
          8 9 1 1 3.</_></rects>
      <tilted>0</tilted></_>
    <_>
      <rects>
        <_>
          8 8 16 5 -1.</_>
        <_>
          16 8 8 5 2.</_></rects>
      <tilted>0</tilted></_>
    <_>
      <rects>
        <_>
          8 13 1 8 -1.</_>
        <_>
          8 17 1 4 2.</_></rects>
      <tilted>0</tilted></_>
    <_>
      <rects>
        <_>
          8 13 8 5 -1.</_>
        <_>
          12 13 4 5 2.</_></rects>
      <tilted>0</tilted></_>
    <_>
      <rects>
        <_>
          8 19 11 3 -1.</_>
        <_>
          8 20 11 1 3.</_></rects>
      <tilted>0</tilted></_>
    <_>
      <rects>
        <_>
          9 0 8 18 -1.</_>
        <_>
          9 9 8 9 2.</_></rects>
      <tilted>0</tilted></_>
    <_>
      <rects>
        <_>
          9 1 2 4 -1.</_>
        <_>
          10 1 1 4 2.</_></rects>
      <tilted>0</tilted></_>
    <_>
      <rects>
        <_>
          9 3 4 2 -1.</_>
        <_>
          9 3 2 1 2.</_>
        <_>
          11 4 2 1 2.</_></rects>
      <tilted>0</tilted></_>
    <_>
      <rects>
        <_>
          9 4 6 2 -1.</_>
        <_>
          11 4 2 2 3.</_></rects>
      <tilted>0</tilted></_>
    <_>
      <rects>
        <_>
          9 4 12 10 -1.</_>
        <_>
          9 9 12 5 2.</_></rects>
      <tilted>0</tilted></_>
    <_>
      <rects>
        <_>
          9 5 11 12 -1.</_>
        <_>
          9 11 11 6 2.</_></rects>
      <tilted>0</tilted></_>
    <_>
      <rects>
        <_>
          9 6 4 12 -1.</_>
        <_>
          9 10 4 4 3.</_></rects>
      <tilted>0</tilted></_>
    <_>
      <rects>
        <_>
          9 7 2 11 -1.</_>
        <_>
          10 7 1 11 2.</_></rects>
      <tilted>0</tilted></_>
    <_>
      <rects>
        <_>
          9 10 3 2 -1.</_>
        <_>
          9 11 3 1 2.</_></rects>
      <tilted>0</tilted></_>
    <_>
      <rects>
        <_>
          9 13 2 2 -1.</_>
        <_>
          9 13 1 1 2.</_>
        <_>
          10 14 1 1 2.</_></rects>
      <tilted>0</tilted></_>
    <_>
      <rects>
        <_>
          9 14 6 3 -1.</_>
        <_>
          9 15 6 1 3.</_></rects>
      <tilted>0</tilted></_>
    <_>
      <rects>
        <_>
          10 3 10 14 -1.</_>
        <_>
          10 3 5 7 2.</_>
        <_>
          15 10 5 7 2.</_></rects>
      <tilted>0</tilted></_>
    <_>
      <rects>
        <_>
          10 3 11 16 -1.</_>
        <_>
          10 11 11 8 2.</_></rects>
      <tilted>0</tilted></_>
    <_>
      <rects>
        <_>
          10 7 2 2 -1.</_>
        <_>
          10 7 1 1 2.</_>
        <_>
          11 8 1 1 2.</_></rects>
      <tilted>0</tilted></_>
    <_>
      <rects>
        <_>
          10 7 4 3 -1.</_>
        <_>
          10 8 4 1 3.</_></rects>
      <tilted>0</tilted></_>
    <_>
      <rects>
        <_>
          10 9 4 10 -1.</_>
        <_>
          10 9 2 5 2.</_>
        <_>
          12 14 2 5 2.</_></rects>
      <tilted>0</tilted></_>
    <_>
      <rects>
        <_>
          10 10 1 3 -1.</_>
        <_>
          10 11 1 1 3.</_></rects>
      <tilted>0</tilted></_>
    <_>
      <rects>
        <_>
          10 17 9 3 -1.</_>
        <_>
          10 18 9 1 3.</_></rects>
      <tilted>0</tilted></_>
    <_>
      <rects>
        <_>
          10 19 4 1 -1.</_>
        <_>
          12 19 2 1 2.</_></rects>
      <tilted>0</tilted></_>
    <_>
      <rects>
        <_>
          11 2 9 8 -1.</_>
        <_>
          14 2 3 8 3.</_></rects>
      <tilted>0</tilted></_>
    <_>
      <rects>
        <_>
          11 2 8 10 -1.</_>
        <_>
          15 2 4 10 2.</_></rects>
      <tilted>0</tilted></_>
    <_>
      <rects>
        <_>
          11 3 4 2 -1.</_>
        <_>
          13 3 2 2 2.</_></rects>
      <tilted>0</tilted></_>
    <_>
      <rects>
        <_>
          11 8 2 3 -1.</_>
        <_>
          11 9 2 1 3.</_></rects>
      <tilted>0</tilted></_>
    <_>
      <rects>
        <_>
          11 9 1 2 -1.</_>
        <_>
          11 10 1 1 2.</_></rects>
      <tilted>0</tilted></_>
    <_>
      <rects>
        <_>
          11 9 1 6 -1.</_>
        <_>
          11 11 1 2 3.</_></rects>
      <tilted>0</tilted></_>
    <_>
      <rects>
        <_>
          11 16 4 1 -1.</_>
        <_>
          13 16 2 1 2.</_></rects>
      <tilted>0</tilted></_>
    <_>
      <rects>
        <_>
          12 3 10 20 -1.</_>
        <_>
          12 13 10 10 2.</_></rects>
      <tilted>0</tilted></_>
    <_>
      <rects>
        <_>
          12 8 12 15 -1.</_>
        <_>
          18 8 6 15 2.</_></rects>
      <tilted>0</tilted></_>
    <_>
      <rects>
        <_>
          12 13 1 3 -1.</_>
        <_>
          12 14 1 1 3.</_></rects>
      <tilted>0</tilted></_>
    <_>
      <rects>
        <_>
          13 0 6 9 -1.</_>
        <_>
          16 0 3 9 2.</_></rects>
      <tilted>0</tilted></_>
    <_>
      <rects>
        <_>
          13 10 6 10 -1.</_>
        <_>
          15 10 2 10 3.</_></rects>
      <tilted>0</tilted></_>
    <_>
      <rects>
        <_>
          13 13 1 3 -1.</_>
        <_>
          13 14 1 1 3.</_></rects>
      <tilted>0</tilted></_>
    <_>
      <rects>
        <_>
          13 21 8 3 -1.</_>
        <_>
          13 22 8 1 3.</_></rects>
      <tilted>0</tilted></_>
    <_>
      <rects>
        <_>
          14 2 5 18 -1.</_>
        <_>
          14 11 5 9 2.</_></rects>
      <tilted>0</tilted></_>
    <_>
      <rects>
        <_>
          14 7 9 1 -1.</_>
        <_>
          17 7 3 1 3.</_></rects>
      <tilted>0</tilted></_>
    <_>
      <rects>
        <_>
          14 11 1 3 -1.</_>
        <_>
          14 12 1 1 3.</_></rects>
      <tilted>0</tilted></_>
    <_>
      <rects>
        <_>
          14 13 7 3 -1.</_>
        <_>
          14 14 7 1 3.</_></rects>
      <tilted>0</tilted></_>
    <_>
      <rects>
        <_>
          14 23 6 1 -1.</_>
        <_>
          16 23 2 1 3.</_></rects>
      <tilted>0</tilted></_>
    <_>
      <rects>
        <_>
          15 3 4 6 -1.</_>
        <_>
          15 3 2 3 2.</_>
        <_>
          17 6 2 3 2.</_></rects>
      <tilted>0</tilted></_>
    <_>
      <rects>
        <_>
          15 12 3 4 -1.</_>
        <_>
          16 12 1 4 3.</_></rects>
      <tilted>0</tilted></_>
    <_>
      <rects>
        <_>
          15 12 4 2 -1.</_>
        <_>
          15 13 4 1 2.</_></rects>
      <tilted>0</tilted></_>
    <_>
      <rects>
        <_>
          16 4 8 20 -1.</_>
        <_>
          20 4 4 20 2.</_></rects>
      <tilted>0</tilted></_>
    <_>
      <rects>
        <_>
          16 8 6 14 -1.</_>
        <_>
          18 8 2 14 3.</_></rects>
      <tilted>0</tilted></_>
    <_>
      <rects>
        <_>
          16 15 6 8 -1.</_>
        <_>
          16 19 6 4 2.</_></rects>
      <tilted>0</tilted></_>
    <_>
      <rects>
        <_>
          17 19 2 5 -1.</_>
        <_>
          18 19 1 5 2.</_></rects>
      <tilted>0</tilted></_>
    <_>
      <rects>
        <_>
          17 21 6 3 -1.</_>
        <_>
          17 22 6 1 3.</_></rects>
      <tilted>0</tilted></_>
    <_>
      <rects>
        <_>
          19 0 2 10 -1.</_>
        <_>
          20 0 1 10 2.</_></rects>
      <tilted>0</tilted></_>
    <_>
      <rects>
        <_>
          20 6 1 4 -1.</_>
        <_>
          20 8 1 2 2.</_></rects>
      <tilted>0</tilted></_>
    <_>
      <rects>
        <_>
          20 10 4 13 -1.</_>
        <_>
          22 10 2 13 2.</_></rects>
      <tilted>0</tilted></_>
    <_>
      <rects>
        <_>
          21 7 3 1 -1.</_>
        <_>
          22 7 1 1 3.</_></rects>
      <tilted>0</tilted></_>
    <_>
      <rects>
        <_>
          21 22 2 2 -1.</_>
        <_>
          21 23 2 1 2.</_></rects>
      <tilted>0</tilted></_>
    <_>
      <rects>
        <_>
          22 7 1 6 -1.</_>
        <_>
          22 9 1 2 3.</_></rects>
      <tilted>0</tilted></_>
    <_>
      <rects>
        <_>
          23 15 1 4 -1.</_>
        <_>
          23 17 1 2 2.</_></rects>
      <tilted>0</tilted></_></features></cascade>
</opencv_storage>
