<?xml version="1.0"?>
<opencv_storage>
<cascade>
  <stageType>BOOST</stageType>
  <featureType>HAAR</featureType>
  <height>36</height>
  <width>24</width>
  <stageParams>
    <boostType>GAB</boostType>
    <minHitRate>9.9500000476837158e-01</minHitRate>
    <maxFalseAlarm>5.0000000000000000e-01</maxFalseAlarm>
    <weightTrimRate>9.4999998807907104e-01</weightTrimRate>
    <maxDepth>1</maxDepth>
    <maxWeakCount>100</maxWeakCount></stageParams>
  <featureParams>
    <maxCatCount>0</maxCatCount>
    <featSize>1</featSize>
    <mode>BASIC</mode></featureParams>
  <stageNum>16</stageNum>
  <stages>
    <!-- stage 0 -->
    <_>
      <maxWeakCount>3</maxWeakCount>
      <stageThreshold>-1.6113307476043701e+00</stageThreshold>
      <weakClassifiers>
        <_>
          <internalNodes>
            0 -1 3 -2.1544674038887024e-01</internalNodes>
          <leafValues>
            1.2500000000000000e-01 -9.4360524415969849e-01</leafValues></_>
        <_>
          <internalNodes>
            0 -1 58 1.5681801363825798e-02</internalNodes>
          <leafValues>
            -9.5065718889236450e-01 1.5327499806880951e-01</leafValues></_>
        <_>
          <internalNodes>
            0 -1 14 -1.1422529350966215e-03</internalNodes>
          <leafValues>
            2.8293171525001526e-01 -9.5369738340377808e-01</leafValues></_></weakClassifiers></_>
    <!-- stage 1 -->
    <_>
      <maxWeakCount>4</maxWeakCount>
      <stageThreshold>-1.9335197210311890e+00</stageThreshold>
      <weakClassifiers>
        <_>
          <internalNodes>
            0 -1 67 -5.1703378558158875e-03</internalNodes>
          <leafValues>
            3.4693878889083862e-01 -9.2187500000000000e-01</leafValues></_>
        <_>
          <internalNodes>
            0 -1 66 1.2365747243165970e-03</internalNodes>
          <leafValues>
            -8.1031060218811035e-01 5.1754987239837646e-01</leafValues></_>
        <_>
          <internalNodes>
            0 -1 47 6.2967672944068909e-02</internalNodes>
          <leafValues>
            -8.0063903331756592e-01 4.2384329438209534e-01</leafValues></_>
        <_>
          <internalNodes>
            0 -1 24 -1.3397442176938057e-02</internalNodes>
          <leafValues>
            5.9930491447448730e-01 -6.6014331579208374e-01</leafValues></_></weakClassifiers></_>
    <!-- stage 2 -->
    <_>
      <maxWeakCount>4</maxWeakCount>
      <stageThreshold>-1.9181429147720337e+00</stageThreshold>
      <weakClassifiers>
        <_>
          <internalNodes>
            0 -1 74 -3.1054532155394554e-03</internalNodes>
          <leafValues>
            1.3725490868091583e-01 -9.1389429569244385e-01</leafValues></_>
        <_>
          <internalNodes>
            0 -1 75 5.5823951959609985e-02</internalNodes>
          <leafValues>
            -8.2065260410308838e-01 2.0102730393409729e-01</leafValues></_>
        <_>
          <internalNodes>
            0 -1 54 -9.2623871751129627e-04</internalNodes>
          <leafValues>
            5.1440483331680298e-01 -6.6053998470306396e-01</leafValues></_>
        <_>
          <internalNodes>
            0 -1 8 -2.0785883069038391e-02</internalNodes>
          <leafValues>
            5.9294080734252930e-01 -5.4473596811294556e-01</leafValues></_></weakClassifiers></_>
    <!-- stage 3 -->
    <_>
      <maxWeakCount>6</maxWeakCount>
      <stageThreshold>-1.7240613698959351e+00</stageThreshold>
      <weakClassifiers>
        <_>
          <internalNodes>
            0 -1 62 3.0029250774532557e-03</internalNodes>
          <leafValues>
            -8.9866155385971069e-01 4.8148149251937866e-01</leafValues></_>
        <_>
          <internalNodes>
            0 -1 71 -3.9497455582022667e-03</internalNodes>
          <leafValues>
            5.9469056129455566e-01 -7.3292487859725952e-01</leafValues></_>
        <_>
          <internalNodes>
            0 -1 2 -3.5283282399177551e-02</internalNodes>
          <leafValues>
            5.4166668653488159e-01 -5.8767998218536377e-01</leafValues></_>
        <_>
          <internalNodes>
            0 -1 20 4.4102179817855358e-03</internalNodes>
          <leafValues>
            -4.4294169545173645e-01 8.0075889825820923e-01</leafValues></_>
        <_>
          <internalNodes>
            0 -1 53 3.0869845300912857e-02</internalNodes>
          <leafValues>
            -9.1257238388061523e-01 4.0318575501441956e-01</leafValues></_>
        <_>
          <internalNodes>
            0 -1 21 -2.8542388230562210e-02</internalNodes>
          <leafValues>
            5.7043820619583130e-01 -5.9438568353652954e-01</leafValues></_></weakClassifiers></_>
    <!-- stage 4 -->
    <_>
      <maxWeakCount>3</maxWeakCount>
      <stageThreshold>-1.3986246585845947e+00</stageThreshold>
      <weakClassifiers>
        <_>
          <internalNodes>
            0 -1 43 8.1230895593762398e-03</internalNodes>
          <leafValues>
            -9.0811342000961304e-01 3.9999999105930328e-02</leafValues></_>
        <_>
          <internalNodes>
            0 -1 61 -1.3461839407682419e-03</internalNodes>
          <leafValues>
            5.0222772359848022e-01 -6.9390541315078735e-01</leafValues></_>
        <_>
          <internalNodes>
            0 -1 1 -1.5339681878685951e-02</internalNodes>
          <leafValues>
            3.3879879117012024e-01 -7.4471926689147949e-01</leafValues></_></weakClassifiers></_>
    <!-- stage 5 -->
    <_>
      <maxWeakCount>5</maxWeakCount>
      <stageThreshold>-1.8601120710372925e+00</stageThreshold>
      <weakClassifiers>
        <_>
          <internalNodes>
            0 -1 25 1.1698639020323753e-02</internalNodes>
          <leafValues>
            -8.9493793249130249e-01 3.8461539149284363e-01</leafValues></_>
        <_>
          <internalNodes>
            0 -1 65 -5.5384840816259384e-03</internalNodes>
          <leafValues>
            6.5100467205047607e-01 -6.5242201089859009e-01</leafValues></_>
        <_>
          <internalNodes>
            0 -1 51 4.9101893091574311e-04</internalNodes>
          <leafValues>
            -4.8644056916236877e-01 5.7825845479965210e-01</leafValues></_>
        <_>
          <internalNodes>
            0 -1 41 -2.8564590960741043e-02</internalNodes>
          <leafValues>
            7.1075713634490967e-01 -4.0246713161468506e-01</leafValues></_>
        <_>
          <internalNodes>
            0 -1 69 -3.7647158023901284e-04</internalNodes>
          <leafValues>
            5.7615554332733154e-01 -4.1880607604980469e-01</leafValues></_></weakClassifiers></_>
    <!-- stage 6 -->
    <_>
      <maxWeakCount>4</maxWeakCount>
      <stageThreshold>-1.5796227455139160e+00</stageThreshold>
      <weakClassifiers>
        <_>
          <internalNodes>
            0 -1 26 1.4812624081969261e-02</internalNodes>
          <leafValues>
            -8.9503818750381470e-01 4.3999999761581421e-01</leafValues></_>
        <_>
          <internalNodes>
            0 -1 67 -5.1318015903234482e-03</internalNodes>
          <leafValues>
            3.8875955343246460e-01 -7.0688623189926147e-01</leafValues></_>
        <_>
          <internalNodes>
            0 -1 76 7.4038036167621613e-02</internalNodes>
          <leafValues>
            -5.8590149879455566e-01 4.9095106124877930e-01</leafValues></_>
        <_>
          <internalNodes>
            0 -1 52 2.9093308839946985e-03</internalNodes>
          <leafValues>
            -3.8891649246215820e-01 6.0820311307907104e-01</leafValues></_></weakClassifiers></_>
    <!-- stage 7 -->
    <_>
      <maxWeakCount>6</maxWeakCount>
      <stageThreshold>-1.9806636571884155e+00</stageThreshold>
      <weakClassifiers>
        <_>
          <internalNodes>
            0 -1 18 1.9734691828489304e-02</internalNodes>
          <leafValues>
            -8.8636362552642822e-01 5.2941179275512695e-01</leafValues></_>
        <_>
          <internalNodes>
            0 -1 4 -1.3430133461952209e-01</internalNodes>
          <leafValues>
            3.0226707458496094e-01 -6.4531850814819336e-01</leafValues></_>
        <_>
          <internalNodes>
            0 -1 30 -3.3897988032549620e-04</internalNodes>
          <leafValues>
            3.0647695064544678e-01 -6.1412769556045532e-01</leafValues></_>
        <_>
          <internalNodes>
            0 -1 40 -6.4751511672511697e-04</internalNodes>
          <leafValues>
            -8.6239844560623169e-01 2.1202896535396576e-01</leafValues></_>
        <_>
          <internalNodes>
            0 -1 72 4.3895837734453380e-04</internalNodes>
          <leafValues>
            -3.8707348704338074e-01 5.1369386911392212e-01</leafValues></_>
        <_>
          <internalNodes>
            0 -1 64 -1.0685527231544256e-03</internalNodes>
          <leafValues>
            4.7341996431350708e-01 -4.0675380825996399e-01</leafValues></_></weakClassifiers></_>
    <!-- stage 8 -->
    <_>
      <maxWeakCount>5</maxWeakCount>
      <stageThreshold>-1.4525508880615234e+00</stageThreshold>
      <weakClassifiers>
        <_>
          <internalNodes>
            0 -1 68 -7.0960626006126404e-02</internalNodes>
          <leafValues>
            2.1428571641445160e-01 -8.9282298088073730e-01</leafValues></_>
        <_>
          <internalNodes>
            0 -1 32 -1.0701991617679596e-02</internalNodes>
          <leafValues>
            4.4135260581970215e-01 -6.2823802232742310e-01</leafValues></_>
        <_>
          <internalNodes>
            0 -1 22 1.3730252161622047e-02</internalNodes>
          <leafValues>
            -4.6072962880134583e-01 3.8299489021301270e-01</leafValues></_>
        <_>
          <internalNodes>
            0 -1 15 -2.5231535546481609e-03</internalNodes>
          <leafValues>
            4.0882828831672668e-01 -4.8196554183959961e-01</leafValues></_>
        <_>
          <internalNodes>
            0 -1 49 1.2358518317341805e-02</internalNodes>
          <leafValues>
            1.6748072206974030e-01 -1.</leafValues></_></weakClassifiers></_>
    <!-- stage 9 -->
    <_>
      <maxWeakCount>5</maxWeakCount>
      <stageThreshold>-1.9481530189514160e+00</stageThreshold>
      <weakClassifiers>
        <_>
          <internalNodes>
            0 -1 28 -6.7791149020195007e-02</internalNodes>
          <leafValues>
            -2.1276595070958138e-02 -9.0253412723541260e-01</leafValues></_>
        <_>
          <internalNodes>
            0 -1 46 1.3494727015495300e-01</internalNodes>
          <leafValues>
            -7.7965635061264038e-01 -1.0738584399223328e-01</leafValues></_>
        <_>
          <internalNodes>
            0 -1 59 -7.1905707009136677e-03</internalNodes>
          <leafValues>
            -6.9586461782455444e-01 1.7257915437221527e-01</leafValues></_>
        <_>
          <internalNodes>
            0 -1 37 -1.7502292394055985e-05</internalNodes>
          <leafValues>
            2.4970521032810211e-01 -6.4032799005508423e-01</leafValues></_>
        <_>
          <internalNodes>
            0 -1 42 -1.4135062694549561e-02</internalNodes>
          <leafValues>
            -9.4808363914489746e-01 2.0178629457950592e-01</leafValues></_></weakClassifiers></_>
    <!-- stage 10 -->
    <_>
      <maxWeakCount>6</maxWeakCount>
      <stageThreshold>-2.0012428760528564e+00</stageThreshold>
      <weakClassifiers>
        <_>
          <internalNodes>
            0 -1 34 -1.4666296541690826e-01</internalNodes>
          <leafValues>
            -1.2500000000000000e-01 -8.9853656291961670e-01</leafValues></_>
        <_>
          <internalNodes>
            0 -1 5 -1.2931016087532043e-01</internalNodes>
          <leafValues>
            2.6177255436778069e-02 -6.8453615903854370e-01</leafValues></_>
        <_>
          <internalNodes>
            0 -1 50 -2.0311523694545031e-03</internalNodes>
          <leafValues>
            2.9115143418312073e-01 -4.8585402965545654e-01</leafValues></_>
        <_>
          <internalNodes>
            0 -1 80 5.7135452516376972e-04</internalNodes>
          <leafValues>
            -7.5988519191741943e-01 2.2631940245628357e-01</leafValues></_>
        <_>
          <internalNodes>
            0 -1 23 -3.4003687324002385e-04</internalNodes>
          <leafValues>
            4.2342782020568848e-01 -3.8776662945747375e-01</leafValues></_>
        <_>
          <internalNodes>
            0 -1 81 1.4573312364518642e-04</internalNodes>
          <leafValues>
            2.2913108766078949e-01 -7.5396627187728882e-01</leafValues></_></weakClassifiers></_>
    <!-- stage 11 -->
    <_>
      <maxWeakCount>5</maxWeakCount>
      <stageThreshold>-1.6610091924667358e+00</stageThreshold>
      <weakClassifiers>
        <_>
          <internalNodes>
            0 -1 63 -8.4879053756594658e-03</internalNodes>
          <leafValues>
            4.2857143282890320e-01 -8.8101983070373535e-01</leafValues></_>
        <_>
          <internalNodes>
            0 -1 33 -1.5142666175961494e-02</internalNodes>
          <leafValues>
            6.9575570523738861e-02 -6.7962163686752319e-01</leafValues></_>
        <_>
          <internalNodes>
            0 -1 29 -3.9926879107952118e-03</internalNodes>
          <leafValues>
            -9.5431417226791382e-01 9.0065591037273407e-02</leafValues></_>
        <_>
          <internalNodes>
            0 -1 73 5.3538051433861256e-03</internalNodes>
          <leafValues>
            1.6488656401634216e-01 -8.8014799356460571e-01</leafValues></_>
        <_>
          <internalNodes>
            0 -1 56 2.8854128904640675e-03</internalNodes>
          <leafValues>
            -3.2469406723976135e-01 5.1118874549865723e-01</leafValues></_></weakClassifiers></_>
    <!-- stage 12 -->
    <_>
      <maxWeakCount>6</maxWeakCount>
      <stageThreshold>-1.7650905847549438e+00</stageThreshold>
      <weakClassifiers>
        <_>
          <internalNodes>
            0 -1 6 2.6705970987677574e-02</internalNodes>
          <leafValues>
            -8.8257575035095215e-01 2.9411765933036804e-01</leafValues></_>
        <_>
          <internalNodes>
            0 -1 33 -1.5090687200427055e-02</internalNodes>
          <leafValues>
            5.3655210882425308e-02 -6.7592018842697144e-01</leafValues></_>
        <_>
          <internalNodes>
            0 -1 55 -6.0857962816953659e-03</internalNodes>
          <leafValues>
            2.6197686791419983e-01 -5.0899422168731689e-01</leafValues></_>
        <_>
          <internalNodes>
            0 -1 45 -1.8111004465026781e-05</internalNodes>
          <leafValues>
            3.4570419788360596e-01 -4.5665937662124634e-01</leafValues></_>
        <_>
          <internalNodes>
            0 -1 36 -2.6740966859506443e-05</internalNodes>
          <leafValues>
            2.8352412581443787e-01 -5.4037392139434814e-01</leafValues></_>
        <_>
          <internalNodes>
            0 -1 19 -6.5672155469655991e-03</internalNodes>
          <leafValues>
            6.2253290414810181e-01 -2.7390176057815552e-01</leafValues></_></weakClassifiers></_>
    <!-- stage 13 -->
    <_>
      <maxWeakCount>7</maxWeakCount>
      <stageThreshold>-1.8639060258865356e+00</stageThreshold>
      <weakClassifiers>
        <_>
          <internalNodes>
            0 -1 17 -1.1841928586363792e-02</internalNodes>
          <leafValues>
            1. -8.7441426515579224e-01</leafValues></_>
        <_>
          <internalNodes>
            0 -1 27 -2.1606972441077232e-02</internalNodes>
          <leafValues>
            3.6647994071245193e-02 -6.7876750230789185e-01</leafValues></_>
        <_>
          <internalNodes>
            0 -1 38 -1.3708503684028983e-03</internalNodes>
          <leafValues>
            3.8346591591835022e-01 -4.3939384818077087e-01</leafValues></_>
        <_>
          <internalNodes>
            0 -1 39 -3.3425460569560528e-03</internalNodes>
          <leafValues>
            4.9696534872055054e-01 -3.1799092888832092e-01</leafValues></_>
        <_>
          <internalNodes>
            0 -1 35 9.0713531244546175e-04</internalNodes>
          <leafValues>
            -7.0365697145462036e-01 2.1675977110862732e-01</leafValues></_>
        <_>
          <internalNodes>
            0 -1 60 8.9146215468645096e-03</internalNodes>
          <leafValues>
            -7.6864206790924072e-01 2.2216580808162689e-01</leafValues></_>
        <_>
          <internalNodes>
            0 -1 78 1.3292382936924696e-03</internalNodes>
          <leafValues>
            2.6413691043853760e-01 -6.0222011804580688e-01</leafValues></_></weakClassifiers></_>
    <!-- stage 14 -->
    <_>
      <maxWeakCount>8</maxWeakCount>
      <stageThreshold>-1.9551298618316650e+00</stageThreshold>
      <weakClassifiers>
        <_>
          <internalNodes>
            0 -1 9 -7.8069251030683517e-03</internalNodes>
          <leafValues>
            5.0000000000000000e-01 -8.7935906648635864e-01</leafValues></_>
        <_>
          <internalNodes>
            0 -1 7 -1.4811179600656033e-02</internalNodes>
          <leafValues>
            3.6276325583457947e-01 -5.6249243021011353e-01</leafValues></_>
        <_>
          <internalNodes>
            0 -1 10 -1.0483764857053757e-01</internalNodes>
          <leafValues>
            2.9479628801345825e-01 -5.1242864131927490e-01</leafValues></_>
        <_>
          <internalNodes>
            0 -1 31 2.6649899780750275e-02</internalNodes>
          <leafValues>
            1.3848051428794861e-01 -1.</leafValues></_>
        <_>
          <internalNodes>
            0 -1 12 -1.2695523910224438e-03</internalNodes>
          <leafValues>
            -5.5857968330383301e-01 2.8366139531135559e-01</leafValues></_>
        <_>
          <internalNodes>
            0 -1 70 1.0467411484569311e-03</internalNodes>
          <leafValues>
            -3.7942600250244141e-01 3.9919683337211609e-01</leafValues></_>
        <_>
          <internalNodes>
            0 -1 16 -7.0232590660452843e-03</internalNodes>
          <leafValues>
            6.0151410102844238e-01 -2.9191660881042480e-01</leafValues></_>
        <_>
          <internalNodes>
            0 -1 11 -3.8622890133410692e-04</internalNodes>
          <leafValues>
            -6.5755361318588257e-01 2.4835094809532166e-01</leafValues></_></weakClassifiers></_>
    <!-- stage 15 -->
    <_>
      <maxWeakCount>7</maxWeakCount>
      <stageThreshold>-1.7333862781524658e+00</stageThreshold>
      <weakClassifiers>
        <_>
          <internalNodes>
            0 -1 57 8.4674749523401260e-03</internalNodes>
          <leafValues>
            -8.8124412298202515e-01 6.6666668653488159e-01</leafValues></_>
        <_>
          <internalNodes>
            0 -1 44 -3.2806580420583487e-03</internalNodes>
          <leafValues>
            1.3822138309478760e-01 -6.2969690561294556e-01</leafValues></_>
        <_>
          <internalNodes>
            0 -1 79 -7.9725973773747683e-04</internalNodes>
          <leafValues>
            2.5822523236274719e-01 -4.6760708093643188e-01</leafValues></_>
        <_>
          <internalNodes>
            0 -1 77 -3.3250683918595314e-03</internalNodes>
          <leafValues>
            2.8697034716606140e-01 -4.8568227887153625e-01</leafValues></_>
        <_>
          <internalNodes>
            0 -1 48 5.2883122116327286e-03</internalNodes>
          <leafValues>
            -4.5176324248313904e-01 3.6523038148880005e-01</leafValues></_>
        <_>
          <internalNodes>
            0 -1 13 1.9735824025701731e-05</internalNodes>
          <leafValues>
            2.8660342097282410e-01 -5.6053143739700317e-01</leafValues></_>
        <_>
          <internalNodes>
            0 -1 0 -1.7842077650129795e-03</internalNodes>
          <leafValues>
            2.4823564291000366e-01 -5.7233989238739014e-01</leafValues></_></weakClassifiers></_></stages>
  <features>
    <_>
      <rects>
        <_>
          0 0 10 2 -1.</_>
        <_>
          0 1 10 1 2.</_></rects>
      <tilted>0</tilted></_>
    <_>
      <rects>
        <_>
          0 1 6 13 -1.</_>
        <_>
          3 1 3 13 2.</_></rects>
      <tilted>0</tilted></_>
    <_>
      <rects>
        <_>
          0 3 6 22 -1.</_>
        <_>
          3 3 3 22 2.</_></rects>
      <tilted>0</tilted></_>
    <_>
      <rects>
        <_>
          0 5 24 14 -1.</_>
        <_>
          8 5 8 14 3.</_></rects>
      <tilted>0</tilted></_>
    <_>
      <rects>
        <_>
          0 7 10 18 -1.</_>
        <_>
          5 7 5 18 2.</_></rects>
      <tilted>0</tilted></_>
    <_>
      <rects>
        <_>
          0 10 24 8 -1.</_>
        <_>
          8 10 8 8 3.</_></rects>
      <tilted>0</tilted></_>
    <_>
      <rects>
        <_>
          0 15 17 3 -1.</_>
        <_>
          0 16 17 1 3.</_></rects>
      <tilted>0</tilted></_>
    <_>
      <rects>
        <_>
          1 0 14 2 -1.</_>
        <_>
          1 1 14 1 2.</_></rects>
      <tilted>0</tilted></_>
    <_>
      <rects>
        <_>
          1 1 19 4 -1.</_>
        <_>
          1 3 19 2 2.</_></rects>
      <tilted>0</tilted></_>
    <_>
      <rects>
        <_>
          1 3 6 2 -1.</_>
        <_>
          1 3 3 1 2.</_>
        <_>
          4 4 3 1 2.</_></rects>
      <tilted>0</tilted></_>
    <_>
      <rects>
        <_>
          1 12 21 18 -1.</_>
        <_>
          8 12 7 18 3.</_></rects>
      <tilted>0</tilted></_>
    <_>
      <rects>
        <_>
          1 21 2 4 -1.</_>
        <_>
          1 23 2 2 2.</_></rects>
      <tilted>0</tilted></_>
    <_>
      <rects>
        <_>
          2 0 8 5 -1.</_>
        <_>
          6 0 4 5 2.</_></rects>
      <tilted>0</tilted></_>
    <_>
      <rects>
        <_>
          2 24 3 3 -1.</_>
        <_>
          2 25 3 1 3.</_></rects>
      <tilted>0</tilted></_>
    <_>
      <rects>
        <_>
          3 0 11 2 -1.</_>
        <_>
          3 1 11 1 2.</_></rects>
      <tilted>0</tilted></_>
    <_>
      <rects>
        <_>
          4 2 2 20 -1.</_>
        <_>
          4 2 1 10 2.</_>
        <_>
          5 12 1 10 2.</_></rects>
      <tilted>0</tilted></_>
    <_>
      <rects>
        <_>
          5 2 9 4 -1.</_>
        <_>
          8 2 3 4 3.</_></rects>
      <tilted>0</tilted></_>
    <_>
      <rects>
        <_>
          5 15 2 4 -1.</_>
        <_>
          5 17 2 2 2.</_></rects>
      <tilted>0</tilted></_>
    <_>
      <rects>
        <_>
          5 15 13 3 -1.</_>
        <_>
          5 16 13 1 3.</_></rects>
      <tilted>0</tilted></_>
    <_>
      <rects>
        <_>
          5 27 18 2 -1.</_>
        <_>
          5 28 18 1 2.</_></rects>
      <tilted>0</tilted></_>
    <_>
      <rects>
        <_>
          5 29 10 3 -1.</_>
        <_>
          5 30 10 1 3.</_></rects>
      <tilted>0</tilted></_>
    <_>
      <rects>
        <_>
          6 0 15 6 -1.</_>
        <_>
          6 3 15 3 2.</_></rects>
      <tilted>0</tilted></_>
    <_>
      <rects>
        <_>
          6 2 9 10 -1.</_>
        <_>
          6 7 9 5 2.</_></rects>
      <tilted>0</tilted></_>
    <_>
      <rects>
        <_>
          6 6 1 3 -1.</_>
        <_>
          6 7 1 1 3.</_></rects>
      <tilted>0</tilted></_>
    <_>
      <rects>
        <_>
          6 6 6 25 -1.</_>
        <_>
          8 6 2 25 3.</_></rects>
      <tilted>0</tilted></_>
    <_>
      <rects>
        <_>
          6 18 10 2 -1.</_>
        <_>
          6 19 10 1 2.</_></rects>
      <tilted>0</tilted></_>
    <_>
      <rects>
        <_>
          6 23 11 3 -1.</_>
        <_>
          6 24 11 1 3.</_></rects>
      <tilted>0</tilted></_>
    <_>
      <rects>
        <_>
          7 0 6 6 -1.</_>
        <_>
          7 3 6 3 2.</_></rects>
      <tilted>0</tilted></_>
    <_>
      <rects>
        <_>
          7 0 11 6 -1.</_>
        <_>
          7 3 11 3 2.</_></rects>
      <tilted>0</tilted></_>
    <_>
      <rects>
        <_>
          7 2 6 3 -1.</_>
        <_>
          9 2 2 3 3.</_></rects>
      <tilted>0</tilted></_>
    <_>
      <rects>
        <_>
          7 4 1 4 -1.</_>
        <_>
          7 6 1 2 2.</_></rects>
      <tilted>0</tilted></_>
    <_>
      <rects>
        <_>
          7 12 12 14 -1.</_>
        <_>
          7 12 6 7 2.</_>
        <_>
          13 19 6 7 2.</_></rects>
      <tilted>0</tilted></_>
    <_>
      <rects>
        <_>
          7 24 12 3 -1.</_>
        <_>
          7 25 12 1 3.</_></rects>
      <tilted>0</tilted></_>
    <_>
      <rects>
        <_>
          8 0 6 4 -1.</_>
        <_>
          8 2 6 2 2.</_></rects>
      <tilted>0</tilted></_>
    <_>
      <rects>
        <_>
          8 1 13 15 -1.</_>
        <_>
          8 6 13 5 3.</_></rects>
      <tilted>0</tilted></_>
    <_>
      <rects>
        <_>
          8 2 5 18 -1.</_>
        <_>
          8 11 5 9 2.</_></rects>
      <tilted>0</tilted></_>
    <_>
      <rects>
        <_>
          8 3 2 5 -1.</_>
        <_>
          9 3 1 5 2.</_></rects>
      <tilted>0</tilted></_>
    <_>
      <rects>
        <_>
          8 5 4 1 -1.</_>
        <_>
          10 5 2 1 2.</_></rects>
      <tilted>0</tilted></_>
    <_>
      <rects>
        <_>
          8 11 7 3 -1.</_>
        <_>
          8 12 7 1 3.</_></rects>
      <tilted>0</tilted></_>
    <_>
      <rects>
        <_>
          8 16 2 12 -1.</_>
        <_>
          8 16 1 6 2.</_>
        <_>
          9 22 1 6 2.</_></rects>
      <tilted>0</tilted></_>
    <_>
      <rects>
        <_>
          8 25 8 5 -1.</_>
        <_>
          12 25 4 5 2.</_></rects>
      <tilted>0</tilted></_>
    <_>
      <rects>
        <_>
          9 1 13 4 -1.</_>
        <_>
          9 3 13 2 2.</_></rects>
      <tilted>0</tilted></_>
    <_>
      <rects>
        <_>
          9 13 10 13 -1.</_>
        <_>
          14 13 5 13 2.</_></rects>
      <tilted>0</tilted></_>
    <_>
      <rects>
        <_>
          9 18 7 3 -1.</_>
        <_>
          9 19 7 1 3.</_></rects>
      <tilted>0</tilted></_>
    <_>
      <rects>
        <_>
          9 25 10 2 -1.</_>
        <_>
          9 25 5 1 2.</_>
        <_>
          14 26 5 1 2.</_></rects>
      <tilted>0</tilted></_>
    <_>
      <rects>
        <_>
          9 31 1 2 -1.</_>
        <_>
          9 32 1 1 2.</_></rects>
      <tilted>0</tilted></_>
    <_>
      <rects>
        <_>
          10 1 14 34 -1.</_>
        <_>
          17 1 7 34 2.</_></rects>
      <tilted>0</tilted></_>
    <_>
      <rects>
        <_>
          10 5 14 17 -1.</_>
        <_>
          17 5 7 17 2.</_></rects>
      <tilted>0</tilted></_>
    <_>
      <rects>
        <_>
          10 6 4 9 -1.</_>
        <_>
          10 9 4 3 3.</_></rects>
      <tilted>0</tilted></_>
    <_>
      <rects>
        <_>
          10 6 8 12 -1.</_>
        <_>
          10 6 4 6 2.</_>
        <_>
          14 12 4 6 2.</_></rects>
      <tilted>0</tilted></_>
    <_>
      <rects>
        <_>
          10 9 6 3 -1.</_>
        <_>
          10 10 6 1 3.</_></rects>
      <tilted>0</tilted></_>
    <_>
      <rects>
        <_>
          10 10 1 2 -1.</_>
        <_>
          10 11 1 1 2.</_></rects>
      <tilted>0</tilted></_>
    <_>
      <rects>
        <_>
          10 14 5 3 -1.</_>
        <_>
          10 15 5 1 3.</_></rects>
      <tilted>0</tilted></_>
    <_>
      <rects>
        <_>
          11 1 12 19 -1.</_>
        <_>
          17 1 6 19 2.</_></rects>
      <tilted>0</tilted></_>
    <_>
      <rects>
        <_>
          11 5 3 3 -1.</_>
        <_>
          11 6 3 1 3.</_></rects>
      <tilted>0</tilted></_>
    <_>
      <rects>
        <_>
          11 7 12 3 -1.</_>
        <_>
          15 7 4 3 3.</_></rects>
      <tilted>0</tilted></_>
    <_>
      <rects>
        <_>
          11 19 8 2 -1.</_>
        <_>
          11 19 4 1 2.</_>
        <_>
          15 20 4 1 2.</_></rects>
      <tilted>0</tilted></_>
    <_>
      <rects>
        <_>
          11 21 4 2 -1.</_>
        <_>
          11 22 4 1 2.</_></rects>
      <tilted>0</tilted></_>
    <_>
      <rects>
        <_>
          12 3 12 5 -1.</_>
        <_>
          18 3 6 5 2.</_></rects>
      <tilted>0</tilted></_>
    <_>
      <rects>
        <_>
          12 4 9 21 -1.</_>
        <_>
          12 11 9 7 3.</_></rects>
      <tilted>0</tilted></_>
    <_>
      <rects>
        <_>
          12 5 12 3 -1.</_>
        <_>
          18 5 6 3 2.</_></rects>
      <tilted>0</tilted></_>
    <_>
      <rects>
        <_>
          12 9 1 3 -1.</_>
        <_>
          12 10 1 1 3.</_></rects>
      <tilted>0</tilted></_>
    <_>
      <rects>
        <_>
          12 14 1 3 -1.</_>
        <_>
          12 15 1 1 3.</_></rects>
      <tilted>0</tilted></_>
    <_>
      <rects>
        <_>
          12 14 3 3 -1.</_>
        <_>
          12 15 3 1 3.</_></rects>
      <tilted>0</tilted></_>
    <_>
      <rects>
        <_>
          12 15 2 3 -1.</_>
        <_>
          12 16 2 1 3.</_></rects>
      <tilted>0</tilted></_>
    <_>
      <rects>
        <_>
          12 15 5 3 -1.</_>
        <_>
          12 16 5 1 3.</_></rects>
      <tilted>0</tilted></_>
    <_>
      <rects>
        <_>
          12 23 2 3 -1.</_>
        <_>
          12 24 2 1 3.</_></rects>
      <tilted>0</tilted></_>
    <_>
      <rects>
        <_>
          12 23 5 3 -1.</_>
        <_>
          12 24 5 1 3.</_></rects>
      <tilted>0</tilted></_>
    <_>
      <rects>
        <_>
          13 1 8 8 -1.</_>
        <_>
          13 5 8 4 2.</_></rects>
      <tilted>0</tilted></_>
    <_>
      <rects>
        <_>
          13 13 1 3 -1.</_>
        <_>
          13 14 1 1 3.</_></rects>
      <tilted>0</tilted></_>
    <_>
      <rects>
        <_>
          13 17 8 2 -1.</_>
        <_>
          13 17 4 1 2.</_>
        <_>
          17 18 4 1 2.</_></rects>
      <tilted>0</tilted></_>
    <_>
      <rects>
        <_>
          13 19 5 3 -1.</_>
        <_>
          13 20 5 1 3.</_></rects>
      <tilted>0</tilted></_>
    <_>
      <rects>
        <_>
          13 29 1 2 -1.</_>
        <_>
          13 30 1 1 2.</_></rects>
      <tilted>0</tilted></_>
    <_>
      <rects>
        <_>
          14 9 4 26 -1.</_>
        <_>
          14 9 2 13 2.</_>
        <_>
          16 22 2 13 2.</_></rects>
      <tilted>0</tilted></_>
    <_>
      <rects>
        <_>
          15 27 2 3 -1.</_>
        <_>
          15 28 2 1 3.</_></rects>
      <tilted>0</tilted></_>
    <_>
      <rects>
        <_>
          16 2 8 23 -1.</_>
        <_>
          20 2 4 23 2.</_></rects>
      <tilted>0</tilted></_>
    <_>
      <rects>
        <_>
          16 3 8 33 -1.</_>
        <_>
          20 3 4 33 2.</_></rects>
      <tilted>0</tilted></_>
    <_>
      <rects>
        <_>
          17 26 7 8 -1.</_>
        <_>
          17 30 7 4 2.</_></rects>
      <tilted>0</tilted></_>
    <_>
      <rects>
        <_>
          18 1 2 7 -1.</_>
        <_>
          19 1 1 7 2.</_></rects>
      <tilted>0</tilted></_>
    <_>
      <rects>
        <_>
          19 13 2 14 -1.</_>
        <_>
          19 13 1 7 2.</_>
        <_>
          20 20 1 7 2.</_></rects>
      <tilted>0</tilted></_>
    <_>
      <rects>
        <_>
          20 3 2 27 -1.</_>
        <_>
          21 3 1 27 2.</_></rects>
      <tilted>0</tilted></_>
    <_>
      <rects>
        <_>
          23 3 1 4 -1.</_>
        <_>
          23 5 1 2 2.</_></rects>
      <tilted>0</tilted></_></features></cascade>
</opencv_storage>
